//Numpy array shape [64, 16]
//Min -0.300965219736
//Max 0.308868288994
//Number of zeros 0

#ifndef W2_H_
#define W2_H_

#ifndef __SYNTHESIS__
model_default_t w2[1024];
#else
model_default_t w2[1024] = {0.2459011674, -0.2025104165, -0.1025836542, -0.1161147654, -0.2153375894, 0.0632145032, 0.0979776010, -0.0326165110, 0.0534815937, -0.0141758760, -0.2074870318, -0.2938930392, -0.0289366599, -0.0588252284, -0.2058102638, -0.1244676039, -0.0544991456, 0.0199905504, 0.1732545197, -0.1467978656, 0.0818570256, -0.0798144192, 0.2505350709, 0.2222452015, 0.0899642631, -0.1616747826, -0.2335398048, 0.2265967876, 0.2488979101, -0.0778172016, -0.2773806751, -0.0885196999, -0.1897654384, -0.0369787626, 0.0998087674, -0.0103577711, -0.2125189006, -0.0497921631, 0.0635300651, -0.1380992383, -0.1380146891, -0.1480857879, 0.0376079045, -0.1204395890, 0.1078450680, 0.1818981320, -0.0647072941, 0.2180666775, -0.1760994643, 0.2544350922, -0.1957132816, -0.2846836746, 0.1097525284, 0.0257630404, 0.2275115401, 0.1259017736, 0.1211329699, 0.0533635393, 0.2524948418, 0.1070821062, -0.0947605893, 0.1176232696, -0.0142126884, -0.1403605789, -0.0598486513, 0.0305017494, 0.0235456936, 0.2283133566, -0.0820838958, 0.0220386423, 0.1309707463, -0.1821451783, -0.2639167011, -0.1465690583, 0.2279588133, 0.1972410381, -0.1411837637, 0.1471622884, -0.1505059004, 0.1152327657, 0.1546405852, -0.2174946517, -0.1707082242, 0.2108198106, 0.0813762695, 0.1896599382, 0.0649093613, 0.0931467041, 0.1182328910, -0.0964399725, -0.1059202254, 0.2112275958, -0.1743041426, -0.0215135943, -0.1894471496, -0.2506754994, 0.2564638555, 0.0357059538, 0.0312773809, -0.0839835778, 0.2828171551, -0.1651990712, 0.2460095286, 0.1798016876, 0.0589115359, 0.2147758305, 0.0059642717, 0.2720921040, -0.0667298660, 0.1938693672, 0.0474970266, 0.2518440783, 0.0477461405, -0.2234025598, 0.0687330440, 0.2541154325, 0.0594055429, -0.1829833388, 0.0652302206, -0.2300525308, -0.0378923714, 0.1178366840, -0.2252861708, -0.0800170749, -0.1091971993, -0.1944288015, -0.0871697143, -0.1625475883, 0.0542603135, -0.1681007743, -0.2135983706, -0.2197738141, 0.0718612894, 0.1192541420, 0.0377373956, 0.1213991940, 0.0330224261, -0.0868005529, -0.0522987358, -0.1753917336, -0.0164643656, 0.1600357294, 0.1744364798, -0.1239309162, 0.1446156651, 0.2208383530, 0.2212952226, 0.0059602363, 0.2673370540, 0.0193559006, 0.1345018148, 0.0321134739, 0.0542791635, 0.0176534317, 0.0655763373, 0.0687897354, -0.0118858945, -0.0487421155, -0.0645966902, 0.0626474395, 0.2725591958, 0.0414449424, 0.2917693555, 0.0039769295, -0.1025966927, 0.1709695011, 0.2273189723, 0.1396414936, 0.0658195764, 0.0150115667, -0.2212698311, -0.1652547419, 0.1473386884, -0.0558740124, 0.0667538121, -0.2473297566, -0.1231340691, -0.1498852372, 0.2399368435, 0.1520865858, -0.0631294027, 0.1786812842, -0.0122778583, 0.1350938231, -0.1226445287, -0.0520291664, 0.2275046259, 0.1963826269, 0.1816578656, 0.2729470134, 0.1682991087, 0.2365107983, 0.0068868995, 0.1224780157, 0.1384165436, 0.0073638498, 0.0182019249, 0.1034093276, -0.1709877700, 0.1527035534, -0.0000687465, -0.1211061850, 0.1173879951, 0.1632925123, 0.1170666441, -0.1958819330, 0.0075799227, 0.1264550835, -0.1401928663, 0.2283253968, 0.1063861251, 0.0240378734, -0.1130589247, 0.2152590156, -0.1804395467, 0.1066838801, 0.2660329938, -0.1396476179, -0.0721345171, -0.2613869905, 0.2691609561, 0.2862489522, -0.2621271610, -0.0583571009, 0.2382912040, 0.1328905672, -0.0296886936, 0.1838838905, -0.2261442989, 0.1049816608, 0.2373350561, -0.1853070855, 0.1687317491, 0.0738713741, 0.0612401888, -0.0418489873, 0.0549221896, -0.0378541425, -0.1788644195, -0.2235017270, 0.1005301699, 0.2995950282, -0.0258533731, -0.0943496302, 0.0336001180, 0.2283352464, -0.1248103157, -0.1421987563, -0.0797562897, 0.1533797979, 0.0570517294, 0.0767813995, 0.0408385806, 0.2393803298, -0.1078328937, 0.2555934787, 0.0608914495, -0.1340584159, 0.1570855379, 0.2138139158, 0.0659892708, 0.2012865990, 0.2609036565, -0.1349418610, 0.0149421096, 0.0707867667, 0.2557075620, 0.0512480289, -0.2615471184, -0.2476493716, -0.0380247794, -0.0718114451, -0.1459682584, -0.2293197960, 0.0133921020, 0.0266852342, 0.1375777572, 0.0221300870, -0.2315540463, 0.2218638361, -0.0874852464, -0.0952757522, -0.0961065590, -0.2467222512, 0.0444336161, 0.2884410918, 0.1079499722, 0.0090729902, -0.2417569607, 0.0910377279, -0.2211834192, 0.2175333351, 0.0622426569, -0.0654613227, -0.1390319765, -0.0572896749, 0.1897196621, -0.0562638752, 0.0084357392, -0.0211891644, -0.0885463208, -0.0454012640, -0.1345445812, -0.0983457714, 0.0611640513, -0.0587562732, -0.0800243989, -0.2617280483, 0.2866496742, 0.0638167039, -0.0527005792, 0.2671228349, -0.0514112115, -0.1403339654, -0.1542760134, 0.0414191484, -0.1641245037, -0.0078905448, -0.1958199739, 0.2375229299, -0.0192278028, -0.0827405453, -0.0994972736, 0.1280019879, -0.2249926776, -0.2003423572, -0.1450971514, -0.2370899469, -0.0582701713, -0.0833085775, -0.1183086634, -0.2370800972, 0.1211138591, -0.0085943257, 0.0666522533, -0.2415653765, 0.2548538446, 0.0194980614, -0.2343484014, -0.2061003894, 0.1298467517, -0.0836909190, 0.2180776745, -0.0556262061, -0.0564197488, 0.0388927124, -0.2987622321, 0.1610404402, -0.0087525342, 0.1655800194, -0.1320927143, -0.2505568266, -0.1785100847, 0.1928296238, 0.1176178828, 0.1994453222, -0.2796671093, -0.1508325040, -0.1167931333, -0.0170634780, -0.0698733479, 0.1393674612, 0.0637144372, -0.0351539478, -0.0569573902, 0.2206690758, -0.1122144014, 0.2243792713, -0.0462950580, -0.0317899026, 0.0010149174, 0.1365140080, -0.1436201781, -0.1453156322, -0.2411060333, 0.1358080655, -0.2594498694, -0.0522408038, 0.0449676551, 0.1764693260, 0.1511489302, -0.1445866525, 0.0293371435, -0.2335136235, -0.0364564955, 0.2014501542, -0.1381245852, -0.1886636764, 0.2574410141, 0.1343710274, 0.1976472884, -0.1769303083, 0.1771006137, -0.1507644206, 0.1174018756, 0.2357847989, 0.2743132710, -0.2126248628, 0.3039110303, -0.1125556678, 0.2067364156, -0.1236952320, 0.2990901768, -0.0532182641, 0.1895630658, 0.0057208566, 0.2468277514, -0.2349259853, -0.1720260084, 0.2949226201, -0.1866853535, 0.0573326461, 0.1820154041, 0.2105603218, 0.2234853208, -0.1991644204, -0.2639281750, 0.0795180649, 0.2484337091, -0.0661529079, 0.0424836166, 0.1198529974, -0.0049464023, 0.2753373086, 0.0509622544, 0.1648429930, 0.0625854060, 0.1389145702, 0.0213530716, 0.0443737246, 0.0102092102, 0.2462683022, 0.0538582578, 0.2860186100, 0.1614109576, -0.0020159658, -0.0360617526, -0.2202407867, 0.2427756488, 0.0538280979, 0.1753254533, 0.2757226825, -0.2126339227, -0.1908700466, -0.2175535262, 0.2242259830, -0.1658283919, -0.2150260955, -0.1920935661, 0.0316955820, 0.0793980137, -0.2144425660, -0.0224075448, -0.0897497833, 0.2395050973, -0.0673571527, 0.0718777776, 0.1439227611, 0.0706966147, -0.0016246682, -0.0702696443, 0.2094541490, 0.0106944991, -0.1395052671, 0.0806883648, 0.1858121902, 0.0245864075, 0.2253455818, 0.1112665460, -0.0139985774, 0.1255142689, 0.2512308061, 0.0002125678, 0.0519486740, 0.1369053274, -0.0915780514, -0.2173888236, -0.1951627880, -0.1571329087, 0.2276490778, 0.0862703621, -0.0913361609, -0.1943381876, -0.0670632049, -0.1335609555, -0.0828303024, 0.2117792070, -0.2476232648, 0.0007428992, 0.1985675842, 0.2011929899, 0.0204042606, -0.1559712291, -0.2175950408, -0.1924510747, -0.1490487754, -0.1599482149, -0.2917340398, 0.1546430886, -0.2819932401, 0.0400240272, -0.2893367410, 0.0098073175, 0.2537079155, -0.1273960769, 0.1227136403, 0.2376573384, -0.2236531079, 0.0471363589, -0.1485304236, 0.2478659153, -0.2178257108, -0.0071108043, -0.1453605294, 0.1118009090, 0.2358149141, -0.1646765620, -0.1425055116, 0.0997222811, -0.2519812584, -0.2730509937, 0.1733666360, 0.2208847255, 0.2197040319, 0.2088577002, 0.2120362222, -0.0855981112, 0.1147614345, -0.2475966662, -0.1585269421, -0.2160080522, -0.0721145943, 0.0231907889, 0.2989510298, -0.0009446854, 0.0758561790, -0.1735701114, -0.0074897311, -0.0730373561, 0.2474370301, 0.1367504299, -0.0816003084, 0.0401755609, 0.2353182137, -0.1611594558, -0.1178692877, 0.1309543103, 0.2510682344, -0.2089070529, -0.0512958467, 0.2456887662, 0.2096904069, 0.2149364650, -0.0463061519, 0.1948499084, 0.1824840754, 0.2089617103, -0.1696176976, 0.2458510101, 0.0803954452, -0.1870055646, -0.1097937450, 0.0155795887, 0.1921940595, 0.0960410237, 0.0030196572, -0.1862557530, 0.0069374344, -0.0912068337, -0.2530543804, 0.1678628772, 0.0960657522, 0.0211607162, 0.1569874138, -0.0653836131, -0.0308856163, -0.2075335383, 0.0484332964, -0.2708268166, -0.1999979764, 0.1477666348, -0.1246521696, -0.2428892404, -0.1680734158, 0.2498205453, -0.2050153911, 0.0309364907, -0.0630306602, 0.1419238299, 0.1149539798, -0.1216581538, 0.2455638796, -0.2078837901, -0.0856037289, 0.0352620222, -0.1449192017, 0.0362736881, 0.2063442916, -0.1685365736, -0.0844257697, 0.2262330204, -0.0793898329, 0.1733264178, -0.2657221556, -0.0774382502, -0.2525255978, 0.0668088421, -0.1076053753, -0.2542490661, 0.2018997818, 0.2020706832, 0.2507216036, 0.0905200839, -0.0366344824, 0.1216223314, 0.0644879639, -0.0423062034, 0.1051673293, -0.0541908294, 0.0654677972, -0.2884420156, -0.0860058889, 0.1244096458, -0.1119576395, -0.0615442544, -0.1840683967, 0.2428793013, -0.0609194823, 0.1593081057, 0.0198220648, -0.0348969325, 0.1945127100, 0.1659228504, -0.0179236289, 0.0758040547, 0.1340378821, -0.1180435494, 0.1339852214, 0.1628441066, -0.2271228284, -0.0936466604, -0.1658783704, 0.1161390617, 0.1303828657, -0.1653426588, -0.1484203041, 0.0111648832, 0.0355108380, -0.1467562318, 0.0077173598, -0.1740550995, -0.0705790073, -0.0821919963, -0.0576158427, -0.2474490255, -0.1977583766, 0.1621295512, 0.1257057339, 0.2160160244, -0.1843869835, 0.1030663848, 0.1955938041, 0.0767832324, -0.0979298204, -0.0486882925, 0.0901523009, -0.2918297946, 0.1186035499, -0.1867818385, 0.0657389313, 0.0768321902, -0.1657254845, -0.2514894903, 0.1044126600, 0.0919952989, -0.2668426931, 0.0581066459, -0.3009652197, 0.0504963957, 0.1235134676, -0.1509380341, 0.1479978114, 0.1158592403, -0.2651474178, 0.0890946165, 0.0232890677, -0.2875257432, 0.1956122071, 0.1527521610, -0.0685921386, 0.2440895587, 0.0940363482, 0.2036295086, 0.0424594656, -0.2336528450, -0.1745089740, -0.1529288888, -0.2722278833, 0.1588304043, 0.1035681665, 0.0891459957, -0.0475333072, 0.2024615705, -0.0631783530, -0.0189100802, 0.0873027146, -0.2571108639, -0.0333968997, -0.1157823727, -0.0941831321, 0.0497295260, 0.1831467152, -0.2196513265, -0.2157847732, -0.1876436025, -0.1625671238, -0.2645723820, -0.2708731592, -0.2216346115, 0.1882443726, -0.0874560103, -0.2153904140, -0.2360433936, 0.0314474739, -0.2818565369, 0.0063214689, 0.1573878080, -0.1597299129, 0.1816661060, 0.1822218895, 0.1423305124, -0.0167351644, 0.1842118204, -0.1993479133, 0.0179225430, -0.0974711552, 0.2557715178, -0.1835418195, 0.1703637689, 0.1416185647, -0.1193107516, -0.2322728783, 0.0431027822, -0.0630698800, -0.0146115422, -0.0127278306, 0.1235905141, -0.1661679149, -0.2027824223, -0.0386944674, -0.0665193498, 0.0540274046, 0.1411460042, -0.1434870958, -0.0078099561, -0.1730461419, -0.2509340644, 0.1518615484, -0.2091471255, 0.1285325885, 0.0315659940, 0.2195755690, 0.0898533836, -0.0183968730, 0.0187524557, -0.2358844727, 0.0274343975, 0.0488792658, -0.1445786804, 0.2716105878, -0.0035090635, 0.1807720363, 0.1258530170, -0.1960918456, 0.2310545444, 0.2173765004, -0.1447085142, 0.1370077282, 0.0993442386, 0.1415167898, -0.0748607591, -0.0276276506, 0.1939834058, -0.1414245218, 0.1804594249, 0.1416357309, 0.2779827714, -0.1735310555, 0.2598254383, 0.0657214373, -0.0991890803, 0.0977062434, -0.1685182303, -0.2509151995, 0.0546991341, -0.1371548921, 0.2445755005, -0.0897643864, 0.2246785462, 0.1420953423, 0.2183260918, 0.2444936037, -0.1786583960, 0.1346605122, 0.1999716312, -0.0742697492, -0.0193401463, 0.0873016417, 0.0126170972, -0.0238838252, 0.1089644432, -0.0595462956, -0.1653828472, 0.0489293151, -0.0784641355, 0.1305561364, 0.1308910996, 0.0226555821, 0.1600419432, 0.1629172415, 0.1549966782, -0.0058605410, -0.2150557339, -0.1575052142, -0.1049927324, 0.0356555060, -0.1552429050, -0.0962612182, -0.1852512211, 0.2205236852, 0.1481696665, -0.2579327524, -0.1677855253, -0.0818094909, -0.1610657424, 0.0093652215, -0.0488556400, 0.0068675717, -0.0930802748, -0.0718167126, 0.0989094079, 0.1105353683, 0.0632128045, -0.2132550776, 0.2869093120, -0.1047816351, 0.2564972639, 0.0217816345, 0.2005626708, 0.0002824225, -0.1455857158, -0.0628243685, 0.0936390683, -0.0442994721, 0.0814085752, -0.0994637832, 0.0670929700, 0.1884970665, -0.0564719141, -0.1378780156, 0.0715329871, 0.1800947189, -0.1846937984, 0.1560137868, 0.2335542738, 0.1390223503, 0.0740041956, -0.1035411507, -0.0923519805, -0.0369073115, 0.0224369448, -0.1018433347, -0.1969962865, -0.0878518149, 0.1801249087, 0.0262686275, 0.0842230618, 0.0603678264, 0.1595452428, -0.1277681589, -0.0632876754, -0.0252537783, 0.0382487439, 0.3088682890, -0.1541174948, 0.0111630820, 0.1920734346, 0.0186191797, 0.0595825315, -0.0641346127, -0.1394441277, 0.1475957781, -0.0233862158, -0.1774732023, 0.0649678111, 0.1936905980, 0.2046248615, -0.0716341585, -0.2589124143, -0.0378417186, 0.0981999710, 0.2799242139, -0.1037507802, 0.1520135999, 0.0732321367, -0.1328613162, 0.1651416868, 0.1597678810, -0.1121299341, 0.0415951572, 0.0045009861, -0.0771750212, -0.1254617721, 0.1479036063, 0.2689810693, 0.1469739974, -0.0324940197, -0.0885637328, 0.2717164755, 0.0697839484, -0.1590389162, -0.1813278198, -0.2102054656, 0.0692448169, -0.0721725523, 0.0012880299, 0.2287928164, 0.0043167481, 0.1431076378, -0.0254862085, -0.0569325089, 0.1905390024, 0.0262993071, -0.1026147753, -0.1678533554, -0.2181091309, -0.1197360307, -0.1848082542, -0.2410859466, 0.1806886643, -0.0142684085, -0.0077416291, 0.1228838265, 0.2625341117, -0.0768840536, 0.2201659381, 0.1169087738, 0.1004298180, 0.0662456006, 0.1701637805, -0.0172373112, -0.0418334156, 0.2519608736, 0.1061367169, 0.2478234023, 0.0913495421, -0.1754559427, 0.1514154971, -0.2033376992, 0.2734727263, -0.0501960963, 0.0065388680, 0.2313167155, -0.0649514720, -0.2022591680, -0.0815953612, 0.0344002172, -0.2407821715, 0.0226081572, -0.0536703616, 0.0110066226, 0.1124998406, -0.0700640082, 0.2688413858, 0.0103820944, -0.1461009979, 0.2356715649, 0.1555530429, -0.0250016879, -0.0996930674, 0.1189515665, 0.0299680512, -0.1199009493, 0.0659246370, 0.2377393991, -0.2314736098, 0.1923121363, 0.2338223904, -0.2371569127, 0.2736111879, -0.1550339311, 0.0832454339, 0.1163850576, 0.2911998630, 0.2878561318, 0.2762859464, -0.0353480801, -0.0423925929, 0.0167292543, -0.0205428246, -0.1967490762, -0.1676814556, -0.0776199102, 0.1123458743, -0.1521298587, 0.2270007730, -0.0377965085, -0.1380209476, -0.0957057551, -0.1410648227, -0.0224757306, -0.1306580156, -0.1423274279, 0.2044840008, 0.2273739427, 0.0478516668, 0.0496016145, -0.0478768870, 0.2095991820, 0.1645492911, 0.1094572172, -0.1414912045, -0.1855839938, 0.0138555877};
#endif

#endif
