//Numpy array shape [16, 64]
//Min -0.316408723593
//Max 0.291252106428
//Number of zeros 0

#ifndef W4_H_
#define W4_H_

#ifndef __SYNTHESIS__
model_default_t w4[1024];
#else
model_default_t w4[1024] = {0.1425293684, -0.3126909435, -0.2057131529, 0.1917945594, -0.2192402035, -0.1254272014, 0.0119495671, 0.1263499856, -0.2252901495, 0.0325829685, 0.0488509573, -0.2538945675, -0.0651800931, -0.1958269775, 0.1284074336, -0.1070336178, 0.2392422110, 0.1093336046, 0.0721620619, 0.1157392487, -0.1205199361, 0.0328859538, -0.0928083137, 0.0026763570, 0.0017579801, -0.0021648589, 0.1627812386, 0.0560321659, 0.0990201235, -0.0111910971, -0.2755891085, 0.1347431690, 0.0858565047, -0.2024133056, -0.2097954750, -0.0187341776, -0.2624266744, 0.1167838573, 0.0552942157, -0.0382861011, -0.1319214851, 0.1471996605, 0.1836178750, -0.1812749803, 0.2014897019, -0.2654158473, -0.3000951111, 0.0116300890, -0.2216242552, -0.2911501229, -0.2374512553, 0.0666011423, 0.0111649726, 0.2116737366, 0.0501394570, 0.1242922470, 0.2296550721, 0.1235566586, 0.0260096267, -0.1144472435, -0.1020461395, -0.3164087236, 0.1578732282, 0.0914488062, -0.0704804137, 0.1356951743, 0.0968265161, -0.1930227727, -0.0828345194, 0.2208522856, 0.2263320833, 0.1206645370, -0.1477372050, -0.0996785834, -0.2833485305, -0.0719019473, 0.1190609485, 0.1383710504, 0.1786759049, -0.2194642723, 0.1365095824, -0.1506576687, -0.2266834378, 0.0750329569, -0.0077938302, 0.1613049060, -0.2873211205, -0.2866376340, 0.1969137490, -0.1397676617, -0.1223232746, 0.1093309447, 0.1477059573, -0.2385472059, -0.2200087160, -0.0283471048, 0.0658829659, -0.2710056901, 0.1518415213, -0.2952319086, -0.0510985479, 0.0926305875, 0.1950837523, 0.1071342230, -0.2993552983, 0.1703088284, -0.1567733139, 0.2305795252, -0.2000116557, 0.1889144629, 0.2068714947, 0.0332081169, -0.2451333851, -0.2916893065, -0.1340619326, -0.2370894104, 0.0520926751, -0.1274381727, 0.0224877167, -0.1037583500, 0.2334499508, 0.1949533671, 0.1287200451, -0.0339415781, 0.1083824113, -0.1561281979, -0.0609271377, -0.2998781204, 0.1363209039, -0.1557856798, 0.0349603333, -0.2213695645, 0.1690063179, -0.3060005307, -0.1632491797, 0.2289795429, 0.1435211301, 0.1875382066, -0.1830134690, -0.0658851564, -0.2490376234, -0.0701778308, 0.1706055850, -0.0205445942, -0.2156808227, -0.0517602749, -0.1105934381, -0.1279765666, -0.2585520446, -0.2205498070, 0.2238121331, -0.1187491342, 0.0052669896, -0.1913252771, -0.2947959304, -0.1790352464, 0.1935575157, -0.1182999983, 0.2261364758, -0.0705315769, 0.1931106746, 0.0983962044, -0.0842183083, -0.0992471725, 0.2011171281, -0.2545824051, -0.1522649527, 0.1274628192, -0.0676183403, 0.1339552701, 0.1524639428, 0.0821237341, 0.0754925311, 0.2037775069, 0.1835467964, -0.1294609308, -0.1231104210, -0.0551613867, -0.1861721724, -0.2568120360, 0.2347435653, 0.0364779755, -0.0416066982, -0.2464671582, -0.0540668778, 0.1280724555, 0.0097610876, -0.2971840501, -0.0315452106, -0.0861125812, -0.2638261914, -0.2734634280, 0.0091285948, -0.0211291239, 0.0788325369, -0.0227702297, -0.0610084496, -0.0062569552, -0.1250961125, -0.0317434631, -0.2765462399, 0.1987086684, 0.1432175487, 0.1879568249, 0.1959818304, -0.1859592199, 0.0216549486, 0.0702918470, -0.1238743141, 0.1031787917, 0.1186860055, 0.0766993314, -0.0014181626, 0.0381632522, 0.0329550840, 0.0232366621, -0.2807750404, -0.0280144624, -0.1612291038, -0.2564338148, 0.0011928030, -0.2390082926, -0.2391395867, 0.2100494355, 0.1249450967, 0.1911192238, -0.0125168366, 0.1232079417, -0.1488760412, -0.1196860000, 0.2298461795, 0.0063254223, -0.1229301542, -0.1470058411, -0.0041010776, 0.1600202918, -0.1216675937, 0.1142652035, -0.2298848182, -0.2925942242, -0.0092806229, -0.2290141135, -0.1310435534, 0.1344490051, 0.0277609844, -0.2249417454, -0.1064227447, 0.0644846261, 0.2056982368, 0.0274964217, -0.0590533949, 0.0892091021, -0.0941378400, -0.2845783830, -0.1388146132, 0.0567531027, -0.2360330969, 0.1176456064, -0.0829183534, 0.0601236895, -0.2242588252, -0.2732406855, 0.1503804177, 0.2297913879, -0.1225662529, -0.0481752120, 0.0664560422, 0.2201768160, -0.0207779557, -0.1007238552, -0.1713320464, -0.1770500988, -0.1884854138, -0.0045562079, -0.2789710760, -0.0470936298, 0.1115904525, 0.1740532666, -0.2296819240, 0.1480492651, 0.2056887895, 0.1969347447, -0.1501677185, -0.1950063258, 0.0610511750, 0.1259202212, 0.1198514700, 0.1228675470, 0.1862930059, 0.0210283007, -0.1585865319, -0.2416330725, -0.2684288621, 0.0781345591, 0.0190266110, -0.0108829346, -0.1963797510, -0.2512338161, -0.1587120146, -0.2563402355, 0.2002532631, -0.2576873004, -0.2504977882, -0.2166017741, -0.1896439195, 0.1852179319, 0.0630567819, 0.0701668635, 0.1281131953, -0.0790232494, -0.0523382314, 0.1804263443, 0.2276755571, 0.0415637679, 0.0414751135, 0.0221103933, 0.0085287727, -0.1974833906, 0.2041164041, -0.0453220643, 0.2737475634, 0.0792313591, 0.1998962909, -0.2940867841, -0.1536186635, -0.1737929583, -0.0670820698, -0.2065622509, -0.0473696664, -0.2954049706, -0.1501444727, -0.0867374986, 0.1691406965, -0.1209173799, -0.1797866821, 0.0412869900, -0.0698276535, 0.2071902901, 0.1169430688, 0.2878744304, -0.2846415341, -0.0387187786, -0.1095395088, 0.2580855787, 0.1267313808, 0.0097029172, 0.0138783464, 0.2236135900, -0.0409535244, -0.2779613435, -0.2727614641, -0.2332910746, 0.1787149757, -0.2056384385, -0.1473858654, -0.2652361393, 0.0152017931, -0.1960731000, -0.1678381562, -0.0042393375, -0.0791200027, -0.1349540055, 0.1950215548, -0.0164153446, -0.2079794109, 0.1112139449, 0.0263814200, -0.1796171516, -0.0258845203, 0.2130251080, 0.1635508835, -0.0039838580, 0.1993987560, -0.0533221364, -0.3085277975, -0.1294307709, 0.1041927338, -0.1637210548, -0.0304319952, 0.1708412319, -0.0890499577, -0.0924538001, -0.1971029639, -0.2530008256, 0.1177940518, -0.2583443224, -0.0445375331, -0.0009903831, -0.2348305285, 0.2159180045, -0.2421973795, 0.2186737806, -0.1100326180, -0.1637732387, -0.1865824908, -0.1763741970, -0.0996566340, 0.2103566229, 0.0154546816, 0.0259352978, 0.0575482920, 0.1333840787, 0.0194229726, 0.2297801822, -0.1290329397, 0.1777459830, -0.2857174575, -0.1187473908, -0.1601828337, -0.1057494730, 0.0444796123, -0.1457546055, -0.2940131724, -0.0774854347, -0.0008904805, -0.0564710014, 0.0454147421, 0.0095598400, 0.0753313377, -0.0094959270, 0.1355618238, -0.2834234834, 0.0021642377, 0.1520723403, -0.0542635061, -0.0404145271, 0.0151808616, -0.1815352589, -0.0125557501, -0.1702082604, -0.1961923242, -0.0475473031, 0.0271757394, 0.0090231365, -0.1111675277, -0.0154150669, 0.1190421134, 0.2912521064, -0.2561543882, -0.1776462644, -0.2172319740, -0.0088821482, -0.1331496537, 0.0963025019, 0.1746921986, -0.0507975295, 0.0558763929, 0.1754417717, 0.0988900289, -0.0238347650, -0.2193126082, 0.1709559411, -0.2900000215, -0.0988690108, -0.1428871453, 0.2097130716, 0.0402644351, -0.0541642942, -0.1705965102, 0.1381265223, -0.1230262741, 0.0449190773, -0.1627693474, -0.2317566574, 0.0797296613, -0.2745150328, 0.2210599780, 0.0824195519, 0.2228142768, 0.0489241891, 0.0808259174, -0.0190609414, -0.1374750286, -0.1910649240, 0.0712495968, -0.0618391894, 0.1474711150, 0.1445366144, -0.1196121499, 0.2498861849, 0.2200644463, -0.1156042069, 0.1692232192, -0.2001565397, 0.1526674032, -0.1170583665, -0.2588506043, 0.1744155735, 0.1061199531, -0.2644883990, 0.1711763144, -0.1236127317, -0.0521170609, -0.2488977760, -0.0872262940, 0.1172564849, 0.0968106911, 0.1915847957, -0.2171108127, -0.0523143448, 0.1119057387, 0.2149595767, -0.1415021271, 0.0621389262, 0.1814724356, 0.0665358752, 0.0882340670, 0.0460742638, -0.2338526249, 0.1394226700, 0.0135060102, -0.0828818232, 0.1977433264, -0.2615125179, -0.0627552792, 0.1472267210, 0.1970311403, 0.0094320858, 0.0236178245, 0.1924262941, -0.2274261862, 0.0550871454, 0.0011075239, -0.0924517140, -0.2732588649, 0.0071484759, -0.0927904844, -0.2937754393, -0.0817145556, -0.2906085849, 0.0546446368, -0.0049275584, -0.2391636521, -0.2400036305, 0.1157810763, -0.1792403609, 0.1082054973, 0.1333865970, 0.0636161268, -0.0388202295, 0.0873400271, -0.1462846547, 0.1524158567, -0.0536087416, -0.2863011062, -0.2208855301, -0.1626438051, 0.2131517529, 0.0574035719, 0.1476615220, -0.1276237667, -0.1927870214, 0.1636492461, -0.2204270214, -0.2672981620, 0.0999858826, 0.1827179044, 0.1293898225, 0.1051461473, 0.2417278737, -0.0389948003, 0.1522171646, 0.1665064692, -0.0414355174, 0.1984404325, 0.1580194831, -0.0412022918, 0.0462928079, -0.0443127006, 0.0799633116, 0.1549966633, 0.0842121020, -0.0449632257, -0.0733492002, 0.2156126946, -0.0369188190, -0.1782243103, -0.0202007703, -0.0320241936, 0.1622311473, -0.2234907597, -0.1247495860, 0.1595982462, -0.1673848182, 0.1265344173, 0.2571922243, -0.1335478425, -0.1534400880, -0.1823316216, -0.2112202346, 0.2265729606, -0.0873429254, -0.0382541083, -0.1108406112, -0.2208981514, 0.1889176965, -0.1112788394, 0.0380211771, -0.3061122894, -0.1728400290, -0.1227075011, 0.1251214147, -0.2607294619, -0.2424288988, 0.1467767656, 0.1210863441, 0.1059628427, 0.2090191692, -0.1493488252, -0.0915339589, 0.0526959114, -0.1208037809, -0.2045492381, -0.1959258020, -0.2630754411, -0.1433977783, 0.0699110106, 0.2249325961, 0.0325986743, -0.1453659981, -0.3092299700, -0.1600753069, 0.0886428878, 0.2107472271, 0.1673747897, -0.0414398536, 0.0320564695, 0.0615978204, 0.2199408412, 0.1942492872, 0.0579395592, -0.2530120313, -0.1904067248, -0.2673988342, -0.1807654798, 0.1564239264, 0.2023906708, 0.1459374279, -0.0357997902, 0.0727458894, 0.0164368264, -0.2936164141, -0.2503982186, 0.1732525080, -0.2150374055, -0.1874292493, -0.0457490124, 0.0005971946, 0.0058091902, 0.0430685654, 0.1006420627, -0.1651877761, -0.2564340830, 0.0963768661, 0.1886843592, 0.0095091118, -0.0536688082, -0.1092852950, -0.2869915962, -0.2567432821, 0.1047417149, -0.0529749654, -0.0181521662, -0.1125016734, 0.1238422096, -0.2934056222, 0.0636401996, -0.1429489851, 0.0717458576, 0.1573455036, 0.1655063629, -0.2954972684, 0.0877834186, -0.1843164563, 0.2105261534, 0.2126752734, 0.1541309506, 0.2268870026, 0.1176448986, -0.1695917696, -0.0459886380, 0.0892873853, -0.2768441141, 0.0347797573, -0.2666532993, 0.1918382049, -0.2676490843, -0.0046586464, -0.2104490846, 0.0697712302, 0.1780336946, -0.1563683599, -0.0509382337, -0.1693730354, -0.2839948535, -0.1193638295, -0.0538139790, 0.0136790378, -0.0349387191, 0.1476572454, 0.1819201112, -0.2223562747, 0.1854469776, -0.1296139508, -0.0119298706, 0.0153465327, 0.2198932767, 0.2163752317, 0.1032790169, 0.0535766818, 0.1763114631, 0.0614441037, 0.0854780748, 0.2258819491, -0.0498787537, 0.1900871545, 0.0687819049, -0.1613831818, -0.0657766536, 0.1808977276, -0.2372054309, 0.1793572903, 0.1183274388, 0.0106276348, -0.2871083617, -0.2725618184, -0.2515574992, 0.1539791226, 0.0235195402, 0.0438232012, 0.0295366514, -0.0668084621, 0.0125093320, -0.3003538847, 0.1898884624, 0.1461673230, 0.0415287688, 0.0729933307, -0.0496798344, -0.3094348013, 0.1583227515, 0.0970380902, 0.0100714909, 0.1313268691, -0.1250678748, 0.0122975279, 0.1826005131, 0.1137964800, 0.0400337651, -0.2512305379, -0.1718761623, -0.0865749568, -0.0220891070, -0.2900288105, 0.0340960585, 0.2314133048, 0.1360501200, 0.2065592557, 0.0446795076, 0.0678637624, 0.1248858348, -0.1699451506, -0.2378151864, 0.2402086705, -0.3058949113, -0.1393090785, -0.2880470455, -0.2218611091, -0.1364424527, -0.0407255851, 0.0654845461, 0.1028480455, -0.1874319315, 0.1879598796, -0.2191356272, 0.0561986715, 0.1648503840, 0.0354797356, 0.1999994069, 0.0943175629, -0.2106227577, -0.3000587821, 0.0707245022, -0.0180561393, 0.1070348397, 0.1424597204, 0.0167402774, 0.1281799823, 0.0728444383, 0.0680795014, 0.0474761724, 0.0481674597, 0.1159214899, -0.2663579881, 0.2061983496, 0.1784604937, 0.1863190085, -0.2392731607, 0.0411891304, -0.1434208751, -0.2721800506, 0.1594807655, 0.1235967502, 0.1941301525, -0.0436047837, 0.2144516110, 0.0029195608, -0.0570776314, 0.0994679704, -0.2198591828, -0.0206410736, 0.1552776992, -0.1639044434, -0.0313967131, -0.2572534382, -0.1561166346, 0.1930507421, 0.0567196272, -0.0852185637, -0.2264582664, -0.1854072511, -0.1884410828, -0.1094077379, 0.0255986415, 0.0415856279, 0.1329136789, 0.1389347613, 0.0243534055, 0.0123614725, -0.1733335257, 0.1734923273, 0.0445142500, 0.1296043992, 0.0544869788, -0.2319696844, -0.1798128188, -0.1639022082, -0.0802303776, 0.0168821067, 0.1015517935, -0.1606118679, 0.1534253210, 0.0513729900, 0.0085152127, -0.0400309265, -0.1178857386, 0.0821453780, 0.1123474836, -0.0677833110, -0.1683657020, 0.2086447477, -0.2092657536, -0.1746130884, 0.1838444322, -0.0520711578, -0.0085866433, -0.2759991288, -0.0283520482, 0.1920348406, -0.2425854057, 0.1134802550, -0.3049535453, 0.0546609126, 0.0466320589, -0.1548257321, -0.0387930833, -0.1878788471, 0.0292218905, -0.0950980932, -0.1622955948, 0.0748662576, -0.0250490475, -0.1740196049, 0.0870745927, 0.0752075166, 0.1196783334, 0.1584070623, -0.2093047351, -0.2659625411, 0.1714665592, 0.2138244063, -0.2354738712, -0.1861897856, -0.3054175973, 0.0085196383, -0.2011457980, -0.2975954413, -0.1060438901, 0.1253359169, 0.2012006640, -0.1326148212, -0.1291480809, -0.2643512487, -0.3052360415, -0.0234231669, -0.1263874620, -0.1386328191, 0.1738291234, -0.0409604907, -0.0912015066, -0.2495151758, 0.1246004850, -0.2810606360, -0.0633147210, 0.0891043022, -0.2304154336, -0.2142357677, 0.0461562760, 0.2013964504, -0.0197672024, -0.1466189027, -0.1010861397, 0.0356083624, 0.0971757546, 0.0017667554, 0.0239393394, 0.2114525139, -0.1452064961, 0.1944369078, -0.0427057631, -0.2864215076, 0.0310911313, -0.0014341893, -0.1596122682, -0.2648926675, -0.2146078646, -0.1427273899, 0.0696260706, -0.0671012476, 0.1640745699, -0.0729111806, -0.1305719018, -0.1524960548, 0.2177058458, -0.1301959008, -0.0761925206, 0.0264200605, -0.1928748339, 0.0749906376, -0.1236775741, 0.0644814670, 0.2255831361, -0.0064340504, -0.0316989608, -0.0858331770, 0.1789403409, -0.2261053771, 0.0306892637, -0.2951233089, -0.0941920504, -0.2978902757, -0.2411280870, -0.2207970619, 0.1431915909, 0.0146967396, 0.2397082299, -0.0379849374, -0.0251340587, -0.1460870355, 0.2232206315, 0.0848367736, -0.1441122890, -0.1462922096, -0.2471720427, 0.1950073242, 0.0394096076, -0.0695580319, 0.0359595120, -0.2295566350, -0.0480148904, 0.0405511111, 0.1964289099, -0.0373488329, 0.1346620023, -0.2461640090, -0.0581669435, -0.0047615292, 0.1177922562, 0.0791904554, -0.0807286575, -0.0013242029, 0.0028001580, 0.0048863026, -0.0702295303, -0.1914770901, 0.1428512484, -0.0075155599, 0.1967835128, -0.0202319175, -0.2536738813, -0.1063680649, 0.0855733529, -0.2233751863, -0.0480578840, -0.2355704308, -0.0178710651, -0.2709536850, 0.2083170861, -0.1239728034, 0.0958821699, -0.3092114627, 0.0971999615, -0.0148977851, 0.1078110114, 0.2316129953, -0.1596352011, -0.2710868120, -0.0084207086, 0.0109553849, -0.1160682291, -0.1399358213, -0.2701840699, -0.2940078378, -0.1599441916, 0.1834269762, 0.0820043907, -0.2595297992, 0.0308975410, 0.1769720167, 0.2395797372, -0.2037637532, 0.0843848363, -0.0690166503, -0.2560874224};
#endif

#endif
