//Numpy array shape [64]
//Min -2.428975343704
//Max 1.276934742928
//Number of zeros 0

#ifndef B4_H_
#define B4_H_

#ifndef __SYNTHESIS__
model_default_t b4[64];
#else
model_default_t b4[64] = {0.10564506053924560546875000, -0.29144287109375000000000000, -1.31326735019683837890625000, -1.06368458271026611328125000, 0.42127233743667602539062500, 0.19995032250881195068359375, -1.37062942981719970703125000, -2.25985908508300781250000000, -1.63326418399810791015625000, -0.15151774883270263671875000, 0.43980148434638977050781250, -0.04595768824219703674316406, -0.16055634617805480957031250, 0.31341722607612609863281250, 1.11565947532653808593750000, 1.27693474292755126953125000, -0.27065292000770568847656250, -2.05184793472290039062500000, -2.04879593849182128906250000, 0.07639413326978683471679688, 1.24050688743591308593750000, 0.41684257984161376953125000, -0.64442580938339233398437500, -0.57362365722656250000000000, -0.18910554051399230957031250, -0.22929438948631286621093750, -0.50172549486160278320312500, -0.08258638530969619750976562, 0.64382529258728027343750000, 0.29921939969062805175781250, -0.88711053133010864257812500, -0.29359567165374755859375000, 1.24767482280731201171875000, 1.00389063358306884765625000, -0.30729526281356811523437500, -0.90726834535598754882812500, 0.36524987220764160156250000, 0.97532421350479125976562500, 0.11486558616161346435546875, -1.51803588867187500000000000, -2.42897534370422363281250000, -2.16647267341613769531250000, -0.61618894338607788085937500, 0.41778746247291564941406250, -0.14439155161380767822265625, -1.28033220767974853515625000, -1.13906753063201904296875000, 0.48274126648902893066406250, 0.63804149627685546875000000, -1.04280269145965576171875000, -1.92309033870697021484375000, -1.34572637081146240234375000, -0.12947601079940795898437500, 0.19593410193920135498046875, -0.22464905679225921630859375, -0.36811828613281250000000000, -0.35635513067245483398437500, -0.96495360136032104492187500, -1.50313174724578857421875000, -1.01506066322326660156250000, 0.05086487159132957458496094, 0.28564819693565368652343750, -0.46733328700065612792968750, -0.55013412237167358398437500};
#endif

#endif
