//Numpy array shape [64, 16]
//Min -0.905041754246
//Max 1.692778468132
//Number of zeros 0

#ifndef W2_H_
#define W2_H_

#ifndef __SYNTHESIS__
model_default_t w2[1024];
#else
model_default_t w2[1024] = {-0.59499764442443847656250000, 0.06601353734731674194335938, 0.23813618719577789306640625, -0.19609105587005615234375000, -0.71696972846984863281250000, -0.39226460456848144531250000, 0.46758088469505310058593750, 1.17473638057708740234375000, 1.07607066631317138671875000, 0.20151787996292114257812500, -0.51677322387695312500000000, -0.63530564308166503906250000, -0.30755400657653808593750000, 0.32899039983749389648437500, 0.87113457918167114257812500, 0.54974442720413208007812500, 0.21534192562103271484375000, 0.06254149228334426879882812, 0.07877877354621887207031250, -0.26053810119628906250000000, -0.37063488364219665527343750, -0.12939809262752532958984375, -0.06145276129245758056640625, -0.10771502554416656494140625, -0.17865541577339172363281250, -0.22377997636795043945312500, -0.25159266591072082519531250, -0.34033772349357604980468750, -0.04944067075848579406738281, 0.33474656939506530761718750, 0.61187875270843505859375000, 0.19390010833740234375000000, -0.11567515134811401367187500, 0.01389350742101669311523438, 0.55329078435897827148437500, 0.68145996332168579101562500, 0.62912970781326293945312500, 0.22985784709453582763671875, -0.10667851567268371582031250, 0.01498521585017442703247070, 0.28391876816749572753906250, 0.61402791738510131835937500, 0.53674882650375366210937500, 0.29155772924423217773437500, 0.09202180802822113037109375, 0.19162449240684509277343750, 0.20238380134105682373046875, -0.03810721635818481445312500, 0.12415532767772674560546875, 0.41376486420631408691406250, 0.37124133110046386718750000, 0.14602437615394592285156250, 0.07814614474773406982421875, 0.18740369379520416259765625, 0.13585264980792999267578125, 0.03189363330602645874023438, 0.11629414558410644531250000, 0.61976319551467895507812500, 0.79238939285278320312500000, 0.64888221025466918945312500, 0.32213789224624633789062500, 0.15832151472568511962890625, 0.25056350231170654296875000, 0.59809011220932006835937500, 0.11956124007701873779296875, 0.51923257112503051757812500, 0.96901398897171020507812500, 0.70182782411575317382812500, 0.38805410265922546386718750, 0.32892978191375732421875000, 0.46691435575485229492187500, 0.50673258304595947265625000, 0.55261468887329101562500000, 0.53752613067626953125000000, 0.44664943218231201171875000, 0.10372510552406311035156250, -0.07405478507280349731445312, -0.19527237117290496826171875, -0.27929371595382690429687500, -0.16323959827423095703125000, 0.15029756724834442138671875, 0.36962693929672241210937500, 0.13158850371837615966796875, -0.23527036607265472412109375, -0.49069821834564208984375000, -0.35214549303054809570312500, 0.24401728808879852294921875, 0.41837874054908752441406250, 0.21355032920837402343750000, 0.00299541652202606201171875, 0.19342724978923797607421875, 0.17312560975551605224609375, 0.22377322614192962646484375, 0.55075430870056152343750000, 0.73520845174789428710937500, 0.46240395307540893554687500, 0.07205426692962646484375000, -0.01269338093698024749755859, -0.04190595448017120361328125, -0.01682447083294391632080078, 0.05094973370432853698730469, 0.19085241854190826416015625, 0.08986511081457138061523438, -0.22648946940898895263671875, -0.35553503036499023437500000, -0.06897407770156860351562500, 0.24687393009662628173828125, 0.51870417594909667968750000, 0.62373954057693481445312500, 0.33962348103523254394531250, -0.17083735764026641845703125, -0.48596659302711486816406250, -0.43371888995170593261718750, -0.03193632885813713073730469, 0.20229007303714752197265625, 0.25020131468772888183593750, -0.02724838256835937500000000, -0.28709712624549865722656250, -0.34459069371223449707031250, -0.27561199665069580078125000, -0.15449780225753784179687500, 0.10521475225687026977539062, 0.16160076856613159179687500, -0.00713386805728077888488770, -0.18085612356662750244140625, -0.39537599682807922363281250, -0.28423395752906799316406250, -0.07940887659788131713867188, -0.77970373630523681640625000, 0.22142302989959716796875000, 0.37043797969818115234375000, 0.00054959522094577550888062, -0.26185226440429687500000000, -0.10332266986370086669921875, 0.20494574308395385742187500, 0.36088633537292480468750000, 0.46006426215171813964843750, 0.23427128791809082031250000, 0.33145031332969665527343750, 0.58329355716705322265625000, 0.79641669988632202148437500, 0.75494253635406494140625000, 0.46738249063491821289062500, 0.11213728785514831542968750, 0.59287673234939575195312500, 1.04090201854705810546875000, 0.95629042387008666992187500, 0.21660113334655761718750000, -0.46060320734977722167968750, -0.23508183658123016357421875, 0.38027179241180419921875000, 0.50795572996139526367187500, 0.18766999244689941406250000, -0.17679844796657562255859375, -0.06305900961160659790039062, -0.21926663815975189208984375, 0.02525676973164081573486328, 0.49828523397445678710937500, 0.88249611854553222656250000, 0.42530572414398193359375000, 0.01732137426733970642089844, 0.02436122298240661621093750, 0.13044334948062896728515625, 0.16299311816692352294921875, 0.07407750189304351806640625, 0.35534933209419250488281250, 0.80033606290817260742187500, 1.04456794261932373046875000, 1.29643487930297851562500000, 1.32232379913330078125000000, 0.70373743772506713867187500, 0.53635782003402709960937500, 0.95530295372009277343750000, 1.16265988349914550781250000, 0.99185258150100708007812500, 0.36502742767333984375000000, 0.26853510737419128417968750, 0.79476100206375122070312500, 1.12851214408874511718750000, 1.08871603012084960937500000, 0.18470644950866699218750000, -0.49374398589134216308593750, -0.34157618880271911621093750, -0.27420341968536376953125000, -0.09723799675703048706054688, 0.52275741100311279296875000, 0.71499437093734741210937500, 0.37812724709510803222656250, -0.12588872015476226806640625, -0.38404682278633117675781250, -0.28303426504135131835937500, -0.21827100217342376708984375, -0.04894709587097167968750000, -0.11793848127126693725585938, -0.04181906580924987792968750, 0.05210159346461296081542969, -0.04273551329970359802246094, -0.13466131687164306640625000, -0.16381758451461791992187500, -0.10716666281223297119140625, 0.14834780991077423095703125, 0.28824445605278015136718750, -0.01155608240514993667602539, -0.24721497297286987304687500, -0.21944212913513183593750000, -0.24979498982429504394531250, -0.21149374544620513916015625, -0.18474577367305755615234375, 0.10998500883579254150390625, 0.34656476974487304687500000, 0.22228418290615081787109375, -0.26906523108482360839843750, -0.57769650220870971679687500, -0.66566550731658935546875000, -0.51846438646316528320312500, -0.32695493102073669433593750, 0.00363021343946456909179688, 0.24961358308792114257812500, 0.27169901132583618164062500, 0.00526256533339619636535645, -0.27697506546974182128906250, -0.11527244001626968383789062, 0.17670173943042755126953125, 0.42562428116798400878906250, 0.33388745784759521484375000, 0.10618301481008529663085938, -0.27045619487762451171875000, -0.17222480475902557373046875, -0.06715745478868484497070312, 0.05336590856313705444335938, 0.00475173164159059524536133, 0.04837749525904655456542969, 0.34145265817642211914062500, 0.58020031452178955078125000, 0.16723082959651947021484375, -0.27095881104469299316406250, -0.42746737599372863769531250, -0.17470760643482208251953125, 0.17070867121219635009765625, 0.44089797139167785644531250, 0.56791996955871582031250000, 0.61878609657287597656250000, 0.46655297279357910156250000, 0.29380095005035400390625000, 0.21457637846469879150390625, 0.25500842928886413574218750, 0.16596157848834991455078125, -0.22822731733322143554687500, -0.41401460766792297363281250, -0.00965797249227762222290039, 0.64071857929229736328125000, 0.99696260690689086914062500, 0.71264129877090454101562500, 0.15455518662929534912109375, -0.26051148772239685058593750, -0.36714422702789306640625000, 0.10794443637132644653320312, 0.45808014273643493652343750, 0.57940751314163208007812500, 0.07172349095344543457031250, -0.44276118278503417968750000, -0.36418607831001281738281250, 0.11795118451118469238281250, 0.35188740491867065429687500, 0.41927599906921386718750000, 0.18482914566993713378906250, -0.28635135293006896972656250, -0.58883607387542724609375000, -0.32257002592086791992187500, -0.14140670001506805419921875, -0.02642311900854110717773438, -0.07589061558246612548828125, 0.01761033385992050170898438, 0.15422640740871429443359375, 0.19886110723018646240234375, 0.07180757820606231689453125, -0.20588868856430053710937500, -0.00522343255579471588134766, 0.33119615912437438964843750, 0.41949880123138427734375000, 0.31235805153846740722656250, 0.33300486207008361816406250, 0.42977991700172424316406250, 0.33009505271911621093750000, 0.14150206744670867919921875, 0.28980344533920288085937500, 0.23606923222541809082031250, -0.16492906212806701660156250, -0.36418420076370239257812500, -0.19750390946865081787109375, 0.05110828951001167297363281, 0.19223210215568542480468750, 0.27615094184875488281250000, 0.23563642799854278564453125, 0.10387039184570312500000000, 0.19837231934070587158203125, 0.77319908142089843750000000, 1.12293112277984619140625000, 0.83394485712051391601562500, 0.63687509298324584960937500, 0.50744283199310302734375000, 0.24418319761753082275390625, 0.01196414697915315628051758, -0.27245566248893737792968750, 0.00513634225353598594665527, 0.77729529142379760742187500, 1.22427499294281005859375000, 1.31177735328674316406250000, 1.00787496566772460937500000, 0.94187992811203002929687500, 0.76987212896347045898437500, 0.32108652591705322265625000, -0.07788523286581039428710938, -0.00060556578682735562324524, -0.02098750323057174682617188, -0.09730136394500732421875000, -0.21089911460876464843750000, -0.23401832580566406250000000, -0.07653183490037918090820312, 0.08560199290513992309570312, 0.15652282536029815673828125, 0.03512161597609519958496094, 0.30583211779594421386718750, 0.21058073639869689941406250, -0.15695330500602722167968750, -0.25599250197410583496093750, 0.07335887104272842407226562, 0.30067643523216247558593750, 0.36072531342506408691406250, 0.16519904136657714843750000, 0.13647298514842987060546875, 0.40010899305343627929687500, 0.64066678285598754882812500, 0.68532168865203857421875000, 0.41876679658889770507812500, 0.09156251698732376098632812, 0.06449856609106063842773438, 0.28702551126480102539062500, 0.39422032237052917480468750, 0.10529168695211410522460938, -0.02656667307019233703613281, 0.02703800238668918609619141, 0.09682608395814895629882812, 0.10721371322870254516601562, 0.32048884034156799316406250, 0.52039676904678344726562500, 0.65180259943008422851562500, 0.22982676327228546142578125, -0.08949690312147140502929688, 0.04157159477472305297851562, 0.23207022249698638916015625, 0.09280312061309814453125000, -0.29373186826705932617187500, -0.27186059951782226562500000, -0.07040169835090637207031250, 0.08733001351356506347656250, -0.27388659119606018066406250, -0.71528553962707519531250000, -0.58220815658569335937500000, 0.03433234989643096923828125, 0.49915227293968200683593750, 0.65967553853988647460937500, 0.37467980384826660156250000, -0.02459827437996864318847656, -0.40454980731010437011718750, -0.38857087492942810058593750, -0.19581766426563262939453125, -0.18369776010513305664062500, -0.09123402088880538940429688, -0.00071822374593466520309448, -0.25740215182304382324218750, -0.50275164842605590820312500, -0.50144624710083007812500000, -0.30071696639060974121093750, -0.09716937690973281860351562, -0.11473336815834045410156250, -0.07196067273616790771484375, 0.04321105033159255981445312, 0.09838516265153884887695312, 0.10955978184938430786132812, -0.09765133261680603027343750, -0.07788815349340438842773438, 0.17157362401485443115234375, -0.12404492497444152832031250, -0.41612118482589721679687500, -0.23857089877128601074218750, 0.22842293977737426757812500, 0.36542865633964538574218750, 0.11623260378837585449218750, -0.24211511015892028808593750, -0.39938467741012573242187500, -0.54864245653152465820312500, -0.49207383394241333007812500, -0.35123616456985473632812500, 0.08029828220605850219726562, 0.17417663335800170898437500, 0.07845504581928253173828125, -0.06192971765995025634765625, -0.13396199047565460205078125, -0.03774463012814521789550781, 0.42301547527313232421875000, 0.84976464509963989257812500, 0.77156341075897216796875000, 0.21753160655498504638671875, -0.11810762435197830200195312, 0.02116588875651359558105469, 0.23880639672279357910156250, 0.18579126894474029541015625, 0.09494598209857940673828125, 0.09325364232063293457031250, 0.01412803493440151214599609, -0.18981221318244934082031250, -0.21181589365005493164062500, -0.14872133731842041015625000, 0.25275072455406188964843750, 0.22245521843433380126953125, 0.03934001177549362182617188, 0.05336382985115051269531250, 0.27130228281021118164062500, 0.06916407495737075805664062, 0.03715975210070610046386719, 0.00479681184515357017517090, 0.06557411700487136840820312, 0.13984638452529907226562500, 0.08175731450319290161132812, 0.01443252712488174438476562, -0.04072141274809837341308594, -0.11298177391290664672851562, -0.04802532121539115905761719, -0.19232475757598876953125000, -0.49312433600425720214843750, -0.90504175424575805664062500, -0.74500757455825805664062500, 0.07971660047769546508789062, 0.83783835172653198242187500, 0.74683082103729248046875000, 0.20123127102851867675781250, -0.26323375105857849121093750, -0.14174050092697143554687500, 0.09019569307565689086914062, 0.06368421763181686401367188, 0.01149491593241691589355469, -0.06748901307582855224609375, -0.03814807906746864318847656, 0.15100035071372985839843750, 0.66149801015853881835937500, 0.83027774095535278320312500, 0.84824287891387939453125000, -0.01208355464041233062744141, 0.18129017949104309082031250, 0.22487689554691314697265625, -0.07168906182050704956054688, -0.47378107905387878417968750, -0.44960609078407287597656250, -0.10858111828565597534179688, 0.17312163114547729492187500, 0.22369562089443206787109375, 0.07662240415811538696289062, 0.07565348595380783081054688, 0.06272154301404953002929688, 0.09886500239372253417968750, 0.04795498400926589965820312, 0.00949090626090764999389648, -0.16584673523902893066406250, -0.19615377485752105712890625, 0.07882615923881530761718750, 0.34253212809562683105468750, 0.03044156171381473541259766, -0.40396785736083984375000000, -0.36628156900405883789062500, -0.36166748404502868652343750, -0.33310753107070922851562500, -0.37297046184539794921875000, -0.32448291778564453125000000, 0.03114093281328678131103516, 0.35774219036102294921875000, 0.56241679191589355468750000, 0.62580758333206176757812500, 0.53330552577972412109375000, 0.01524802856147289276123047, -0.33618542551994323730468750, -0.27401283383369445800781250, 0.05053949728608131408691406, 0.13366949558258056640625000, 0.28017008304595947265625000, 0.49743196368217468261718750, 0.72280114889144897460937500, 0.96237403154373168945312500, 0.80481356382369995117187500, 0.09467340260744094848632812, -0.51034927368164062500000000, -0.31021481752395629882812500, 0.15827777981758117675781250, 0.40651586651802062988281250, 0.25362873077392578125000000, -0.26721638441085815429687500, -0.28164193034172058105468750, 0.22394329309463500976562500, 0.58638125658035278320312500, 0.48417615890502929687500000, 0.10194780677556991577148438, -0.13286760449409484863281250, 0.34021994471549987792968750, 0.75777447223663330078125000, 1.00503337383270263671875000, 1.07162511348724365234375000, 0.78868931531906127929687500, 0.33038812875747680664062500, 0.04625744745135307312011719, 0.08568497002124786376953125, 0.23745131492614746093750000, 0.65520256757736206054687500, 0.31732442975044250488281250, 0.36561709642410278320312500, 1.01782441139221191406250000, 0.88398396968841552734375000, 0.39724740386009216308593750, 0.43412518501281738281250000, 1.16055631637573242187500000, 1.28350555896759033203125000, 0.91953009366989135742187500, 0.02480707503855228424072266, -0.20461836457252502441406250, 0.02615872398018836975097656, 0.47300872206687927246093750, 0.30994167923927307128906250, -0.23781202733516693115234375, -0.60061413049697875976562500, 0.19978886842727661132812500, 1.27476358413696289062500000, 1.43498790264129638671875000, 0.15848672389984130859375000, -0.23643943667411804199218750, 0.58621913194656372070312500, 1.20220351219177246093750000, 1.11350095272064208984375000, 0.80661880970001220703125000, 0.80074316263198852539062500, 1.07714307308197021484375000, 0.67991065979003906250000000, 0.32845926284790039062500000, 0.77530574798583984375000000, 1.45280778408050537109375000, 1.15428936481475830078125000, 0.43544158339500427246093750, 0.64720720052719116210937500, 1.13126945495605468750000000, 0.97431021928787231445312500, -0.20695182681083679199218750, -0.85905182361602783203125000, -0.41174498200416564941406250, 0.80658423900604248046875000, 1.69277846813201904296875000, 1.41114556789398193359375000, 0.10249682515859603881835938, -0.32407602667808532714843750, 0.20437912642955780029296875, 0.75646007061004638671875000, 0.86067736148834228515625000, -0.06564532965421676635742188, -0.20146229863166809082031250, 0.67144417762756347656250000, 1.19455754756927490234375000, 0.96755659580230712890625000, 0.33926981687545776367187500, 0.00909382291138172149658203, 0.54540610313415527343750000, 0.69593733549118041992187500, 0.80313366651535034179687500, 1.22241508960723876953125000, 1.34008944034576416015625000, 0.93059819936752319335937500, 0.30745631456375122070312500, 0.57768476009368896484375000, 0.84377086162567138671875000, 0.18628372251987457275390625, 0.46383267641067504882812500, 0.68731933832168579101562500, 0.50801879167556762695312500, 0.12659297883510589599609375, 0.16001252830028533935546875, 0.43101143836975097656250000, 0.32784998416900634765625000, -0.02162055671215057373046875, -0.39447289705276489257812500, -0.63767206668853759765625000, -0.61636918783187866210937500, -0.19601489603519439697265625, 0.14008656144142150878906250, 0.09861202538013458251953125, -0.40344870090484619140625000, -0.83172476291656494140625000, -0.78418701887130737304687500, -0.20419640839099884033203125, 0.46804824471473693847656250, 0.54452031850814819335937500, 0.19819132983684539794921875, 0.00275249779224395751953125, -0.09286321699619293212890625, -0.12874191999435424804687500, -0.17042963206768035888671875, -0.29231658577919006347656250, -0.39764800667762756347656250, -0.23129379749298095703125000, -0.02282789535820484161376953, 0.20275759696960449218750000, 0.04674005880951881408691406, -0.12264203280210494995117188, -0.05476510897278785705566406, 0.06935855746269226074218750, 0.22711360454559326171875000, 0.12285397946834564208984375, 0.29884618520736694335937500, 0.26176783442497253417968750, -0.00051403732504695653915405, 0.11325416713953018188476562, 0.44452276825904846191406250, 0.62677818536758422851562500, 0.42685061693191528320312500, 0.15832577645778656005859375, 0.28063598275184631347656250, 0.38928160071372985839843750, 0.40465068817138671875000000, 0.02504081651568412780761719, -0.42284399271011352539062500, -0.51173394918441772460937500, -0.10946826636791229248046875, 0.49951764941215515136718750, 0.57911604642868041992187500, 0.29803961515426635742187500, -0.05029753968119621276855469, -0.31000101566314697265625000, -0.21613614261150360107421875, -0.06567987799644470214843750, -0.05483510345220565795898438, -0.24196512997150421142578125, -0.29046532511711120605468750, -0.11872089654207229614257812, 0.03077014535665512084960938, 0.63330358266830444335937500, -0.46363902091979980468750000, -0.34342905879020690917968750, -0.28765952587127685546875000, -0.10107959061861038208007812, -0.01452136598527431488037109, 0.18102855980396270751953125, 0.36671319603919982910156250, 0.36458998918533325195312500, 0.19340120255947113037109375, 0.06816134601831436157226562, -0.05012951791286468505859375, -0.02699641510844230651855469, 0.30188837647438049316406250, 0.54297673702239990234375000, 0.23620505630970001220703125, -0.04871711134910583496093750, 0.24397982656955718994140625, 0.62277078628540039062500000, 0.74639207124710083007812500, 0.35714900493621826171875000, -0.15904869139194488525390625, -0.20848084986209869384765625, 0.11917153745889663696289062, 0.66890609264373779296875000, 0.92262279987335205078125000, 0.77213984727859497070312500, 0.33608156442642211914062500, -0.21634958684444427490234375, -0.19868844747543334960937500, 0.07082571089267730712890625, 0.35449254512786865234375000, 0.08771314471960067749023438, -0.19725012779235839843750000, -0.30861273407936096191406250, 0.10696281492710113525390625, 0.31409370899200439453125000, 0.44507089257240295410156250, 0.21893426775932312011718750, -0.16800092160701751708984375, -0.25019273161888122558593750, -0.04054161533713340759277344, -0.13806267082691192626953125, -0.50010710954666137695312500, -0.71487694978713989257812500, -0.26833719015121459960937500, 0.61435663700103759765625000, 0.75852841138839721679687500, 0.21120569109916687011718750, -0.23156163096427917480468750, -0.32594710588455200195312500, -0.21295279264450073242187500, 0.22350567579269409179687500, 0.39603072404861450195312500, 0.20076809823513031005859375, -0.04851054027676582336425781, -0.16266861557960510253906250, 0.18758825957775115966796875, 0.63607203960418701171875000, 0.66359412670135498046875000, 0.08096827566623687744140625, -0.54288280010223388671875000, -0.49744701385498046875000000, -0.06217570230364799499511719, 0.35852909088134765625000000, -0.41206181049346923828125000, -0.39778700470924377441406250, -0.40029996633529663085937500, -0.03350549563765525817871094, 0.25630176067352294921875000, 0.44373205304145812988281250, 0.52065742015838623046875000, 0.36234200000762939453125000, 0.11588128656148910522460938, -0.09430860728025436401367188, -0.27807554602622985839843750, -0.38932639360427856445312500, -0.46831232309341430664062500, -0.51392173767089843750000000, -0.28024449944496154785156250, 0.25738683342933654785156250, 0.61271923780441284179687500, 0.54304748773574829101562500, 0.05415852367877960205078125, -0.36361932754516601562500000, -0.18533702194690704345703125, 0.07993208616971969604492188, 0.20423623919486999511718750, -0.03008750453591346740722656, -0.28945124149322509765625000, -0.25083082914352416992187500, 0.06862762570381164550781250, 0.28862825036048889160156250, 0.25253045558929443359375000, -0.01859249360859394073486328, -0.01136144436895847320556641, 0.01939804106950759887695312, 0.15211199223995208740234375, 0.26996952295303344726562500, 0.20476287603378295898437500, 0.07597640156745910644531250, -0.36399161815643310546875000, -0.25046136975288391113281250, 0.29602530598640441894531250, 0.61346328258514404296875000, 0.65145605802536010742187500, 0.23865017294883728027343750, -0.09005089849233627319335938, 0.08848211914300918579101562, 0.60990792512893676757812500, 0.84837263822555541992187500, 0.59338647127151489257812500, -0.02643425576388835906982422, -0.22672665119171142578125000, -0.13594208657741546630859375, -0.05010322481393814086914062, 0.00426302896812558174133301, 0.02158171497285366058349609, 0.23103226721286773681640625, 0.61795729398727416992187500, 0.67029130458831787109375000, 0.41409847140312194824218750, 0.06087263301014900207519531, -0.20984096825122833251953125, -0.18079073727130889892578125, -0.09915355592966079711914062, -0.03778072074055671691894531, 0.01171687059104442596435547, -0.34416258335113525390625000, -0.67938971519470214843750000, -0.07882161438465118408203125, 0.32924631237983703613281250, 0.56924670934677124023437500, 0.39299941062927246093750000, 0.10217323899269104003906250, 0.14477618038654327392578125, 0.34196197986602783203125000, 0.29576829075813293457031250, -0.09948112815618515014648438, -0.27598479390144348144531250, -0.21952052414417266845703125, -0.28885233402252197265625000, -0.23983255028724670410156250, 0.06196440011262893676757812, 0.12482222169637680053710938, 0.10716459900140762329101562, -0.19281587004661560058593750, -0.13882815837860107421875000, 0.28599175810813903808593750, 0.60228306055068969726562500, 0.73144191503524780273437500, 0.60876107215881347656250000, 0.16286672651767730712890625, -0.27075845003128051757812500, -0.34993362426757812500000000, -0.35933843255043029785156250, -0.39129081368446350097656250, -0.12117356061935424804687500, -0.14791038632392883300781250, 0.24958384037017822265625000, 0.18373726308345794677734375, -0.02704764902591705322265625, -0.08995670825242996215820312, 0.10440243780612945556640625, 0.23791068792343139648437500, -0.15824520587921142578125000, -0.07862017303705215454101562, 0.42017349600791931152343750, 0.64338803291320800781250000, 0.56543534994125366210937500, 0.11167684197425842285156250, -0.27016431093215942382812500, -0.41179049015045166015625000, -0.23372679948806762695312500, -0.15167851746082305908203125, -0.10275217145681381225585938, -0.03270618245005607604980469, 0.01063588261604309082031250, 0.22272609174251556396484375, 0.25500130653381347656250000, 0.17525342106819152832031250, 0.03223682194948196411132812, 0.03286678716540336608886719, 0.37830239534378051757812500, 0.44725403189659118652343750, 0.34513494372367858886718750, 0.33063027262687683105468750, 0.10585357248783111572265625, -0.20379175245761871337890625, -0.41704550385475158691406250, -0.42164969444274902343750000, -0.11963105201721191406250000, -0.19475619494915008544921875, 0.52269333600997924804687500, 0.12958052754402160644531250, 0.39652767777442932128906250, 0.18491360545158386230468750, -0.23327118158340454101562500, -0.58329808712005615234375000, -0.21280542016029357910156250, 0.53818744421005249023437500, 1.06060159206390380859375000, 0.97950762510299682617187500, 0.56438243389129638671875000, 0.25428748130798339843750000, -0.14139392971992492675781250, -0.60241138935089111328125000, -0.87944883108139038085937500, -0.56890344619750976562500000, 0.07711351662874221801757812, 0.91255199909210205078125000, 1.06115841865539550781250000, 0.61544156074523925781250000, 0.29373550415039062500000000, 0.12334446609020233154296875, -0.23232966661453247070312500, -0.28593122959136962890625000, -0.14101141691207885742187500, 0.16751454770565032958984375, 0.68826663494110107421875000, 0.53205311298370361328125000, -0.15083715319633483886718750, -0.14786787331104278564453125, 0.10106588155031204223632812, 0.13196650147438049316406250, -0.16546119749546051025390625, -0.10297227650880813598632812, 0.30929952859878540039062500, 0.65365010499954223632812500, 0.30048462748527526855468750, -0.19233340024948120117187500, -0.21139708161354064941406250, 0.13835515081882476806640625, 0.29428130388259887695312500, 0.47226381301879882812500000, 0.29994589090347290039062500, 0.22848805785179138183593750, -0.00052555883303284645080566, -0.04077874869108200073242188, 0.12268534302711486816406250, 0.07870790362358093261718750, 0.43535134196281433105468750, 0.84805589914321899414062500, 0.53841692209243774414062500, -0.06828866153955459594726562, -0.40024897456169128417968750, -0.36449834704399108886718750, -0.02357972227036952972412109, -0.05621455609798431396484375, -0.42841863632202148437500000, -0.44737267494201660156250000, -0.20738264918327331542968750, 0.00654954416677355766296387, 0.06451481580734252929687500, 0.31789040565490722656250000, 0.42289417982101440429687500, 0.26165819168090820312500000, 0.37317010760307312011718750, 0.05580381676554679870605469, -0.37056562304496765136718750, -0.48663175106048583984375000, -0.50070583820343017578125000, 0.06373172998428344726562500, 0.47599712014198303222656250, 0.34693631529808044433593750, 0.09492170065641403198242188, -0.05209383368492126464843750, 0.23085938394069671630859375, 0.38588923215866088867187500, 0.45557931065559387207031250, 0.27020689845085144042968750, -0.13480819761753082275390625, -0.40643015503883361816406250, -0.39581656455993652343750000, -0.22599080204963684082031250, -0.27913534641265869140625000, -0.69072818756103515625000000, -0.60135722160339355468750000, -0.00367613881826400756835938, 0.54981338977813720703125000, 0.62504023313522338867187500, 0.38563367724418640136718750, 0.06102402508258819580078125, 0.03700493276119232177734375, 0.20355738699436187744140625, 0.11521907895803451538085938, 0.05349685251712799072265625, -0.17479999363422393798828125, -0.20671787858009338378906250, -0.03775758296251296997070312, 0.31714615225791931152343750, 0.29363429546356201171875000, 0.00692565320059657096862793, -0.35473409295082092285156250, -0.23559774458408355712890625, -0.15129470825195312500000000, -0.10622122138738632202148438, -0.06195261701941490173339844, -0.08007744699716567993164062, -0.08993968367576599121093750, 0.06974428892135620117187500, 0.34905782341957092285156250, 0.49176079034805297851562500, 0.38744175434112548828125000, 0.11582275480031967163085938, 0.11405759304761886596679688, 0.30584865808486938476562500, 0.41096052527427673339843750, 0.15167550742626190185546875, -0.24319529533386230468750000, -0.52882403135299682617187500, -0.52653425931930541992187500, -0.19990412890911102294921875, 0.15612082183361053466796875, 0.25384086370468139648437500, 0.23622283339500427246093750, 0.17039036750793457031250000, 0.21644292771816253662109375, 0.24420522153377532958984375, 0.08725777268409729003906250, -0.45706775784492492675781250, -0.46818068623542785644531250, -0.10834036022424697875976562, 0.12241252511739730834960938, 0.41125753521919250488281250, 0.51864534616470336914062500, 0.73522573709487915039062500, 1.11598360538482666015625000, 1.23905956745147705078125000, 1.00370287895202636718750000, 0.75227576494216918945312500, 0.42166846990585327148437500, 0.34937894344329833984375000, 0.49247914552688598632812500, 0.21185891330242156982421875, -0.22340455651283264160156250, -0.29465442895889282226562500, 0.08144518733024597167968750, 0.20234735310077667236328125, 0.07990207523107528686523438, -0.40288004279136657714843750, -0.45107018947601318359375000, -0.17753750085830688476562500, 0.24975734949111938476562500, 0.53200906515121459960937500, 0.42220833897590637207031250, 0.52702730894088745117187500, 0.53661668300628662109375000, -0.00861074309796094894409180, -0.20205764472484588623046875, -0.16132473945617675781250000, 0.08541999757289886474609375, 0.08510794490575790405273438, 0.11681189388036727905273438, 0.25110489130020141601562500, 0.66476404666900634765625000, 0.62315386533737182617187500, 0.66157346963882446289062500, 0.58610266447067260742187500, 0.77321249246597290039062500, 1.12037336826324462890625000, 1.60858619213104248046875000, 1.28819286823272705078125000, 0.30997765064239501953125000, -0.32657346129417419433593750, -0.17328503727912902832031250, 0.32554742693901062011718750, 0.41054344177246093750000000, -0.25640872120857238769531250, -0.48348686099052429199218750, -0.15244148671627044677734375, 0.27325266599655151367187500, 0.62244075536727905273437500, 0.57456743717193603515625000, 0.51974856853485107421875000, 0.53012579679489135742187500, 0.17236754298210144042968750, -0.05241760239005088806152344, 0.15730176866054534912109375, 0.18437261879444122314453125, 0.09162396937608718872070312, -0.14482073485851287841796875, -0.22960472106933593750000000, 0.08639457821846008300781250, 0.42083945870399475097656250};
#endif

#endif
