#ifndef AUTOENCODER_H
#define AUTOENCODER_H

#include "ap_fixed.h"
#include "hls_math.h"

#define INPUT_DIM  64
#define HIDDEN_DIM 16
#define OUTPUT_DIM 64

typedef ap_fixed<16, 6> model_t;
typedef ap_fixed<24, 10> accum_t;

// Encoder Weights (64x16) and Biases (16)
const model_t W1[INPUT_DIM][HIDDEN_DIM] = {-0.0846555233, 0.0422937088, 0.0653526038, 0.0166638251, -0.0447809286, -0.2100769281, -0.0622119829, 0.1772770882, -0.2214891762, -0.1213124618, -0.0738551021, 0.1332010478, 0.2519349754, 0.1326226443, -0.0055177105, 0.1492363364, 0.0416125841, -0.0624777041, -0.1298525482, 0.1269295812, 0.2983290255, 0.2725817263, 0.2016398013, 0.0350390747, -0.1180992499, -0.1974943876, -0.1477081180, -0.1987057179, 0.2241240293, 0.0069354987, -0.0540046208, 0.0157500282, -0.1130747497, 0.2830758095, 0.2658639252, -0.1124517545, -0.2159622908, 0.0141699873, 0.1688717157, -0.0091647645, -0.0705107599, -0.1993329674, 0.1871942282, -0.0971470103, -0.0257485304, 0.2643508613, 0.2153394073, 0.1340733618, -0.2589899302, 0.1771268845, 0.0381928496, 0.1693426967, 0.2514526546, 0.0929752812, 0.1976745874, -0.1163238660, -0.2307159156, 0.0841724575, 0.0843545198, 0.2548163235, -0.0277924724, 0.0088470848, -0.0294241346, -0.2217857689, 0.0931099951, -0.2488235086, 0.1173617467, -0.1351267844, -0.0313553438, -0.1982903481, 0.1181845069, 0.1762825251, -0.1468013376, -0.1081898957, -0.0261112377, -0.0852708519, 0.0493654907, 0.1238869727, -0.0724877492, 0.1348830909, 0.1447348297, 0.0837785825, -0.0901749656, 0.0035797036, 0.1655370444, -0.1694861650, 0.1551828533, 0.2759731412, -0.0044615958, -0.2286295146, -0.0341560878, -0.2270944566, 0.0749414414, 0.2480150014, -0.0004330754, -0.1638587117, -0.2116368860, -0.1763735712, 0.0725489631, 0.1849248707, 0.0402377062, 0.1038787737, 0.0218833219, 0.0771300420, -0.0815633535, -0.0242492352, 0.3029545248, 0.1189089268, 0.0763935894, 0.1144800708, -0.1722570956, -0.0534031056, 0.1256906986, -0.2149778754, 0.0423464477, -0.0480759516, 0.0438510068, -0.0317513309, 0.2772584260, -0.2167472392, -0.1142036915, 0.0727730468, -0.0928254575, 0.1406108290, -0.1661453098, 0.1834769696, 0.1239420921, 0.1273750663, 0.1587026119, 0.1474655867, -0.2109018117, 0.1705368012, 0.0025241901, -0.0932545513, -0.0629098862, -0.0927851647, -0.2533609271, -0.0392771997, 0.2405679524, 0.1143655479, 0.0304967295, -0.2078553736, 0.1190728694, 0.1309507489, 0.1917580217, -0.1784640998, -0.0476820394, -0.1242600605, -0.2977242172, 0.0559168011, -0.2807124257, -0.2142569125, -0.0419489145, 0.1418285370, 0.0769697353, 0.0762942955, -0.2910720408, 0.1230569631, 0.1741483957, -0.1624644995, 0.1587419808, -0.2874309421, -0.0840103924, -0.0833285078, 0.0530730672, -0.2436402589, 0.0408933088, -0.2536672354, 0.2234794796, 0.1843054444, -0.0173382312, -0.2858915627, -0.0582763143, 0.1033377349, 0.1826794893, -0.2148385942, 0.2469405979, -0.0000535977, -0.0078782132, 0.1987073869, -0.0349299461, -0.2597094774, 0.2228747308, 0.2057166398, 0.1860144138, -0.0839562267, -0.0656272173, 0.1922311038, 0.1892536879, 0.0226629376, 0.2074989825, 0.1950289607, 0.1574709117, -0.2212900966, 0.2313587964, -0.0182296522, 0.0163939875, 0.0559194684, -0.0482914001, 0.0489463210, -0.1754270792, -0.2029460669, 0.1468737274, -0.1456828564, 0.1513387263, 0.2138817012, -0.0064140684, 0.2186614424, 0.1205574870, 0.0889324322, 0.1431852728, 0.0815629810, 0.0863424465, -0.1043802351, 0.0487470739, -0.0914183781, -0.0412451699, -0.0630164221, -0.0336278938, 0.0413320921, -0.2548899949, -0.2662251294, -0.1711561978, 0.2249598950, 0.2568972707, -0.1114411950, -0.2548674941, 0.1563133448, -0.2392869741, 0.2008959055, -0.1429145783, -0.1167937592, 0.2426174879, -0.2572349608, 0.1305520386, -0.2223955393, 0.1185348704, -0.1646009833, 0.0739472881, 0.0784186199, 0.1709669977, 0.1181024835, -0.0203869976, -0.1650276929, 0.0329379998, -0.2516158521, 0.0990372077, 0.2681203783, -0.0641849935, -0.2316344380, 0.1072122902, 0.1411928833, -0.2758845389, -0.0811682120, 0.1060149148, 0.0254822671, 0.2084985971, -0.1139597446, 0.1031686217, -0.2036105245, 0.0046717511, -0.0345096551, 0.0084054386, 0.0779619515, 0.2200386971, 0.2526370883, -0.1117379069, 0.2950364649, 0.2751818299, -0.0832754597, 0.0403364301, -0.2031276971, -0.0928049162, -0.1547070295, -0.0933531448, 0.1020364314, 0.0347529501, -0.2244244516, 0.1892165691, 0.1987592131, 0.1234232783, -0.1769776046, -0.2181607336, 0.1162122935, 0.2358796597, -0.1462630928, 0.2212279141, 0.0959790647, 0.2809751630, -0.1238651350, 0.0567977987, 0.1953092068, 0.1792282909, -0.0436797589, -0.0662229732, 0.0434820503, 0.2461202145, 0.0306356587, -0.0497315861, -0.1280117035, -0.0672927201, 0.1296837479, -0.2198816091, -0.0555570871, -0.0880802721, -0.0194834284, 0.1394462138, 0.1558037251, 0.2196951807, 0.0354857966, -0.0342490599, 0.2213186920, 0.1161852181, 0.0738202110, 0.0223703310, -0.2047267407, 0.1903014779, 0.1774662733, 0.2229048461, 0.2318897843, -0.1949309707, 0.0981105343, 0.0347553603, 0.2289778143, -0.0889726430, 0.2634909451, 0.2322150320, -0.2513745427, -0.0302646533, 0.0121805612, -0.1049058810, 0.2053061426, 0.1515685469, -0.1643080711, 0.2150911093, -0.0260094050, -0.2424908131, 0.1574252695, 0.0081484839, -0.1732718647, -0.2230938375, -0.0290844664, -0.1692925692, 0.0388104394, 0.1607359201, -0.0091923773, -0.0584908165, 0.2115080059, -0.2064791769, 0.1332764179, 0.2197065502, 0.2724780440, -0.2456570268, 0.1697121859, 0.0459037237, 0.0709398091, -0.1420410424, -0.0841451287, 0.2528343499, -0.0354145803, -0.2726907134, 0.2770876586, -0.1839005202, 0.1109861284, -0.0860211998, -0.1368384808, 0.1902141273, -0.1127291545, 0.2401138395, -0.0993147418, 0.1496183276, 0.2187128663, 0.2608649433, 0.2407746017, 0.1476357579, 0.2725450397, -0.1331546456, 0.1531569660, -0.0153914271, -0.1530449539, 0.2214148194, 0.0205647461, -0.1526588649, -0.0521212816, -0.1781705618, 0.0794357657, 0.1608451605, 0.0938648432, 0.0886599496, 0.1967199147, 0.2351574898, -0.0361142308, 0.0089089274, -0.2062936872, -0.0082817497, -0.1853280962, -0.0634567514, -0.1404381841, 0.0902587548, 0.0798128545, 0.2276668847, 0.2130551189, 0.1913951337, -0.0539635755, -0.1872403920, -0.2230327129, 0.0243107304, -0.0790986866, 0.0198524166, 0.1099520475, -0.2137284130, 0.1938713640, 0.1089785025, -0.0213203859, -0.0430313572, 0.1524109542, 0.0271782875, 0.2203397751, -0.1899400055, 0.1219561175, -0.1121682748, -0.1432178915, -0.0141511653, 0.1491653174, 0.1649778485, -0.0953657106, -0.0725809485, 0.1506042182, 0.0122253029, -0.2733434141, -0.0864863843, -0.1526224762, 0.1312000901, 0.0800664350, -0.1229101419, -0.1126344204, -0.1212697923, -0.0949617177, 0.2384715974, 0.2261043191, 0.0609687567, 0.2189230025, 0.1728921533, 0.1077850983, 0.1651847512, -0.2525556982, -0.0958881751, -0.1424247175, 0.2583409548, 0.1204375848, -0.2261840999, -0.0559852384, 0.2379945964, -0.1342144161, -0.1306266040, -0.2035362124, -0.2477810532, -0.0196888968, -0.0675349906, -0.1638101935, -0.2178049237, -0.0353420973, -0.0549346507, 0.2653666139, -0.2007411122, 0.1185173318, -0.0864334777, 0.0695319176, -0.1832131743, -0.2222927809, -0.0755844563, -0.0427099168, 0.1644397676, -0.1564613730, 0.2995792925, -0.1147301644, 0.1097946465, -0.2376765907, -0.0693896338, -0.1286044419, 0.0643902123, -0.2179689556, -0.1125576049, 0.1737475246, -0.1728706956, -0.2178805619, 0.2202355862, 0.1958704740, 0.2285481095, -0.0062359837, -0.0131929358, -0.1034634709, 0.2267880142, 0.2647836506, -0.1107142344, 0.0914528072, 0.1151009500, 0.0121821398, -0.0918785036, 0.1077741832, 0.0247752964, -0.2298124731, 0.2796967626, 0.1916665435, 0.0258093178, 0.0767358840, -0.2459832281, 0.0488554761, 0.0796133652, -0.1606526673, 0.1753394604, 0.1812378317, -0.1035797149, -0.0569485761, -0.1633218825, -0.1070822850, 0.2540735900, -0.0407499708, 0.0484952293, -0.0380161703, 0.1073540896, -0.2343617678, -0.1851485819, 0.1842099726, 0.2852094173, -0.2015184313, 0.1108041406, 0.1901218146, 0.0386974141, 0.1620147377, -0.1270254701, 0.1104521081, 0.2864215374, -0.0926804021, 0.2742489576, -0.2374336869, -0.0636275858, 0.1978936046, 0.2027641982, 0.0904312506, 0.1343362778, -0.2258504480, -0.0439402685, 0.0812612921, 0.1744442880, -0.0294964593, -0.1134748757, 0.0790741444, 0.1656083465, -0.0741643831, -0.0402444415, -0.0146560175, -0.0918433517, 0.2360075563, -0.0119760083, -0.1304090172, -0.0157671813, 0.1563772410, -0.1949405074, -0.0004545397, 0.1897088140, 0.1110500917, 0.2756546736, -0.1615866572, -0.0014913710, 0.0874477550, -0.0103179561, 0.0014210416, 0.1193938255, -0.0270973891, -0.1662216485, -0.1698668897, 0.2799011171, 0.0161604732, 0.2744802237, -0.1098080203, 0.2413419485, -0.1139915586, -0.0967375413, -0.2408107668, -0.0154200755, 0.1779620945, -0.2257864922, 0.0893475413, 0.0877525657, -0.1998017281, 0.0282431673, 0.1757811457, 0.2301544845, 0.2234710753, -0.2266570181, -0.0022600046, -0.1882315725, -0.0303504113, -0.2414388210, -0.1980773211, -0.0981104523, 0.0344788395, -0.1434062719, 0.0055126119, 0.1699873805, -0.2488914579, 0.1781510413, 0.2060961872, 0.0499432124, -0.0561913252, 0.1790102273, 0.1735874116, -0.0763327554, -0.0967249274, 0.1013788581, -0.1464420706, 0.0515222326, -0.1186653003, 0.1396315098, -0.1902110130, -0.2728659809, 0.0147833116, 0.1925485879, -0.0349457785, 0.0682820156, -0.1920276135, 0.1407144815, 0.1193797514, -0.1139596924, 0.0342194438, 0.0154951252, 0.1222949773, -0.1813525856, 0.2182134539, -0.2439149171, 0.0319360197, -0.0568813235, 0.1710974127, -0.1479215473, -0.2074718177, 0.2215346843, -0.0803005621, -0.1362979561, 0.0503382385, -0.2155158222, 0.0464475341, 0.0152962208, -0.0806150138, -0.1491772085, -0.0648256317, -0.0411119647, 0.0079168379, 0.1925731599, 0.1230658144, 0.2015589029, 0.2238133103, -0.1019136235, -0.2273980230, -0.1875298619, -0.2565591931, 0.0747666955, -0.1556842923, -0.1268846691, -0.2646529377, 0.0055520451, 0.0588764213, 0.0536416657, 0.1047203541, 0.0765232742, 0.1939533204, -0.2767509818, 0.1771592200, -0.1583866924, -0.2055000961, -0.0111736525, 0.0605574585, 0.0207313895, -0.2654904425, 0.1972685754, -0.1329876035, 0.1002696306, -0.1732237190, -0.2488441020, -0.1398555189, 0.2303842902, -0.0954444259, -0.0088278092, -0.2175957561, -0.2563937306, 0.1961241961, 0.0932908133, 0.1545058489, 0.2690687776, -0.0137263834, -0.1356851906, 0.0735888481, 0.0867755041, -0.0731396675, -0.0296158325, 0.2141767442, -0.0448087305, -0.2567424774, -0.2433762103, 0.0122912759, 0.0030463957, -0.2165387720, -0.1090789437, -0.2730301023, -0.1272509247, 0.1496014595, -0.2209642082, 0.0264611486, 0.0777799264, 0.1815488040, 0.0406239927, 0.1837793291, -0.0754058734, 0.2825558782, -0.0693076551, -0.0224002395, 0.2195764333, 0.1533060521, 0.0285264701, -0.1568599790, -0.1254781932, 0.2284260839, 0.2310214490, 0.2629368603, -0.0488264970, 0.1630276889, 0.0683601499, 0.1783313602, 0.1234142035, 0.2014996707, -0.2084316015, 0.1735304445, -0.1958529502, -0.0621882677, 0.2787075937, 0.1803160161, 0.0944955871, 0.1893842667, -0.0611727089, -0.1978223324, 0.2243931592, -0.2531409860, -0.0421774127, 0.1373309046, 0.1772548705, -0.0986546054, -0.2223075181, -0.2535291910, -0.0557966493, -0.1691875458, -0.1805734038, 0.1399876028, 0.1198742986, 0.1421673000, -0.2216037512, 0.2084325850, -0.1158928126, 0.1253610849, 0.0293914955, 0.1030662954, 0.0827631950, 0.0790264606, -0.0190334171, 0.1587608159, 0.0162737332, -0.0567642488, -0.0180222150, 0.1485775113, -0.1147002578, 0.0584505014, -0.1058460250, 0.1467336863, -0.0989023522, -0.2761323750, -0.2138269395, -0.0903377086, -0.2590162456, 0.0141635351, 0.0118181882, 0.0707275346, 0.1159411818, -0.0987362564, -0.1038034782, 0.0324590765, 0.0307795238, -0.1964800656, 0.1402794421, -0.0912801623, 0.0897508264, -0.0357961692, -0.1754515022, -0.2772864103, 0.1670882553, -0.0731586367, -0.1391885132, -0.2402568310, -0.2381832600, -0.2302541137, 0.0195876323, 0.1592377275, 0.0780309066, 0.1371621490, 0.1219111905, -0.1226601899, -0.0291306339, 0.1639454067, 0.0436298922, 0.1272199750, -0.1169667393, -0.0721172616, 0.1509375721, 0.1797127128, -0.1049745604, 0.2132336795, 0.2358565480, -0.2039624602, 0.2647785246, 0.0025299122, 0.2012874931, 0.0975073501, 0.1029474288, 0.1765939593, 0.0922419056, 0.1971803010, 0.1848756969, -0.2555882335, 0.1543553919, 0.0351980664, 0.0238508657, 0.0087786401, 0.0597643852, -0.2210778594, -0.2640573978, -0.0991842747, 0.2808547318, 0.0205718186, 0.1938204169, -0.0500443690, -0.2225389481, 0.1511875093, 0.1366330236, 0.0702720061, -0.1180673614, -0.0133171529, 0.0741385072, 0.2540076673, 0.0348356701, -0.1943294853, -0.0386406928, -0.2314359397, -0.1452325433, -0.1486244351, 0.2188362479, 0.2915448546, 0.2170981914, -0.0022107440, -0.2266755700, -0.0522736795, 0.1355633885, 0.1185569093, 0.0747555271, -0.1191672981, 0.1913838834, 0.1950864047, 0.2599471509, 0.1539479494, -0.2121884227, -0.1916291565, -0.0611108691, 0.2238762677, 0.2076749951, -0.2521022856, 0.0513338856, 0.2562651336, 0.1104216948, 0.0590333939, -0.1675434858, 0.0013550287, -0.0456193648, 0.0849759057, -0.1521334052, -0.0298722833, -0.0837002248, 0.1294670850, 0.2473781556, 0.1732074618, 0.0605062246, -0.0118102059, 0.1001419425, -0.2534607947, -0.0338608287, -0.1858242154, -0.0240640547, -0.1237588450, 0.0190026313, -0.0648615658, -0.2390542328, -0.1671783328, 0.1796840280, -0.1170300171, 0.0627190620, -0.0223622173, 0.1413325965, -0.0849821866, -0.0182738584, -0.2587296367, 0.0379324891, -0.0932974741, -0.1709274650, -0.1543814838, -0.0549188145, -0.2295692414, -0.0073779523, -0.0976093411, 0.0453397259, -0.1327718049, 0.0954580754, -0.0895689204, -0.2606787980, 0.0101722069, 0.1792257875, -0.2160601318, -0.2109117806, 0.1620743275, -0.0737531111, 0.2327398211, -0.0378209576, -0.0772250816, -0.2536259592, -0.0655359477, -0.2450880557, 0.0944032073, -0.0553662106, 0.1317196637, 0.0167564396, -0.1773072779, -0.2844324112, -0.2458707988, -0.0214714035, 0.1511084139, -0.0301983356, 0.1331174076, -0.2042821050, -0.0348184742, 0.0998380557, -0.2507648766, 0.2092066258, 0.1319917887, 0.0563881360, 0.0230745077, 0.0348253995, 0.2327786982, 0.0362188816, 0.0546188168, -0.2831317186, -0.0977077559, 0.2436475158, -0.2872230411, 0.0244852286, 0.2676959634, 0.1283312142, 0.2370670438, 0.2481710911, 0.1593812704, -0.1855592579, -0.1143288761, -0.1870786548, 0.1436581612, 0.2319491059, 0.2469864041, 0.0553939044, 0.2583210468, -0.0879789963, 0.0092277778, 0.0375863798, -0.2437839657, 0.2471815795, 0.1908252835, -0.1892538071, -0.0422002748, 0.2678309381, -0.0452114940, 0.1773827076, 0.0636412650, -0.1626413018, -0.0574085079, -0.1272720695, 0.0901474655, 0.1877309531, 0.0535409451, -0.0158398766, -0.2341199219, 0.2696180344, 0.2515093088, 0.0767302513, 0.3029212356, 0.3119282424, 0.2411095351, 0.0713047460, 0.1332268864, 0.2373716831, -0.0380297229, -0.0006151366, 0.1488269866, 0.1735834926, 0.2673068047, 0.2219533324, -0.0479267873, -0.1821566224, -0.1908939779, 0.2862595022, 0.2393993884, 0.0743004456, 0.2478863299, 0.1597302258, 0.1289936751, -0.1700064987, -0.2429614812, 0.0398842953, -0.0037317756, -0.2131905407, -0.2180239260, 0.0959073380, -0.1510739475};
const model_t B1[HIDDEN_DIM] = {0.0446404219, 0.0453936048, -0.0278390944, -0.0191532001, 0.0446217768, 0.0403516032, -0.0272482634, 0.0299119353, 0.0437259711, -0.0275382120, -0.0280498881, -0.0055959225, -0.0227425657, 0.0452441946, -0.0306401625, 0.0444456786};

// Decoder Weights (16x64) and Biases (64)
const model_t W2[HIDDEN_DIM][OUTPUT_DIM] = {-0.1094361916, 0.1949540079, -0.0543965250, 0.1381765157, 0.2145495564, -0.1718285382, 0.1062682644, -0.0057407571, 0.0939523652, -0.0172310639, 0.2387671918, -0.3009891212, 0.1860332936, 0.2090050280, 0.2204745114, 0.0326912403, 0.1155583933, -0.0901783332, 0.1929862201, 0.1744505167, 0.0466078371, 0.0346533582, 0.2026873231, -0.0219587144, -0.0394723117, 0.0949531421, -0.3052541018, -0.2626555860, -0.1179161295, 0.0256595351, -0.1697011888, -0.1453250200, 0.0217861775, 0.1388420016, -0.0707227364, 0.1874149591, -0.2624621093, -0.0544028804, 0.2068686038, -0.0084743956, -0.1322752088, 0.0533304438, 0.1981508285, -0.2648645937, -0.1870588809, -0.1323183924, 0.0974632949, 0.0403238051, 0.0946962163, -0.0483030528, -0.1078964323, -0.2682701945, -0.2746731639, -0.1835548580, 0.2253128588, -0.1536015421, -0.1097492427, -0.1957448572, 0.2133726180, -0.1655392051, -0.0442528464, -0.2876535058, -0.2862890959, -0.1933931559, -0.2731769085, -0.1063357815, 0.1463366747, 0.0318516456, 0.1249410212, 0.0673993602, 0.1008285135, 0.0489063412, 0.0887547657, 0.0596626215, 0.2407682687, 0.1533921212, -0.2380719334, -0.1074859872, -0.2151433080, -0.0817857385, -0.2039873004, -0.2235254645, -0.0114811435, 0.1024076343, -0.2423478365, -0.3114328980, -0.2674372494, -0.2788185179, -0.1883896738, -0.0041592689, 0.2066954374, 0.2032941878, 0.1663871258, -0.1132912859, -0.1452022195, 0.0953742489, -0.2553250790, 0.0637947991, -0.0860382095, -0.2555675805, -0.2570228279, 0.1040711999, -0.1933298260, -0.0097553823, -0.2159928828, -0.1755126715, -0.0859152377, 0.1638917774, 0.1604870558, 0.0639903918, -0.2189886719, -0.1624123305, -0.1216349006, 0.1566309333, 0.1271799058, -0.0516536608, -0.1056124866, -0.0420942120, -0.0923897251, 0.0994256437, -0.1700407863, -0.1340861022, -0.2803025842, -0.1771169752, 0.1299358606, 0.0527047999, 0.1914023906, 0.0965833217, -0.1085307747, -0.2497920096, -0.1330942810, 0.0070434497, 0.0765269175, 0.1587158293, -0.2413644046, -0.2266412973, 0.0392983370, 0.1329184026, -0.1398375034, -0.2700449526, -0.2437790930, -0.2684907913, 0.2070794553, -0.2847703099, -0.3117657006, -0.0476716533, 0.0171972867, -0.0395858325, 0.1657811254, -0.0209122188, 0.0234159734, 0.0581793450, 0.0169911496, -0.2665605545, 0.0361461081, -0.0093100853, 0.2185402662, -0.0149293616, 0.0069929943, 0.0466287434, -0.1271560043, -0.2419150621, -0.1370179951, -0.0647393614, 0.0006344996, 0.0191671345, -0.1003507972, 0.1117453352, -0.2022914886, 0.1177418903, 0.1123069674, 0.1974480748, -0.0101367747, 0.0292143077, 0.0833210126, -0.0874952748, -0.0445419550, 0.1172299013, 0.1219482943, 0.0801736265, -0.0625128746, -0.1590940952, 0.1435347646, -0.1298195422, -0.1113441214, 0.0486279279, -0.1604565382, -0.2512834668, -0.0612135381, 0.1611275226, -0.1594787389, 0.1171240434, -0.1351978630, 0.1944072545, -0.0756381825, -0.1272917688, -0.1315257847, 0.1118245274, 0.1909226775, -0.0897086561, -0.1270967275, 0.2453928590, -0.0835471824, -0.2701608539, 0.2690843344, 0.2116277069, 0.2174668163, -0.2218067646, 0.0422871038, 0.1381698251, -0.1135952994, -0.2763091028, -0.0145122036, -0.0111679547, 0.1945315301, -0.3013365567, 0.1111109480, -0.1182177588, -0.1875806749, -0.1816867441, -0.0271203313, 0.1246674806, -0.0689199343, -0.0332725085, 0.0138041042, -0.2910226882, 0.0096337683, 0.0151381725, 0.0956105143, 0.0160956644, -0.2881491780, -0.0317699797, -0.2149269283, -0.0761470050, 0.0363852307, 0.0589257218, -0.0625852942, -0.2139182091, -0.0368105657, -0.1817888319, -0.2974822521, -0.0321787111, 0.0636865720, -0.2447259426, -0.2390030622, -0.0954906195, -0.1018660218, 0.2165088058, -0.1292116940, 0.1069777608, 0.0983856767, -0.2979062796, -0.2898387313, -0.1325876415, -0.1479919553, -0.1441380382, -0.1511318237, -0.2581489980, -0.0045756414, -0.2022129595, 0.1997463405, 0.1250951588, -0.2620646358, -0.0364101790, -0.3140275478, 0.1485114694, 0.1794643253, 0.2319992036, 0.1146809012, -0.2039248496, 0.2082042247, 0.0372969732, -0.2212804705, -0.3134732842, 0.1823641807, -0.1626669317, 0.2125570476, -0.1571377665, 0.0896851644, -0.0879149437, -0.0954286307, -0.1168412864, -0.2645723820, 0.0806317776, -0.1340060532, 0.1409805715, -0.0915391743, -0.2758014202, 0.0046034767, -0.1407603323, -0.2302665859, -0.2942015827, -0.2005052119, -0.1787131131, -0.0520459525, 0.0300210733, -0.0778243542, -0.0627152771, 0.1465224773, -0.2403534949, 0.0771044269, 0.1651870757, 0.1744917780, -0.2446433157, -0.1001219377, 0.2072590292, 0.2166740000, -0.0972442403, 0.1058199480, -0.2846729159, 0.1009320319, -0.2052314132, 0.0554904118, 0.1291957498, 0.1827179641, 0.0280986708, 0.1859040409, -0.0230785850, 0.0132366074, -0.2044343948, -0.0158166494, 0.0084806960, -0.1333979070, 0.0033823668, -0.0814754665, -0.2969508767, -0.1524957120, -0.2011567056, 0.0321433768, -0.1083870903, 0.1445229501, -0.2296999246, -0.0111473342, 0.0448277034, -0.0080334721, 0.0659653321, 0.0098526804, -0.0000438080, -0.0197383426, 0.0554762892, 0.1684073061, -0.0117747551, 0.1957505196, -0.0883172676, -0.0645151958, 0.2284267694, 0.2207631767, -0.0472252630, 0.0516181812, 0.2286191583, -0.1603908539, 0.0538968742, 0.0674268976, 0.0526925921, 0.0721896887, 0.2071064264, -0.0592386834, -0.0843542367, 0.1702011377, 0.2018108815, -0.2333541065, 0.0257281829, 0.0768587366, 0.2234607190, 0.1133000255, 0.2122429609, -0.0345696062, -0.2696074545, -0.2025936693, 0.2286259979, 0.2401124239, -0.2309398800, -0.0001316317, -0.2334697694, -0.0587640703, -0.0949585959, -0.2582420111, 0.2004052401, -0.1277345568, 0.0858382657, 0.0963825732, -0.3088257015, 0.0781198591, -0.1236673892, 0.1477597058, -0.2457624078, 0.1455884576, -0.0738130733, -0.0270024426, -0.2833462954, 0.2247331589, 0.1995744109, -0.0032652994, 0.0031628509, 0.1720142961, 0.0893682092, -0.2642012835, -0.0750340223, 0.0527516417, 0.0792813078, 0.0138124628, -0.1658584923, -0.1103611737, 0.1247807294, -0.1627914459, 0.1075832993, 0.1087306067, 0.0970784128, -0.0419376418, -0.1195792258, 0.0570742115, -0.1134499609, -0.1833711863, -0.1066286340, -0.0080841016, -0.0017266938, 0.0143794669, 0.1396648735, -0.2599615753, -0.2534450293, -0.0534606092, -0.0446352214, 0.1717547625, 0.2569743395, -0.2661344111, 0.2280815989, -0.2710054815, 0.2349157035, 0.0009127984, 0.0185671523, 0.0726913288, 0.1034341156, -0.0463752411, -0.2449704260, 0.1187279224, -0.0496292152, 0.0960919708, -0.1309228092, -0.1539620459, -0.3109683394, -0.2603145242, -0.0550107285, -0.1541434526, -0.1721395999, -0.2581369877, -0.0321945027, -0.0400818028, 0.1633470058, 0.1965931952, 0.1917986572, 0.0710285902, -0.2629685402, 0.0539703667, -0.2137425989, 0.1342358291, -0.2002248913, 0.0079035899, -0.0608027801, 0.1205612347, -0.1116490141, 0.0329628661, -0.1504592448, 0.0503982268, 0.0834200308, -0.1578830630, 0.1316976994, 0.1633971632, -0.1757332683, -0.0263480376, -0.0628635064, 0.0569756217, -0.2952851653, -0.1010097116, -0.0893352181, 0.1810401827, 0.1700140983, 0.1336436272, 0.0491635762, -0.2596577704, -0.0401373692, -0.0965755805, -0.2026566416, 0.2207580656, -0.0643211752, -0.2427710742, 0.1522357762, 0.0545307882, -0.1116404980, -0.1762600392, -0.2010680139, -0.1929987520, -0.0176593084, 0.0847375765, -0.1896356344, 0.1942991167, -0.0926065594, -0.1142875552, 0.1913858205, 0.1651121825, 0.1628865749, -0.1131240651, 0.2163440436, -0.1266613156, 0.0314329006, -0.2112009078, 0.1017954126, 0.2118413746, 0.0349571705, 0.2300034761, 0.1394676119, 0.0202595182, -0.2794122696, 0.1780451834, -0.1266808212, -0.3022004366, -0.2283228040, 0.1136099920, 0.1890650094, -0.2924900353, -0.0688031465, -0.1057161763, 0.0543106720, 0.2273293585, -0.1576569527, -0.1928974986, -0.2076831758, -0.0512546636, -0.1264342666, 0.0433691517, -0.2996569872, -0.2275372595, 0.2216518521, -0.2399088889, 0.1369094104, -0.0581982508, -0.3122235835, -0.2463369817, -0.2786234915, -0.0909036398, 0.2342893779, -0.2576336265, -0.0533657596, -0.0546676479, 0.1680616289, 0.1670978814, 0.0013031050, 0.0608391315, -0.2536975741, -0.1586342156, 0.0733902678, 0.1411089301, 0.2333749086, -0.1763174385, -0.1402781457, -0.1422210783, -0.1042940095, 0.0771385133, 0.2116486281, 0.1344932318, 0.2076371163, -0.2924626470, -0.0267682094, -0.1589725167, 0.2374281734, 0.2624264657, -0.2511590421, 0.1887732893, 0.0538696200, -0.0089460360, -0.1445327848, -0.0479138531, -0.0277706366, -0.2165893614, -0.2883009017, 0.2365459353, -0.0963242650, 0.1201047823, -0.1530912220, -0.2529720068, -0.1182475463, 0.2166708708, 0.0233878735, -0.2137698084, -0.0831819400, -0.2008180618, -0.0229257252, -0.1566789299, -0.1956934631, 0.1104166508, 0.1716938764, -0.1407927871, 0.2416689545, 0.1193754077, 0.1742648780, -0.1619423777, -0.1293191612, 0.0057603568, -0.3022580445, 0.0787945986, 0.0370344780, -0.1840112358, -0.2798374593, 0.1052747220, 0.0699141100, 0.1106926873, -0.1693872660, 0.0055756094, -0.0232262388, 0.0832251608, -0.0870598033, -0.0440237485, -0.1222814992, -0.1319377720, 0.2241676003, 0.1922352016, 0.0950074121, -0.2947403491, -0.0222829022, -0.2117111087, -0.2490038425, -0.1194803417, 0.0966314003, 0.1458077729, -0.0881905183, 0.0521337911, -0.2994450629, 0.2177439630, 0.2021426409, 0.0120551381, 0.0809847936, 0.2223852724, 0.2321050316, -0.1321558356, -0.2275917977, 0.1241296008, -0.0131882364, 0.1733689010, -0.2127589285, -0.3061412871, 0.0142486868, 0.0077303154, -0.2094022781, 0.1141230911, -0.1477101594, -0.1996066272, 0.0957131013, 0.2210508436, 0.1564844996, 0.0135451565, 0.0526897982, 0.0253595989, 0.1317859292, -0.0308278352, -0.1859212369, 0.1559394747, 0.2310854197, -0.0843404904, -0.2328325361, 0.0540025644, -0.0730661824, -0.0952435657, -0.2831208706, -0.1557048261, 0.0313048810, 0.0816087052, 0.1665973216, -0.2474624962, 0.0692074299, -0.2789627314, -0.1925778091, 0.1716565341, -0.1906236708, -0.0842011422, 0.0189323667, -0.2442941070, -0.0715587810, -0.2769919336, 0.1628889441, -0.2990409732, -0.0308568683, -0.1663919091, -0.0345055461, -0.1709685326, -0.0501019657, 0.1039625183, -0.0445371717, 0.0795685425, -0.1869789362, -0.2233844548, -0.1763297468, 0.1901551783, -0.1093963832, -0.1719877869, -0.1449962109, -0.1235689893, -0.0130727561, -0.2899962664, 0.2147318274, -0.0192470867, -0.0035936900, -0.2783000767, -0.1266372502, -0.2008485645, 0.1835558712, -0.1875274032, 0.2328871191, -0.0804612339, -0.2035466582, 0.0422011204, -0.2294101417, 0.0943870693, 0.2713797390, 0.0907782838, 0.1304145157, -0.0076438780, -0.0109673878, -0.0866743922, -0.1809636950, -0.1614949256, -0.0278037712, 0.1747020483, 0.2069451213, -0.1494008452, 0.0971957818, 0.0924235582, 0.1209186614, 0.2090921551, -0.1642322242, 0.0433581658, 0.1401989609, 0.2486774474, -0.0046651848, -0.1226588562, -0.2281629592, -0.2779462636, -0.0605208203, -0.0108565493, -0.1953887641, 0.0173388440, 0.1907325238, -0.2495987117, -0.2990878224, -0.0206305571, 0.1194127500, -0.0034605633, 0.1378355175, 0.1989007294, 0.1500479728, 0.0077357180, -0.1797312498, -0.0323109701, -0.2474712133, 0.1771575511, 0.0127879577, -0.1366872936, 0.1480069906, 0.0219519492, -0.1024268717, 0.1344640553, -0.0772141144, 0.0591089502, -0.2980049253, -0.1650883704, 0.1872283816, -0.1796347797, -0.3070202768, 0.1568269283, -0.2164842188, 0.2281079143, -0.1541337818, -0.0216292031, 0.0788728073, -0.1225525141, 0.0946835726, -0.2194570303, -0.2413816303, -0.2154424787, 0.1311850101, 0.1205851883, -0.2572851181, 0.1004662290, -0.0101425061, 0.0417604037, -0.0679727346, 0.0574990287, -0.0717960820, 0.1748650521, 0.1640328765, -0.0474071242, -0.2213067859, 0.1977558285, -0.3073768020, -0.2188092172, -0.0723247603, -0.1159810796, -0.2128316462, 0.0844334811, -0.0799118504, -0.0915855542, -0.1559193879, 0.1569543630, 0.0182046369, -0.0516477525, -0.2188512534, -0.2102283388, 0.1023440808, 0.2132438570, -0.2794501781, -0.3029455841, 0.1397081912, 0.0817700177, 0.2168581933, -0.2334684283, 0.1840969771, -0.2781173885, -0.2586020231, -0.1121409014, -0.1013109013, -0.0928762779, -0.1171430945, -0.1531283855, -0.0002481338, 0.1532904953, -0.0987284407, -0.0278663728, 0.2692006528, -0.1029902771, 0.1771232933, 0.0095621031, -0.2019827068, -0.0245723352, -0.0985637009, 0.2185767591, 0.0969107151, -0.0629727915, 0.0017728484, -0.0888206810, 0.1706571728, -0.0996709913, 0.0349223502, 0.1247943714, 0.2337115258, 0.0650424585, 0.1452203095, -0.2618125677, 0.1555502862, -0.0407796986, -0.0563496202, -0.1403067857, 0.0378983468, -0.0179812163, 0.0412486978, 0.2122650295, -0.1962649822, 0.1170890108, 0.0276894085, -0.2807143331, 0.0841814280, -0.2911804020, 0.1900853515, 0.1433471888, 0.1623142064, 0.1087331176, -0.0366042890, -0.1272448897, 0.1319559515, 0.0672661960, -0.0242922213, -0.1335453838, -0.2374119163, 0.0557676479, 0.1538042426, -0.0179588161, 0.0618569627, -0.1795389056, 0.1475718766, 0.0019041507, -0.2494981140, 0.1444432288, 0.1824305058, 0.0196331460, 0.0398983918, 0.1349222809, -0.0368401408, -0.2075109035, -0.1356200874, -0.2569471002, -0.2147272229, 0.1200689599, 0.0746767372, -0.2356765419, -0.0047534485, -0.2227507383, 0.1193136275, 0.2181030512, -0.0034717314, -0.2682316601, -0.2487179041, 0.1245305911, 0.1180220917, -0.0378193110, 0.1208891869, -0.0470945612, 0.0069701597, -0.2551949620, -0.0043380577, 0.1965894550, -0.1914831698, 0.0702107325, -0.0547494777, -0.1762548536, 0.1647050828, -0.2283055484, -0.0773534030, 0.0639854372, 0.2355473191, -0.1237195507, 0.1065212488, -0.2569885850, -0.3131618202, -0.2788286507, 0.1471518427, 0.1106386557, -0.0491229631, 0.2170753479, 0.0836024135, 0.1515169144, -0.1426201314, -0.0182960834, -0.1733735055, 0.1802855581, -0.2386288792, 0.2279066294, -0.0990224779, 0.0993332490, 0.1585215628, 0.0617232956, -0.2117849290, 0.0230698120, 0.0559994355, -0.1913996190, -0.0840855762, 0.1189221367, -0.2978809178, -0.2405893952, 0.1801682264, -0.1099042520, -0.1760250330, -0.2542960346, 0.0290102884, -0.2150915414, -0.2079875022, 0.0871406049, -0.0189866535, 0.0088034058, -0.2198932767, 0.1038584188, 0.0655094385, 0.0760700554, -0.1733403057, -0.0538810678, -0.1488077641, 0.0723594651, 0.1840359420, -0.2402916402, -0.1458795369, 0.0807423294, 0.0203688908, 0.1808529496, 0.2159276605, -0.1525515616, 0.1914789379, -0.0577833988, -0.1264279783, -0.2230463624, 0.0973076224, 0.0170683842, 0.0689666644, -0.1513205767, 0.2155637145, -0.0768351331, 0.0651963651, -0.2071467191, 0.0886085480, -0.2057008296, -0.1875021607, 0.1657188535, -0.3013162911, 0.2057691365, 0.1286680698, -0.2894866467, 0.2286971211, -0.3162095845, -0.0439667329, 0.1222465709, -0.0642148480, -0.1018405110, -0.2746232152, -0.2648366988, -0.0820844918, 0.2164601237, -0.0190867260, 0.1648023725, -0.1315728873, -0.1217217445, 0.1083342135, 0.0108253220, -0.0164291710, 0.0028424542, 0.0267531648, -0.1869871616, -0.0298628826, -0.3010893166, -0.0871228725, 0.2355147749, 0.0814335570, 0.0074081933, 0.1890623122, 0.0458984263, 0.0481422544, 0.1731717288, -0.1682318300, -0.0220600776, -0.1227363199};
const model_t B2[OUTPUT_DIM] = {-0.0399467126, -0.0397209823, -0.0395219252, -0.0391757116, -0.0394546278, -0.0388863049, -0.0390415415, -0.0396656282, -0.0388470702, -0.0395959318, -0.0388374738, -0.0397621617, -0.0375055484, -0.0401222855, -0.0389670767, -0.0387837179, -0.0391687080, -0.0389339998, -0.0379612111, -0.0227862913, -0.0305354521, -0.0389599018, -0.0390946046, -0.0388723388, -0.0397084318, -0.0395215973, -0.0395599604, -0.0387451909, -0.0383912958, -0.0384402797, -0.0385554321, -0.0391009003, -0.0397236347, -0.0396630839, -0.0402222462, -0.0280441251, -0.0207549613, -0.0394163579, -0.0392721258, -0.0394791178, -0.0396358147, -0.0387422703, -0.0378667526, -0.0360786468, -0.0051456415, -0.0400752053, -0.0383847207, -0.0396263748, -0.0394964367, -0.0391073748, -0.0383610502, 0.0083377045, -0.0405260697, -0.0394605026, -0.0395696945, -0.0397255458, -0.0392845236, -0.0387110412, -0.0393842384, -0.0393241979, -0.0395311341, -0.0400160961, -0.0394764207, -0.0391286798};

// Pre-computed Sigmoid Table (Size 1024, Range +/- 8.0)
const model_t SIGMOID_TABLE[1024] = {
    0.000335,     0.000341,     0.000346,     0.000351,     0.000357,     0.000363,     0.000368,     0.000374, 
    0.000380,     0.000386,     0.000392,     0.000398,     0.000404,     0.000411,     0.000417,     0.000424, 
    0.000431,     0.000437,     0.000444,     0.000451,     0.000458,     0.000466,     0.000473,     0.000480, 
    0.000488,     0.000496,     0.000503,     0.000511,     0.000519,     0.000527,     0.000536,     0.000544, 
    0.000553,     0.000561,     0.000570,     0.000579,     0.000588,     0.000598,     0.000607,     0.000617, 
    0.000626,     0.000636,     0.000646,     0.000656,     0.000667,     0.000677,     0.000688,     0.000699, 
    0.000710,     0.000721,     0.000732,     0.000744,     0.000755,     0.000767,     0.000779,     0.000792, 
    0.000804,     0.000817,     0.000830,     0.000843,     0.000856,     0.000869,     0.000883,     0.000897, 
    0.000911,     0.000925,     0.000940,     0.000955,     0.000970,     0.000985,     0.001001,     0.001016, 
    0.001032,     0.001048,     0.001065,     0.001082,     0.001099,     0.001116,     0.001134,     0.001151, 
    0.001170,     0.001188,     0.001207,     0.001226,     0.001245,     0.001264,     0.001284,     0.001305, 
    0.001325,     0.001346,     0.001367,     0.001389,     0.001410,     0.001433,     0.001455,     0.001478, 
    0.001501,     0.001525,     0.001549,     0.001573,     0.001598,     0.001623,     0.001648,     0.001674, 
    0.001701,     0.001727,     0.001755,     0.001782,     0.001810,     0.001839,     0.001868,     0.001897, 
    0.001927,     0.001957,     0.001988,     0.002019,     0.002051,     0.002083,     0.002116,     0.002149, 
    0.002183,     0.002217,     0.002252,     0.002287,     0.002323,     0.002360,     0.002397,     0.002434, 
    0.002473,     0.002511,     0.002551,     0.002591,     0.002632,     0.002673,     0.002715,     0.002758, 
    0.002801,     0.002845,     0.002890,     0.002935,     0.002981,     0.003028,     0.003075,     0.003124, 
    0.003173,     0.003222,     0.003273,     0.003324,     0.003377,     0.003430,     0.003483,     0.003538, 
    0.003594,     0.003650,     0.003707,     0.003765,     0.003824,     0.003884,     0.003945,     0.004007, 
    0.004070,     0.004134,     0.004199,     0.004265,     0.004332,     0.004399,     0.004468,     0.004538, 
    0.004610,     0.004682,     0.004755,     0.004830,     0.004905,     0.004982,     0.005060,     0.005140, 
    0.005220,     0.005302,     0.005385,     0.005469,     0.005555,     0.005642,     0.005730,     0.005820, 
    0.005911,     0.006004,     0.006098,     0.006193,     0.006290,     0.006388,     0.006488,     0.006590, 
    0.006693,     0.006798,     0.006904,     0.007012,     0.007121,     0.007233,     0.007346,     0.007461, 
    0.007577,     0.007696,     0.007816,     0.007938,     0.008062,     0.008188,     0.008316,     0.008446, 
    0.008577,     0.008711,     0.008847,     0.008985,     0.009126,     0.009268,     0.009413,     0.009559, 
    0.009708,     0.009860,     0.010014,     0.010170,     0.010328,     0.010489,     0.010653,     0.010818, 
    0.010987,     0.011158,     0.011332,     0.011508,     0.011687,     0.011869,     0.012054,     0.012241, 
    0.012432,     0.012625,     0.012821,     0.013020,     0.013223,     0.013428,     0.013637,     0.013849, 
    0.014064,     0.014282,     0.014504,     0.014729,     0.014957,     0.015189,     0.015425,     0.015664, 
    0.015906,     0.016153,     0.016403,     0.016657,     0.016915,     0.017177,     0.017442,     0.017712, 
    0.017986,     0.018264,     0.018547,     0.018833,     0.019124,     0.019419,     0.019719,     0.020023, 
    0.020332,     0.020646,     0.020964,     0.021287,     0.021615,     0.021948,     0.022286,     0.022629, 
    0.022977,     0.023331,     0.023689,     0.024054,     0.024423,     0.024798,     0.025179,     0.025565, 
    0.025957,     0.026355,     0.026759,     0.027169,     0.027585,     0.028008,     0.028436,     0.028871, 
    0.029312,     0.029760,     0.030215,     0.030676,     0.031144,     0.031619,     0.032101,     0.032590, 
    0.033086,     0.033590,     0.034100,     0.034619,     0.035145,     0.035679,     0.036220,     0.036769, 
    0.037327,     0.037892,     0.038466,     0.039048,     0.039639,     0.040238,     0.040846,     0.041462, 
    0.042088,     0.042722,     0.043366,     0.044019,     0.044681,     0.045353,     0.046034,     0.046725, 
    0.047426,     0.048137,     0.048858,     0.049589,     0.050331,     0.051083,     0.051845,     0.052619, 
    0.053403,     0.054199,     0.055005,     0.055823,     0.056652,     0.057493,     0.058346,     0.059210, 
    0.060087,     0.060975,     0.061876,     0.062789,     0.063715,     0.064653,     0.065605,     0.066569, 
    0.067547,     0.068537,     0.069542,     0.070560,     0.071591,     0.072637,     0.073696,     0.074770, 
    0.075858,     0.076961,     0.078078,     0.079210,     0.080357,     0.081520,     0.082697,     0.083890, 
    0.085099,     0.086323,     0.087564,     0.088820,     0.090093,     0.091382,     0.092688,     0.094010, 
    0.095349,     0.096706,     0.098079,     0.099470,     0.100879,     0.102305,     0.103749,     0.105211, 
    0.106691,     0.108189,     0.109706,     0.111241,     0.112795,     0.114369,     0.115961,     0.117572, 
    0.119203,     0.120853,     0.122523,     0.124213,     0.125923,     0.127653,     0.129403,     0.131173, 
    0.132964,     0.134776,     0.136608,     0.138462,     0.140336,     0.142232,     0.144149,     0.146087, 
    0.148047,     0.150029,     0.152032,     0.154058,     0.156105,     0.158174,     0.160266,     0.162380, 
    0.164516,     0.166675,     0.168857,     0.171061,     0.173288,     0.175538,     0.177811,     0.180107, 
    0.182426,     0.184768,     0.187133,     0.189521,     0.191933,     0.194368,     0.196826,     0.199308, 
    0.201813,     0.204342,     0.206894,     0.209470,     0.212069,     0.214691,     0.217338,     0.220007, 
    0.222700,     0.225417,     0.228157,     0.230920,     0.233706,     0.236516,     0.239349,     0.242206, 
    0.245085,     0.247987,     0.250913,     0.253861,     0.256832,     0.259826,     0.262842,     0.265880, 
    0.268941,     0.272025,     0.275130,     0.278257,     0.281406,     0.284576,     0.287768,     0.290981, 
    0.294215,     0.297470,     0.300746,     0.304042,     0.307358,     0.310694,     0.314051,     0.317426, 
    0.320821,     0.324235,     0.327668,     0.331120,     0.334589,     0.338077,     0.341582,     0.345105, 
    0.348645,     0.352202,     0.355775,     0.359364,     0.362969,     0.366590,     0.370225,     0.373876, 
    0.377541,     0.381220,     0.384912,     0.388618,     0.392337,     0.396068,     0.399812,     0.403567, 
    0.407333,     0.411111,     0.414899,     0.418697,     0.422505,     0.426322,     0.430147,     0.433981, 
    0.437823,     0.441673,     0.445530,     0.449393,     0.453262,     0.457137,     0.461017,     0.464902, 
    0.468791,     0.472683,     0.476580,     0.480479,     0.484380,     0.488283,     0.492188,     0.496094, 
    0.500000,     0.503906,     0.507812,     0.511717,     0.515620,     0.519521,     0.523420,     0.527317, 
    0.531209,     0.535098,     0.538983,     0.542863,     0.546738,     0.550607,     0.554470,     0.558327, 
    0.562177,     0.566019,     0.569853,     0.573678,     0.577495,     0.581303,     0.585101,     0.588889, 
    0.592667,     0.596433,     0.600188,     0.603932,     0.607663,     0.611382,     0.615088,     0.618780, 
    0.622459,     0.626124,     0.629775,     0.633410,     0.637031,     0.640636,     0.644225,     0.647798, 
    0.651355,     0.654895,     0.658418,     0.661923,     0.665411,     0.668880,     0.672332,     0.675765, 
    0.679179,     0.682574,     0.685949,     0.689306,     0.692642,     0.695958,     0.699254,     0.702530, 
    0.705785,     0.709019,     0.712232,     0.715424,     0.718594,     0.721743,     0.724870,     0.727975, 
    0.731059,     0.734120,     0.737158,     0.740174,     0.743168,     0.746139,     0.749087,     0.752013, 
    0.754915,     0.757794,     0.760651,     0.763484,     0.766294,     0.769080,     0.771843,     0.774583, 
    0.777300,     0.779993,     0.782662,     0.785309,     0.787931,     0.790530,     0.793106,     0.795658, 
    0.798187,     0.800692,     0.803174,     0.805632,     0.808067,     0.810479,     0.812867,     0.815232, 
    0.817574,     0.819893,     0.822189,     0.824462,     0.826712,     0.828939,     0.831143,     0.833325, 
    0.835484,     0.837620,     0.839734,     0.841826,     0.843895,     0.845942,     0.847968,     0.849971, 
    0.851953,     0.853913,     0.855851,     0.857768,     0.859664,     0.861538,     0.863392,     0.865224, 
    0.867036,     0.868827,     0.870597,     0.872347,     0.874077,     0.875787,     0.877477,     0.879147, 
    0.880797,     0.882428,     0.884039,     0.885631,     0.887205,     0.888759,     0.890294,     0.891811, 
    0.893309,     0.894789,     0.896251,     0.897695,     0.899121,     0.900530,     0.901921,     0.903294, 
    0.904651,     0.905990,     0.907312,     0.908618,     0.909907,     0.911180,     0.912436,     0.913677, 
    0.914901,     0.916110,     0.917303,     0.918480,     0.919643,     0.920790,     0.921922,     0.923039, 
    0.924142,     0.925230,     0.926304,     0.927363,     0.928409,     0.929440,     0.930458,     0.931463, 
    0.932453,     0.933431,     0.934395,     0.935347,     0.936285,     0.937211,     0.938124,     0.939025, 
    0.939913,     0.940790,     0.941654,     0.942507,     0.943348,     0.944177,     0.944995,     0.945801, 
    0.946597,     0.947381,     0.948155,     0.948917,     0.949669,     0.950411,     0.951142,     0.951863, 
    0.952574,     0.953275,     0.953966,     0.954647,     0.955319,     0.955981,     0.956634,     0.957278, 
    0.957912,     0.958538,     0.959154,     0.959762,     0.960361,     0.960952,     0.961534,     0.962108, 
    0.962673,     0.963231,     0.963780,     0.964321,     0.964855,     0.965381,     0.965900,     0.966410, 
    0.966914,     0.967410,     0.967899,     0.968381,     0.968856,     0.969324,     0.969785,     0.970240, 
    0.970688,     0.971129,     0.971564,     0.971992,     0.972415,     0.972831,     0.973241,     0.973645, 
    0.974043,     0.974435,     0.974821,     0.975202,     0.975577,     0.975946,     0.976311,     0.976669, 
    0.977023,     0.977371,     0.977714,     0.978052,     0.978385,     0.978713,     0.979036,     0.979354, 
    0.979668,     0.979977,     0.980281,     0.980581,     0.980876,     0.981167,     0.981453,     0.981736, 
    0.982014,     0.982288,     0.982558,     0.982823,     0.983085,     0.983343,     0.983597,     0.983847, 
    0.984094,     0.984336,     0.984575,     0.984811,     0.985043,     0.985271,     0.985496,     0.985718, 
    0.985936,     0.986151,     0.986363,     0.986572,     0.986777,     0.986980,     0.987179,     0.987375, 
    0.987568,     0.987759,     0.987946,     0.988131,     0.988313,     0.988492,     0.988668,     0.988842, 
    0.989013,     0.989182,     0.989347,     0.989511,     0.989672,     0.989830,     0.989986,     0.990140, 
    0.990292,     0.990441,     0.990587,     0.990732,     0.990874,     0.991015,     0.991153,     0.991289, 
    0.991423,     0.991554,     0.991684,     0.991812,     0.991938,     0.992062,     0.992184,     0.992304, 
    0.992423,     0.992539,     0.992654,     0.992767,     0.992879,     0.992988,     0.993096,     0.993202, 
    0.993307,     0.993410,     0.993512,     0.993612,     0.993710,     0.993807,     0.993902,     0.993996, 
    0.994089,     0.994180,     0.994270,     0.994358,     0.994445,     0.994531,     0.994615,     0.994698, 
    0.994780,     0.994860,     0.994940,     0.995018,     0.995095,     0.995170,     0.995245,     0.995318, 
    0.995390,     0.995462,     0.995532,     0.995601,     0.995668,     0.995735,     0.995801,     0.995866, 
    0.995930,     0.995993,     0.996055,     0.996116,     0.996176,     0.996235,     0.996293,     0.996350, 
    0.996406,     0.996462,     0.996517,     0.996570,     0.996623,     0.996676,     0.996727,     0.996778, 
    0.996827,     0.996876,     0.996925,     0.996972,     0.997019,     0.997065,     0.997110,     0.997155, 
    0.997199,     0.997242,     0.997285,     0.997327,     0.997368,     0.997409,     0.997449,     0.997489, 
    0.997527,     0.997566,     0.997603,     0.997640,     0.997677,     0.997713,     0.997748,     0.997783, 
    0.997817,     0.997851,     0.997884,     0.997917,     0.997949,     0.997981,     0.998012,     0.998043, 
    0.998073,     0.998103,     0.998132,     0.998161,     0.998190,     0.998218,     0.998245,     0.998273, 
    0.998299,     0.998326,     0.998352,     0.998377,     0.998402,     0.998427,     0.998451,     0.998475, 
    0.998499,     0.998522,     0.998545,     0.998567,     0.998590,     0.998611,     0.998633,     0.998654, 
    0.998675,     0.998695,     0.998716,     0.998736,     0.998755,     0.998774,     0.998793,     0.998812, 
    0.998830,     0.998849,     0.998866,     0.998884,     0.998901,     0.998918,     0.998935,     0.998952, 
    0.998968,     0.998984,     0.998999,     0.999015,     0.999030,     0.999045,     0.999060,     0.999075, 
    0.999089,     0.999103,     0.999117,     0.999131,     0.999144,     0.999157,     0.999170,     0.999183, 
    0.999196,     0.999208,     0.999221,     0.999233,     0.999245,     0.999256,     0.999268,     0.999279, 
    0.999290,     0.999301,     0.999312,     0.999323,     0.999333,     0.999344,     0.999354,     0.999364, 
    0.999374,     0.999383,     0.999393,     0.999402,     0.999412,     0.999421,     0.999430,     0.999439, 
    0.999447,     0.999456,     0.999464,     0.999473,     0.999481,     0.999489,     0.999497,     0.999504, 
    0.999512,     0.999520,     0.999527,     0.999534,     0.999542,     0.999549,     0.999556,     0.999563, 
    0.999569,     0.999576,     0.999583,     0.999589,     0.999596,     0.999602,     0.999608,     0.999614, 
    0.999620,     0.999626,     0.999632,     0.999637,     0.999643,     0.999649,     0.999654,     0.999659
};

// Prototype
void tiny_autoencoder(model_t input_data[INPUT_DIM], model_t output_data[OUTPUT_DIM]);

#endif