//Numpy array shape [64, 16]
//Min -0.297741740942
//Max 0.310102999210
//Number of zeros 0

#ifndef W2_H_
#define W2_H_

#ifndef __SYNTHESIS__
model_default_t w2[1024];
#else
model_default_t w2[1024] = {0.0341353118, -0.0050078928, 0.1502811611, 0.1292168498, 0.0521370769, 0.1031488478, -0.1094079465, 0.2114683390, 0.2716326714, 0.1197386980, 0.2245945036, -0.0432858169, 0.0996274948, 0.0205140710, -0.1953284740, -0.1735018641, -0.2194655687, -0.1082040519, -0.0332021490, 0.0607229471, -0.1618538797, -0.2327959836, -0.0361800343, -0.1599353105, 0.0093477145, -0.0292181615, -0.0051183952, 0.1726043224, -0.2472160161, 0.2397017479, 0.1711255759, -0.0115075409, -0.1158194989, -0.1351736486, 0.2686981261, -0.2636674941, -0.2486066967, -0.2550547123, 0.0767565146, 0.0338116251, 0.0723267496, 0.0511500426, 0.1555305570, 0.1719597578, -0.0143692344, 0.1339424849, -0.0330202915, -0.2065000236, 0.2561084032, 0.0652748048, 0.0357549153, -0.0614624992, 0.1257149130, -0.1066394299, 0.0390465669, 0.0656065345, 0.0122586507, 0.0741912872, -0.1411141306, 0.2512158155, 0.1547740400, -0.1390043497, -0.0293026045, -0.2283416986, -0.2188829333, 0.0009945529, -0.0213670135, 0.2007383108, -0.0052229571, 0.0336350761, -0.0342654213, -0.2180975825, 0.1375076920, 0.0599099211, -0.2277203649, -0.2597744465, -0.0422853008, 0.1953824759, -0.1887734830, 0.2143482417, 0.2538910210, 0.0206355564, 0.2213618755, -0.2583856583, 0.1791539937, 0.2228111178, 0.1856037974, 0.1633630991, -0.0434019193, 0.2362928987, 0.0545255505, 0.1920821518, -0.0208167974, -0.0558564588, 0.1298736185, -0.1102558598, -0.1287590563, -0.1941531599, 0.0139222359, -0.0930632502, -0.0152061079, -0.0872413516, 0.1157668233, 0.0508427359, 0.1745436341, 0.0998681858, 0.2050507069, -0.1928128451, 0.2621036768, 0.1505994797, -0.0788132325, -0.2321840376, -0.0274278224, -0.1294288039, 0.0985446572, -0.2120640725, 0.0195711851, 0.1372554898, -0.2722243071, 0.0565457642, 0.1905038059, 0.1796092391, 0.1166893542, -0.1189989299, 0.0150962770, -0.2043192685, 0.1480517685, -0.2096339762, 0.2082880735, -0.0047312323, 0.0227390528, 0.1279647350, -0.2091708481, 0.2599768639, 0.2667732239, -0.1389275193, -0.0710928813, -0.1013184711, -0.1277279705, 0.2377101183, 0.2068132311, -0.0920860022, -0.1026043072, 0.1376289278, -0.0873380676, -0.0705223307, 0.0557822213, -0.0208553635, -0.1729406714, -0.0890489966, 0.0279446188, 0.2587091029, -0.1517926902, -0.2453191876, 0.2743364871, 0.1840131283, 0.2376196086, 0.0129606482, -0.0926079303, 0.0984878317, 0.2334334254, 0.2285986692, 0.2132581472, -0.0077990666, 0.2608763278, 0.1189280301, -0.2043600380, -0.1564661562, -0.1381937563, 0.2677178383, -0.2051461339, 0.1121880040, -0.1168040335, 0.0684275031, 0.2441877425, 0.0373924673, -0.2874390781, -0.1425057799, -0.1471453756, -0.0392218232, 0.0541036353, -0.2076734155, -0.1122108623, 0.0577972047, 0.1780732721, 0.2546313703, -0.1913022250, -0.2440166473, 0.1993416548, -0.0671315044, 0.2563895285, 0.2391688824, -0.0468340851, -0.0979625806, 0.2638688385, 0.1652968973, 0.1657456607, 0.2295539528, -0.1666594595, 0.2664610147, -0.2119344920, -0.1357108802, -0.1580514759, -0.1030266061, 0.2271446884, -0.1445720643, -0.1063226014, -0.0231865756, 0.1428824216, 0.0843586549, -0.1890941858, 0.1372437328, -0.1980897188, 0.0468071587, 0.1852303594, 0.1568457931, -0.2138826400, -0.0568011105, -0.0161783900, 0.1830665171, -0.2102280110, -0.0796682835, -0.0909063146, -0.1282211840, -0.0452222079, -0.0456872433, 0.2557221055, 0.0695452541, 0.1187291071, -0.0761150718, 0.2867601812, 0.2758426368, 0.0661915243, 0.1504649371, -0.1911720634, 0.0633097813, -0.2219822854, -0.0752860755, 0.2475022674, -0.0757052228, -0.2701085508, -0.0826559886, 0.2547742128, -0.1683140397, 0.1105858088, -0.0478576198, -0.0318510942, -0.0542633608, -0.0615663044, 0.1192711219, 0.1680656075, -0.1352838278, 0.0531549975, 0.2341827154, 0.1286332905, -0.1759211868, 0.2285907716, 0.0354146846, -0.2120893747, 0.1613638252, -0.2299674153, -0.2436099052, -0.2673865259, -0.1090329140, 0.1890779585, -0.0622137524, 0.1684095860, -0.2415756732, 0.2406018227, 0.1641432196, -0.1956470758, 0.1557353437, -0.1018851548, -0.1657958776, -0.0941727981, 0.1964021176, -0.1450586915, -0.1445127279, 0.2269431055, 0.1297005862, 0.1401343495, -0.1254758388, -0.0164962653, -0.1700794399, -0.1453101784, -0.1198872477, -0.1769958735, -0.1415713429, -0.0408057459, -0.1036192700, -0.0926086828, 0.0927268937, 0.1741642952, -0.2257513106, 0.1848382652, -0.0021129777, 0.2741447389, 0.0546952039, 0.0675891787, -0.1344766766, -0.0835244656, 0.1931658834, -0.0620373674, 0.0475888960, 0.2445770651, -0.2153718919, 0.1397445947, -0.2889643908, 0.1636956930, 0.0254731346, 0.0252752434, -0.0717028230, -0.1026782990, 0.2342541069, -0.2234465033, 0.2398798317, 0.0669523254, -0.1980650723, 0.0197423100, -0.0074124695, 0.0368312635, -0.0140387900, -0.0176482331, 0.0074988883, 0.1731915474, 0.0718797818, 0.2718841136, -0.1930429190, -0.1174652874, -0.0233230013, 0.2218854576, 0.1704282314, -0.2454164326, 0.0131251160, 0.0247274153, 0.1230719984, -0.1309896559, 0.0361135975, 0.1223624796, 0.1561681628, -0.1482821703, 0.1749078482, -0.2204514295, -0.2208461314, -0.1144291162, -0.1859564930, -0.2137621343, -0.2977417409, 0.1592408419, 0.2218705714, -0.2003270686, -0.2768118680, -0.2121818364, 0.3047328293, -0.2126250267, -0.1707173586, 0.2124231011, 0.1933166236, 0.1070279181, 0.2709960639, -0.1426972002, 0.0899268389, 0.3066494167, 0.0045338590, 0.0958871171, 0.2552742064, 0.2335970551, -0.2710477114, -0.0043118857, -0.2335400134, 0.0033028184, -0.1282398403, 0.1309369653, 0.0531942546, 0.1192384288, -0.1188979819, -0.2325166464, 0.0472612269, -0.1656188965, 0.2280417383, 0.0992490277, -0.1057034209, 0.0511447787, -0.0788642094, -0.1030944511, -0.0564309768, 0.0935162380, -0.0154207973, 0.1764459610, -0.1069399118, 0.0317113437, 0.0554304235, 0.1175404564, -0.2334078550, -0.2484242767, -0.0423164144, 0.2181482464, 0.1600973010, 0.0210235044, -0.1521999538, -0.1660073698, 0.2540270090, 0.2606220543, -0.0604293197, -0.0993289128, -0.1573551446, -0.0066817696, 0.1992144138, 0.1572866142, -0.1010084078, -0.0505805425, -0.0544048063, 0.1991647184, 0.0444215164, -0.1745345294, 0.0029938831, -0.0842254981, -0.0909455121, 0.1290377975, -0.1425208300, -0.1374985874, -0.1226855516, -0.2256505191, 0.0569174178, 0.0452041738, -0.1205820218, 0.2515243888, 0.0519038327, -0.1133873612, -0.2543939352, 0.1819104850, -0.1925311983, 0.1848659813, -0.1407312155, 0.0613551773, -0.0462737717, -0.2406012267, 0.0588651113, -0.0889701322, 0.2395476252, -0.2028136998, -0.0589865595, -0.0385134555, 0.0839110166, -0.1502092332, -0.1713445932, -0.1581200510, 0.2163006067, -0.1258406639, -0.1724491864, 0.2912833095, -0.0404525846, -0.0849332362, -0.1978476644, -0.2281249762, 0.2237821519, 0.2229660153, -0.1175230965, 0.3090596497, 0.1304599941, 0.1700375378, 0.2437334359, 0.2392169237, -0.1893976331, 0.1257571727, 0.1155745238, 0.1560743302, -0.1161150187, 0.1133789569, -0.2388398349, 0.1782758683, -0.0574864894, -0.0153603479, 0.2070922107, 0.2051591873, 0.0536512919, -0.2539514303, -0.0239018388, -0.0942050740, -0.2774062753, -0.0504739732, 0.3070588708, -0.2147192061, -0.0751622394, 0.1023438573, -0.0200860836, 0.3005337417, 0.0584815443, 0.1469772309, 0.1464157104, -0.1650792360, -0.2714641690, 0.2355396450, -0.0082674492, 0.0026888121, -0.1179633066, -0.1129183695, -0.0178691708, 0.2745048404, -0.0099727223, 0.0947163850, 0.0599796325, 0.2135518789, 0.0203802232, 0.1164551452, 0.2661416829, -0.0450246669, 0.2048566192, -0.2111351192, 0.1833606362, -0.1814060360, -0.1988745630, -0.0232687090, -0.1259744316, -0.1291738898, -0.1401477605, -0.1789149344, 0.1434630156, 0.1129212305, -0.0610984415, -0.0806307271, -0.1007874757, 0.0659019276, 0.1775374264, 0.0531373285, -0.0465819500, 0.1844205558, 0.2630263567, -0.1421815306, -0.0930627137, 0.1228886470, -0.0425565541, -0.1507691145, 0.2314358652, 0.1424879730, 0.1281853020, 0.1478903145, 0.1912083775, 0.2500758469, -0.1365077496, -0.2560456991, -0.2319386154, -0.0107625341, -0.0074338010, -0.2664811611, 0.2521282136, -0.1634991765, -0.0419245698, 0.2487023175, -0.1617581993, -0.0734571069, 0.2487455010, 0.1456564814, 0.1588133574, -0.1655905694, -0.2380185872, 0.2195561081, -0.1598000675, -0.0907211378, 0.0476031676, 0.0071661184, 0.1214002371, -0.1269883662, 0.0944414660, 0.1644174457, 0.2294065058, 0.2268256992, -0.1676427424, -0.1428616047, -0.0254650656, -0.1363968551, -0.0525006019, -0.0088359099, 0.2203759253, -0.2246203870, -0.0531905256, -0.2346781194, 0.2820318937, -0.0451525152, 0.1006350964, -0.1384535134, -0.1674611866, 0.1973134130, 0.2929125726, 0.2700478435, 0.2944785058, -0.0495999232, 0.0970893353, -0.1528603286, 0.0801807642, -0.0292606018, -0.2327558845, 0.1947862804, -0.0237890258, 0.1995849013, -0.2398203015, -0.1988136619, -0.1952699721, -0.2044400275, -0.1709995717, 0.0324593224, -0.1598260403, 0.3024206758, -0.2369571328, -0.0259722155, 0.0606508479, 0.2333216220, -0.0419999324, -0.2853246033, -0.2020729631, 0.0607814863, -0.1835545003, -0.2132948786, 0.1675837636, 0.1048671827, -0.1068510711, -0.2272090167, 0.0626861602, 0.3069438934, 0.2370478660, 0.0497328527, -0.0607063286, -0.1331627071, -0.0217912979, -0.1892895550, 0.0704952478, 0.1442060024, -0.2251761854, 0.2092640102, -0.1466898471, -0.0641683415, 0.1846981049, -0.0177651439, -0.1353079975, -0.0516444631, 0.2384559959, 0.1448431015, -0.0805057883, -0.0360880531, -0.1559700966, 0.1416245997, -0.2473069727, -0.0346166231, -0.1403169483, -0.2522703409, -0.2387048453, -0.1230298802, 0.0591945983, 0.1869247258, 0.0862362608, 0.1148034111, -0.0569885373, 0.0028068100, 0.2124756128, -0.0902394578, 0.2740271688, -0.2912344337, -0.0829820484, 0.3101029992, -0.0719439834, -0.0811554641, 0.0970356315, 0.0658687428, 0.2736805975, 0.0223629307, -0.0061237058, -0.2160663307, -0.2916498780, -0.2722249031, 0.0290999915, 0.0723019987, 0.1564833075, 0.0891564265, -0.0396952704, 0.1630081832, 0.1188015863, -0.0387260616, -0.0758004859, -0.1607731134, 0.0382980444, 0.2644214034, -0.0181908552, -0.1544630229, -0.1789187938, 0.0833845660, -0.1494501829, 0.1285593212, -0.0728452578, -0.0535892658, 0.0351411626, 0.1050082147, -0.1939583421, -0.1714850813, -0.1757241488, 0.3028298020, -0.1138992086, 0.3066662550, -0.1475032270, -0.0799323097, -0.1990948170, -0.0741695464, -0.2228279263, 0.2269415408, 0.1276339144, -0.1007525027, -0.1909583211, -0.1399744004, -0.2121580094, 0.1084285975, -0.1106145009, 0.1124063656, 0.0882722586, -0.0036564507, -0.0496602431, -0.1000342965, 0.0388444439, 0.0221294127, -0.2877605557, 0.2720703483, 0.0330420956, -0.0366989337, 0.1303748935, 0.1442182213, -0.1335854679, 0.0029045085, 0.1133508831, 0.2079148591, -0.1979445964, -0.0742308646, 0.1584990025, 0.0916374847, -0.2913655937, -0.0542223863, -0.1527446359, -0.1921568513, -0.0540222712, 0.1427239180, -0.1922768950, 0.1208280250, 0.0075905048, 0.1223525032, -0.2035223246, 0.0058014221, -0.1540949941, -0.0059132399, 0.0994490907, -0.2194016278, 0.0893049836, 0.1638607681, 0.1767853200, 0.2018254846, -0.2166445553, -0.1790719926, 0.2676272392, -0.0920740291, 0.1421992928, 0.1239395514, -0.0311447978, -0.1376616955, -0.0179549772, -0.1580019146, 0.0092161754, -0.2418628335, -0.2825948894, 0.2129605263, 0.0369239822, 0.2369769365, 0.0211942010, 0.1606548876, 0.1785441637, -0.0313634723, -0.1734409630, -0.2069191039, -0.2075411081, 0.1239798069, -0.1648367494, 0.0880905166, -0.1565596163, 0.1535828561, -0.1759283692, -0.2542962730, -0.1532550305, -0.2654037774, 0.2654538751, 0.2470222861, 0.2003604174, 0.0074067404, -0.1475990862, -0.1862519234, 0.1133984402, -0.1248103231, -0.2109487951, -0.1221171021, -0.2300539017, 0.2647093534, 0.1879392862, -0.1584389657, 0.1092407703, -0.0807742178, 0.1106807441, -0.2809054255, 0.0066886726, 0.1587710530, -0.1145837009, 0.2674402595, 0.0346039943, -0.0730005279, -0.1816944480, -0.1184487343, 0.1251723468, 0.2110858858, 0.2430708706, -0.0161081590, -0.1530901045, 0.0378852449, 0.1643093526, 0.1278144866, -0.0818431303, -0.1053336635, 0.0124869822, 0.0182986408, -0.2312647849, 0.2520987093, 0.1820755005, 0.0058960482, -0.1494083405, 0.1188695058, -0.0030380338, -0.0004787899, 0.0486669727, 0.1412559152, 0.2286980152, 0.1086905748, 0.0961281508, 0.2013706416, -0.0669440776, 0.1806507856, 0.2360199690, 0.1093606874, -0.0287908036, 0.0600705706, -0.0528405271, 0.0766748786, -0.0001712317, -0.0316414721, -0.2523122132, -0.1580279171, -0.0824233145, -0.0240464453, 0.2460186034, -0.1521253884, 0.0232209414, 0.2761970758, -0.2087498605, -0.2152931839, -0.0996548086, 0.1799002588, 0.1642137319, 0.0508756675, 0.0530079864, -0.1367582381, -0.1162687391, -0.0499194562, 0.2050070465, -0.0630984306, 0.1837769151, -0.1752065569, -0.1627390087, -0.1754896641, 0.1599544883, -0.1145087928, 0.1352769881, 0.1574442536, -0.1468076259, -0.1964709312, 0.1107398793, 0.1017513424, 0.1175198555, 0.2832400501, 0.0964151621, 0.1498574317, 0.2325488925, 0.2572585940, 0.1680014580, -0.2133106738, 0.0790142044, 0.1249054968, 0.2362634838, -0.0671185553, -0.0436273515, 0.0075728386, 0.1014309600, 0.0014061219, -0.0764045566, 0.1566078067, -0.0034651835, 0.2152186632, -0.0929970443, -0.2193925679, -0.0153405368, 0.0544341207, -0.1983219981, -0.1051159948, 0.1568083167, -0.1416370720, 0.0853460133, -0.2706161439, -0.0395721793, -0.2350140065, 0.1792257726, -0.2347660810, 0.0973392725, -0.1181070134, -0.2470630109, -0.1100899428, 0.2695198953, -0.2151583284, -0.2656935155, -0.0265928656, 0.1681050211, -0.2570624053, -0.0793130547, 0.2165377289, 0.0467542186, -0.2369525135, 0.0459689982, -0.0284914244, 0.0483241975, -0.1615021676, 0.1711172760, -0.1303987950, 0.2378460765, -0.0617974736, 0.0144403446, -0.1366014183, -0.0803316981, 0.1206988916, -0.1507836133, -0.1449874192, -0.1304968894, -0.0540564284, -0.0009867848, -0.2220756859, 0.1964830607, 0.2176329345, 0.0174495578, 0.2032161057, 0.1224371493, -0.0990769193, -0.1217602119, -0.0160042085, 0.1577296406, 0.2718269229, 0.2470582277, -0.0947049037, 0.2310047895, -0.2372845709, 0.0459195524, -0.2249130607, -0.0334468633, 0.1078549176, -0.0343183577, 0.2393970191, 0.1812268347, -0.0929274336, -0.1899677813, -0.0221699812, -0.0736199021, 0.2428924888, -0.1014440954, 0.1459605992, 0.0960788280, 0.0408270247, 0.1467937231, -0.0186930653, -0.1472538114, -0.2117076218, 0.1189495921, 0.2297305316, 0.1111786962, -0.2540110350, 0.0676610097, -0.0744601712, 0.2214964777, 0.0058336528, 0.2349829823, 0.2962865531, -0.1803559214, -0.0749747828, 0.0707427189, -0.0568833202, 0.1882887036, -0.1115844771, 0.2640475333, 0.2881468534, 0.2310500145, -0.0995862782, 0.0807514936, 0.2130619586, 0.2075105608, -0.0180084724, 0.1532979012, -0.1413638592, 0.1836677641, -0.2564595342, 0.2498044372, 0.0405148938, -0.0215405412, 0.1512441039, -0.2689133286, -0.2080461234, -0.1219635904, -0.0572929122, 0.0671945214, 0.0644256175, -0.1001695842, 0.2613574862, -0.1247226894, 0.0266917050, 0.1272753775, -0.2690193653, 0.0074770451, 0.2276491970, 0.1953700781};
#endif

#endif
