//Numpy array shape [16, 64]
//Min -0.275320410728
//Max 0.272336810827
//Number of zeros 0

#ifndef W4_H_
#define W4_H_

#ifndef __SYNTHESIS__
model_default_t w4[1024];
#else
model_default_t w4[1024] = {-0.0180869699, -0.2178454846, -0.0734359697, -0.0858357102, 0.2236996144, -0.1905351579, -0.2395654321, -0.1374964863, 0.0490595773, 0.0604544804, 0.0319069438, -0.2548106611, 0.0140759163, 0.0710746646, -0.1713462323, -0.1125584841, 0.1819575578, 0.0977181271, -0.0370730832, 0.1942130327, -0.1718463600, 0.0856118053, -0.1722068489, -0.0791566744, -0.1658568233, 0.1514115781, -0.0087561840, -0.0770011097, -0.1597209722, -0.0300388038, -0.1770343184, 0.1956519186, -0.1920142323, 0.0838971660, 0.2485216409, -0.0380872414, 0.2357376367, 0.0304543879, 0.2400788963, -0.2256430686, 0.0786196142, 0.2318612188, -0.0510883182, 0.0739715844, -0.0660576969, 0.1474030763, -0.1992185563, 0.1255642772, 0.0923238844, 0.2272716165, -0.0647924766, -0.1482585371, 0.0926791281, 0.1873209327, 0.0211292226, 0.0801390186, -0.1940900981, -0.0211292058, -0.0492871106, 0.1076680869, -0.0790092573, 0.2392534912, 0.1652036160, -0.0794986039, -0.1893337518, 0.1896137446, -0.2426863909, -0.1775776148, 0.1780409217, 0.1032024324, 0.1089511067, -0.2667545080, -0.1468832195, -0.0010984214, 0.1268425286, 0.1862500012, 0.2333507091, -0.0043369378, -0.0972640589, -0.1770554483, -0.0340367034, -0.0493499748, -0.1001160815, 0.0940087587, -0.1764890105, 0.0903013200, 0.0506239906, 0.0274818204, -0.1453070641, -0.1287656575, 0.1940837204, 0.0524906069, 0.2494579256, -0.1323170513, -0.1410744786, -0.1127638817, 0.2201808244, -0.1782429516, 0.0895615742, -0.0596251935, 0.1555662304, 0.0668228343, -0.0537739173, -0.1310833991, -0.0378569067, -0.1133754551, -0.1703313589, 0.1727358401, -0.0014911524, 0.2378472686, 0.1383029372, -0.2235810906, -0.0602690615, 0.0434307903, 0.0217041746, -0.2147292197, -0.0104415286, 0.1378026754, -0.0733767822, 0.2244060040, -0.1794213355, -0.0072802398, -0.0946947262, -0.1212944388, -0.1227997094, -0.2395066321, -0.1034201831, 0.2548861206, -0.2509975731, -0.2658487856, 0.0043733926, -0.1787644774, -0.1863258034, -0.0920994580, 0.1838200390, -0.1841394752, 0.1155621409, -0.2684710920, -0.1419091076, -0.0911296755, -0.1551367193, -0.2470011115, -0.2435268760, -0.2346575558, -0.2532656789, -0.2123872042, -0.2280617505, -0.0465017296, -0.1858898401, 0.1792689860, 0.0998206735, 0.1490721256, -0.1169218495, 0.1646779478, 0.1899237633, -0.0824264884, -0.1554066390, -0.2024487555, -0.1003139466, 0.2704565525, 0.1741005331, -0.1753338575, -0.1012340039, -0.1768803000, -0.1806024015, -0.0416340977, 0.0056711789, -0.1689068675, -0.2127565145, 0.0143342111, -0.2544981837, 0.2103510946, 0.2202817053, -0.2422470748, 0.1409028620, 0.1539505124, -0.1646732092, -0.0934225693, -0.0654025227, -0.2653121650, -0.0660895556, -0.2553342581, 0.0336940847, -0.0274578035, 0.0908881277, -0.2536255419, -0.1180994138, -0.1749723554, 0.0572514795, -0.2154733986, -0.1455424130, 0.1990483403, -0.2623906732, 0.1880072355, -0.2604126334, 0.1153851002, -0.1810771227, -0.1696598083, 0.0770384744, -0.0314465836, -0.2536621690, 0.0519848354, -0.0480346382, 0.0656358376, -0.0788607374, 0.0242711585, 0.1027319953, 0.2295536101, 0.2072582841, -0.1175571233, -0.0563939549, 0.1401707530, 0.0742665157, -0.0186316911, 0.0959961042, 0.0370421857, -0.1117809266, -0.2406698763, -0.1207272708, -0.0912918895, -0.1362937987, -0.0867088214, -0.2429725677, 0.1628078371, -0.1112238094, 0.0153881246, 0.1615904421, -0.0931724980, 0.1198264807, 0.1735249609, -0.0367692523, -0.2379097342, -0.0565181114, -0.1031708494, -0.1866962761, 0.0029452303, -0.1051296964, -0.1844624281, -0.1621750444, -0.2675530910, -0.0210344009, 0.2188052535, 0.1742603034, 0.1779433489, 0.1250917315, -0.1111223698, 0.1831559092, -0.0940910801, -0.0766822919, 0.0379005522, -0.1386036128, -0.0670586228, -0.1489835083, 0.0608969405, 0.2680890262, -0.0222098064, -0.1485822201, -0.0843507349, 0.1027599424, 0.1487224698, 0.1198742986, 0.2393783033, -0.0415700786, 0.1537134200, 0.1827805638, -0.0384234563, 0.2408130169, 0.0965431035, 0.0013801028, -0.0731117427, -0.1121512502, 0.2403957844, 0.1442521065, 0.1457802951, -0.0511308350, -0.0049743103, -0.2585592866, -0.0167096294, -0.0597424805, 0.1950977147, -0.0300698671, -0.2044353187, -0.2194232345, 0.0160288699, 0.0086407671, -0.1996399462, 0.2396969348, -0.2451062500, -0.2165254653, -0.0824107081, 0.0738133863, 0.0981259942, -0.2636858225, 0.2163504362, -0.0396216102, 0.1823984832, 0.1013228372, -0.1016532034, -0.2064592391, -0.1434949934, 0.1780842245, -0.1587923616, 0.1194179878, -0.0489019901, 0.0134082269, 0.0501946062, 0.2190851122, -0.0893573686, -0.1696729511, 0.0968856886, 0.2201759517, -0.2600283921, 0.1412176192, 0.1310434937, -0.1242119446, 0.1560813934, -0.2477750778, 0.2294708639, -0.2407929897, 0.0263768025, 0.0103883985, -0.0501193441, -0.0682402328, 0.1441450268, -0.1509314924, 0.1976757199, 0.0474171080, -0.2492112964, -0.2244400680, 0.1432553381, 0.2078940570, -0.2021453381, -0.1443980485, -0.2385618538, 0.1671331823, -0.2681341469, 0.2428351790, 0.1235340610, 0.1960409731, -0.2111807168, 0.0812527537, 0.1920163035, 0.0448165126, 0.1546512395, -0.2017360479, -0.1559522152, -0.1016251221, -0.2676504254, -0.0065741041, 0.0953049064, -0.1515361816, -0.0437757261, -0.1794875562, -0.2211731225, 0.0670975149, 0.2360184789, -0.0814914256, -0.0216613393, 0.0909048468, 0.1997526586, 0.0045601865, 0.1273693442, 0.0290908590, -0.0495601073, -0.0757627264, -0.2067588419, 0.0283349827, 0.0309429541, -0.1101633832, 0.1565767527, -0.0839973763, -0.1350071728, 0.0147835240, 0.2280073315, -0.0768666416, 0.2092050016, -0.0968601555, -0.2507503927, -0.0103736250, -0.1313160360, 0.2069885135, 0.1411309093, -0.2366682738, 0.0631710812, 0.1105548739, 0.0399117582, -0.2484514266, 0.0507805683, -0.1786349714, 0.0019568435, -0.0171666201, -0.2620303929, -0.1407638192, 0.0645978972, 0.1682910770, -0.2020638287, 0.1302324533, 0.0089949043, 0.0883021057, 0.0417249911, 0.1000087038, -0.1873388588, 0.2513716221, -0.0969748423, 0.0151750892, 0.0123906089, 0.1299432665, 0.0850959122, -0.1972002238, 0.0895678252, 0.0511390120, 0.2379864007, -0.0472125039, 0.1554795504, -0.1763011515, -0.2478850931, -0.1437440515, 0.1763106883, 0.1729809791, -0.2374365479, -0.2467194498, 0.0491297320, 0.2510754764, 0.0647668615, -0.1559482366, -0.2656525075, 0.0843420103, 0.0839351639, 0.1970688552, 0.0143693415, 0.1763321459, 0.1852620542, -0.2615502477, 0.1454981714, 0.1259203404, 0.0057264408, -0.2605913579, 0.0017109567, 0.0185892601, -0.2506720424, -0.0485892892, -0.1683907658, -0.1642306447, 0.2693802118, -0.0276712179, -0.2721528709, -0.0106198452, -0.2387927324, -0.1309858263, 0.1747224778, -0.0421191230, -0.2488185018, 0.1555169523, -0.0457995161, 0.0123559013, -0.0913211778, -0.0880870819, 0.0849911124, 0.0808021575, -0.2564631999, 0.0493281744, -0.0489625633, -0.1422975957, -0.2542403340, 0.1868527532, -0.2493683696, 0.2264876962, 0.1029448435, -0.0432460047, 0.0445958041, -0.2179818600, 0.0880883709, 0.0567767173, 0.1892772317, 0.1990505010, 0.0424033515, 0.0704542920, 0.0880793110, -0.1243102103, 0.0970234126, 0.1638004035, -0.2458718568, 0.2503326535, -0.0804167241, -0.0753533989, 0.1441927105, 0.0620593838, 0.1044767350, 0.0490432009, 0.0542294458, 0.2234119773, -0.2104601115, -0.2575603127, -0.1781997085, -0.1633351594, -0.0423451588, 0.0484703891, -0.0303272866, 0.1302260756, 0.0547078885, 0.2074795514, 0.0963364393, 0.0068408605, -0.1297186315, -0.1819367558, -0.1672772467, -0.2363896519, 0.0970351472, 0.0644402280, 0.0757597163, 0.0759528056, 0.0272550713, -0.0455063842, 0.0628430545, -0.0767664835, -0.1846369058, 0.1589646637, -0.0858813599, -0.0348246843, 0.2613155544, -0.0360516421, 0.0340960100, -0.1063218489, 0.0802969262, 0.0668030381, 0.2441830486, -0.0118474886, 0.0163144264, 0.2360161692, -0.1661684811, 0.0375475250, 0.0980969742, -0.2599628866, -0.1053916290, -0.0024655606, -0.1360623986, -0.1022274420, 0.1045220718, 0.2260686755, 0.0781304538, 0.2723368108, 0.2605319023, -0.0604660586, 0.1632872224, -0.2160186023, -0.2359117568, -0.2388255447, 0.1605346799, -0.0451183133, -0.1185454875, 0.1345172971, 0.0827251151, -0.0115854014, -0.1128374115, -0.0183066223, 0.1039529294, 0.2027811259, -0.0961900130, 0.2521718144, -0.1597557515, 0.2506615520, -0.0197268929, -0.1505552232, 0.1494345069, -0.2015868127, -0.2734599411, 0.0142998081, 0.0887399837, 0.2014263868, 0.2110596746, -0.1522898078, -0.2729518414, -0.1878549159, -0.0612595454, 0.0636833906, -0.2561700940, 0.2568814754, 0.0073380750, 0.0512673892, 0.0144263394, -0.2622327805, -0.1439283937, 0.1039547473, 0.0716298297, 0.2450770140, -0.0848757401, -0.1867026389, 0.0038340967, 0.1453272551, 0.0049910787, 0.1096049473, -0.0944623277, 0.1451077014, -0.2476384342, 0.1283084899, 0.2691535354, -0.1974440366, 0.1137313619, -0.1392081529, -0.0829830617, -0.0816553012, -0.0948821530, -0.2728807032, -0.0523169376, -0.1751499623, 0.2393072098, 0.0803017169, 0.0200501196, 0.0634017512, -0.1775511056, 0.1406299323, 0.2555152178, 0.0865743160, -0.0730133355, 0.1090076119, 0.0422388539, -0.1352603883, -0.0270237233, 0.1757330596, 0.1820023805, 0.2367649376, -0.1811805964, -0.0288168993, -0.0805278048, 0.2398902327, -0.0231546406, -0.0574971028, 0.0539230369, -0.1591641605, 0.0678890646, -0.1816815287, -0.2210713178, 0.2122101486, 0.1441837698, -0.0109441094, -0.2286846936, 0.0707486197, -0.0361004658, -0.0024215509, -0.0870734379, -0.2579465508, -0.0386587121, 0.1073232815, 0.1255128831, -0.1902902573, -0.0124766389, -0.1167141870, -0.1669729352, -0.1735622585, -0.1040338054, -0.1198368445, 0.0781758428, 0.1588101834, 0.0389501713, 0.2268720120, -0.2711076438, -0.0876643881, -0.2736897767, -0.0861131102, 0.0331296474, -0.1927195191, 0.1837608814, 0.0150224362, -0.1208572984, -0.0997311249, 0.2002538890, -0.1161662042, -0.0903517902, -0.1259979308, -0.1966170520, -0.2431696653, -0.0524575561, -0.1741518825, -0.2284706682, -0.0038315332, -0.1027969196, 0.0959282443, 0.0981798917, 0.1141848117, 0.1994376928, -0.1949518174, 0.0550331995, 0.0031418544, -0.2698539495, -0.1085346416, -0.2226630151, -0.0518162474, -0.1657300144, 0.1459848136, -0.1964788735, 0.0387716256, 0.1448498815, 0.1330561936, -0.2110662162, 0.0988595039, 0.2557049692, -0.2243476212, -0.1000832692, -0.1784936041, -0.1488672495, 0.2509683073, -0.1589849293, 0.1088869795, -0.0301895794, -0.1496247649, -0.0225045308, -0.1128340885, 0.0588744432, -0.2231108099, -0.1459972411, -0.0869802982, 0.0849999562, -0.2612059712, -0.0001524400, 0.0214728713, -0.0355334878, -0.0931416973, -0.0650501624, -0.0815156400, -0.1033393666, -0.2584823370, -0.2284093648, 0.1283071339, 0.1051923037, 0.0705836490, -0.0888634175, 0.1150922999, -0.0720577911, 0.1922608614, -0.0406207033, 0.0938847661, -0.2556983232, 0.2395019531, -0.0219319481, -0.0200075600, 0.1167060658, 0.0135099515, 0.0577754341, -0.2578269839, -0.2107906193, 0.1632071286, -0.1974594742, 0.1898590177, -0.0186806656, -0.0748432353, -0.1052149683, -0.1377861202, 0.1147208214, -0.1079138145, -0.1535446346, 0.0235049501, 0.1538227051, -0.1768298596, -0.0716447011, 0.2584523559, -0.2447910011, -0.1607275307, 0.1228825226, 0.1563658267, 0.1162923574, -0.0469971262, -0.1484483778, -0.1369159371, 0.1664983481, 0.2178633362, -0.0494710393, 0.1366792470, -0.0827038735, 0.0509003140, -0.1885851622, -0.0107217925, -0.0741874576, -0.0816016644, 0.2144312412, 0.2504349053, 0.0042698071, 0.0071179722, -0.2409565747, -0.0411023013, 0.2129973471, -0.1804578006, -0.0861069635, -0.1694534868, -0.0298353638, 0.0285886172, 0.0927355140, 0.1907452941, -0.1274875253, 0.1939628124, 0.2292034924, -0.2717368305, 0.0146785686, -0.2523276508, 0.2421876788, -0.2006999403, 0.0520624779, 0.0627499148, 0.2535887361, 0.2680287659, 0.0304107778, -0.0857192650, -0.2557339966, 0.0116477581, 0.1100365594, 0.2442004681, -0.1973351836, 0.2376370132, -0.0457041934, 0.0753973052, 0.1563465744, -0.0525358208, 0.0266447850, -0.0218177810, -0.0400869511, -0.2026190609, 0.2061717957, 0.1593499333, 0.2106186152, 0.0588844419, -0.1207930595, 0.0462271608, -0.2521451414, 0.0620992482, 0.2576605380, 0.1442774087, -0.0927938968, -0.0262482874, -0.2327436209, -0.1879891157, 0.2591591179, -0.2495616078, -0.0169443898, 0.0760855004, 0.1976055950, -0.2059129924, -0.2007928044, 0.1180857867, -0.2753204107, -0.0805081949, 0.1191692725, -0.2671933174, 0.1855771244, -0.1954485029, 0.1630825102, 0.2338874638, -0.2392363995, 0.1681463867, -0.2164837867, 0.2458018959, 0.0052780998, 0.0798736066, -0.2003659308, 0.1006724983, -0.1769825071, 0.1762557775, -0.1916869581, 0.0267138630, 0.1160320267, 0.2705851197, 0.0477012657, 0.0813937336, 0.2256376296, -0.1933794916, -0.2282927185, 0.2187931538, -0.2706617713, -0.1960434765, 0.2351948917, 0.1382061988, -0.2082457691, -0.2289751470, -0.1079446599, 0.1122652143, 0.2247023135, -0.1645812839, 0.0432212055, 0.0792876631, 0.0736745894, 0.0923150107, -0.0982436687, -0.2609402835, -0.1013374254, -0.1736074090, -0.2170514315, -0.0754939243, -0.0132944044, -0.1541946977, 0.1502059847, 0.1508085132, 0.0358762853, -0.2192235291, -0.0813774243, 0.0288021378, -0.0550156347, 0.1391586810, -0.2196242064, 0.0920671225, -0.2263220400, -0.2505413890, 0.2204707116, -0.0271741580, 0.2072867006, -0.2727012634, -0.1323774457, -0.1268198788, -0.0793112665, -0.1658285111, -0.1807461381, 0.0496431030, 0.2538437247, 0.1142955795, 0.1959277242, -0.0360057689, -0.1691036671, -0.0241827834, 0.0005070060, 0.1368211359, 0.0984149948, 0.0344212502, 0.0445095971, 0.1518653035, -0.1327127069, 0.0447826385, -0.0607859083, -0.0400620662, -0.1396259069, -0.1983103901, -0.0123215262, 0.1929221153, -0.0367678031, -0.2059019953, -0.2168600559, -0.2680844665, 0.0053806966, -0.1233259365, 0.0053923484, 0.1615944803, 0.0002506709, 0.1535516381, -0.0513554662, 0.0634451210, -0.1762982011, 0.0897191912, 0.1661581695, 0.2491077483, 0.2315450162, 0.1120333150, -0.0363218598, 0.2395363152, 0.1370789260, 0.1561806798, 0.0218689647, -0.2279192805, 0.1502443403, 0.0596582703, -0.0163700525, -0.0698588118, -0.1732881963, -0.2013479173, -0.0022100881, -0.2618952990, 0.0863244161, -0.0721011981, 0.1056345701, 0.1607314348, -0.2102167159, 0.2457932681, -0.1725676954, 0.0466735736, 0.1904605776, -0.1939274520, -0.0103782220, -0.0969588906, -0.0304134022, -0.2402645350, -0.2089841366, -0.2480468899, -0.0013989381, 0.0016793374, -0.0196700338, -0.0557516403, 0.1929632723, 0.2649664581, -0.0327109955, 0.0776834562, 0.0643457249, 0.1743375808, -0.2483572066, -0.0816218480, 0.2496350110, -0.2334298193, -0.1166626140, -0.1906190068, 0.2426726073, -0.2558978200, -0.0736805424, -0.0708628595, -0.0320339724, 0.2341291457, -0.2215992212, -0.2058577985, -0.2343154848, -0.2241930515, -0.1744690537, -0.1141340509, -0.0983190238, -0.2037371695, -0.0011037977, 0.1683876216, 0.1162285283, -0.0321853496, -0.1832046211, -0.1442023814, 0.0956011862, 0.2574811280, 0.0640486926, 0.1215980500, 0.2555506527, 0.2715972364, -0.2004805803, 0.0510764606, 0.1306264400, -0.1606890708, 0.2053406686};
#endif

#endif
