//Numpy array shape [32, 784]
//Min -0.085743650794
//Max 0.085740052164
//Number of zeros 0

#ifndef W4_H_
#define W4_H_

#ifndef __SYNTHESIS__
model_default_t w4[25088];
#else
model_default_t w4[25088] = {-0.0856400579, -0.0400037244, 0.0424909964, -0.0472586863, -0.0186304301, 0.0440244302, -0.0750109628, 0.0359491035, 0.0792675540, -0.0173076093, 0.0015934035, -0.0618986115, 0.0036632344, 0.0284535587, 0.0753595009, 0.0831205174, 0.0529200360, -0.0110518634, -0.0791212767, -0.0687120110, -0.0782389790, -0.0292992927, -0.0815578997, -0.0158529803, 0.0696770474, 0.0627629086, 0.0309615135, 0.0621214136, 0.0145236775, -0.0461683124, -0.0610366389, 0.0080399960, -0.0801936984, 0.0239936262, 0.0218814537, -0.0736837611, -0.0761607066, 0.0104649514, 0.0079694837, -0.0419356413, 0.0208672136, 0.0576588437, -0.0060868189, -0.0556784123, -0.0689739659, -0.0774597079, 0.0053193420, -0.0078242943, -0.0251672082, -0.0634745136, -0.0505424552, 0.0322417915, -0.0854152143, -0.0189121515, 0.0459219143, 0.0640701875, -0.0822834671, -0.0223237202, 0.0243129879, 0.0673936233, 0.0720735118, 0.0046132803, -0.0638569444, 0.0489936695, -0.0640178174, 0.0854703262, -0.0406659134, 0.0682340339, 0.0101998672, 0.0823050961, -0.0382056125, 0.0224142075, -0.0584930107, -0.0672058314, 0.0208747163, -0.0069032758, 0.0685596243, 0.0091103986, 0.0233046785, 0.0774184689, 0.0359298661, -0.0026636571, -0.0255239606, 0.0103349239, -0.0582847446, -0.0558368564, 0.0314600021, -0.0845846459, 0.0433953330, -0.0396636352, 0.0368611589, 0.0470847413, -0.0510280691, 0.0211672932, -0.0071627572, 0.0722275153, 0.0573222712, -0.0150893480, -0.0684107691, -0.0427822359, -0.0176653638, 0.0856928900, 0.0053292960, -0.0021491349, -0.0436007418, -0.0382232964, -0.0018839166, -0.0802845061, -0.0261851884, -0.0216295421, 0.0639807954, 0.0229086131, 0.0452663526, 0.0580165163, -0.0565539151, 0.0830012783, 0.0825041756, -0.0380201861, -0.0259258933, -0.0805673972, 0.0580996498, -0.0210075676, 0.0287535712, 0.0019146204, 0.0738205984, 0.0856608674, -0.0163107291, 0.0218860134, 0.0674007460, -0.0246000253, -0.0315369107, 0.0606060252, 0.0300929174, 0.0402017906, 0.0536071882, -0.0229060799, -0.0078912079, -0.0563981533, 0.0658670589, 0.0834220275, -0.0653606132, -0.0639911145, 0.0200366899, 0.0298571736, 0.0184557363, 0.0437278673, -0.0105941370, 0.0033463910, 0.0741874352, 0.0502351597, -0.0054624304, 0.0789541230, -0.0663189963, -0.0588132888, -0.0121874958, -0.0040270835, -0.0547044910, -0.0696071237, -0.0741432086, 0.0741519108, -0.0359199308, -0.0601909235, 0.0849344060, 0.0216230601, 0.0486391857, 0.0428492501, 0.0662399158, -0.0138208643, 0.0127583221, 0.0706218109, 0.0728705749, -0.0559142977, 0.0272030234, 0.0506273136, -0.0209056064, -0.0697290972, 0.0392340794, -0.0603210926, 0.0476965979, 0.0586702153, 0.0044663250, 0.0280354470, -0.0611943267, -0.0274444483, -0.0163789913, 0.0433026031, 0.0556175485, 0.0321654677, -0.0460379608, 0.0710679069, -0.0527432784, 0.0515036359, -0.0034952462, -0.0153027847, 0.0285917148, 0.0419018045, -0.0132761523, -0.0013297945, 0.0844488516, -0.0031309277, -0.0214291066, 0.0088561699, -0.0452592596, -0.0494864509, 0.0376654193, -0.0709032267, 0.0478980020, 0.0466111824, 0.0493877605, -0.0843086913, -0.0608305000, -0.0550286546, 0.0243497863, 0.0116384476, 0.0488224253, 0.0117392987, 0.0299673080, 0.0855435655, -0.0365893543, 0.0115193799, -0.0252728239, 0.0273181424, 0.0170622617, -0.0774003416, -0.0667628646, -0.0743077621, 0.0485975966, -0.0284103155, 0.0422357246, -0.0751976594, 0.0310514420, -0.0558128543, 0.0336477980, 0.0458567366, -0.0697201192, -0.0398726575, -0.0717753991, -0.0754757822, 0.0141190290, 0.0091792122, -0.0474796444, -0.0779997408, 0.0199091360, 0.0469974503, 0.0460405126, 0.0644812509, -0.0093911365, 0.0651265904, 0.0620444790, 0.0192167908, -0.0030023158, 0.0133213326, 0.0635237768, -0.0559077151, -0.0522164069, -0.0019075498, 0.0144309029, -0.0472614020, 0.0146371648, 0.0251373425, -0.0657105148, -0.0656262040, -0.0028396174, -0.0254527926, -0.0274875648, -0.0636678934, -0.0707225800, 0.0327985659, 0.0536807105, -0.0606733486, 0.0420546010, -0.0391411819, 0.0562394038, 0.0685117915, 0.0710753873, -0.0751952231, -0.0154935941, -0.0639016554, 0.0049213916, 0.0804329291, 0.0500699058, -0.0419053249, 0.0279408544, -0.0012233630, 0.0671415552, -0.0542595647, -0.0020422563, 0.0472153500, 0.0235338956, 0.0542823449, 0.0126746818, -0.0778599232, -0.0451664850, 0.0395189896, -0.0525645725, 0.0003214478, 0.0133928284, -0.0341090225, -0.0527090952, -0.0695662796, -0.0103637278, 0.0122592151, -0.0143536031, -0.0312036090, -0.0088365674, 0.0785252079, 0.0120092258, 0.0804166421, -0.0351644531, 0.0744777098, 0.0773281381, -0.0657629520, 0.0194431543, 0.0730856135, -0.0379120968, -0.0443454236, 0.0630737469, -0.0494961403, 0.0457502231, 0.0751614943, -0.0831621587, -0.0561647601, 0.0513572171, -0.0616501495, -0.0781498700, 0.0820933506, 0.0278309062, -0.0770525038, 0.0724992082, 0.0148413032, -0.0790528432, -0.0259257481, 0.0836537406, -0.0028951466, 0.0204592720, 0.0564140603, -0.0623750202, 0.0081810206, 0.0811449215, 0.0295584649, 0.0812795535, -0.0623673722, 0.0539884493, 0.0396936908, 0.0096098706, 0.0840232894, 0.0508944467, 0.0306325853, -0.0595281646, -0.0258550756, 0.0475655869, 0.0143404976, -0.0035517365, -0.0425731353, -0.0699568391, 0.0603165105, -0.0148949698, -0.0087222829, 0.0550660416, 0.0326910913, -0.0793173537, -0.0370866619, 0.0535629466, -0.0547827929, -0.0847594440, -0.0068072528, -0.0755149946, 0.0617777184, 0.0178422257, -0.0740757808, 0.0307579041, -0.0546657890, -0.0605738647, -0.0166321769, -0.0014556274, 0.0288127810, -0.0613434240, -0.0017659739, 0.0506890342, -0.0563132465, -0.0554713309, -0.0770223290, 0.0433234796, 0.0353021249, 0.0435859784, -0.0471302941, 0.0458345190, -0.0458229072, 0.0839284286, -0.0558803231, -0.0706302151, 0.0146002248, -0.0122306123, -0.0556512251, -0.0732929707, -0.0810511485, -0.0337702818, -0.0535381064, -0.0683005303, 0.0310531631, -0.0354785994, -0.0235133097, 0.0448439792, -0.0193905085, -0.0001289248, -0.0359532945, 0.0746334121, -0.0724442080, 0.0088490769, 0.0487175807, 0.0707307234, -0.0660530403, 0.0113913342, 0.0560754612, -0.0315799676, -0.0336873792, -0.0228606910, 0.0840310082, 0.0335346609, 0.0405771658, 0.0039845407, 0.0074304342, -0.0025592893, -0.0814497247, -0.0131221637, 0.0784009472, 0.0405291840, -0.0472967103, 0.0336046591, -0.0352006406, -0.0207910985, -0.0048737973, 0.0674377456, 0.0058439001, -0.0511032827, 0.0102992877, -0.0612634867, -0.0050591305, -0.0596594959, -0.0408124588, -0.0297283977, 0.0294718444, 0.0216462240, 0.0481500253, -0.0829921439, 0.0244803652, -0.0653845370, 0.0002539977, -0.0393074155, -0.0167503431, -0.0581356660, -0.0166836530, -0.0779463872, -0.0527603477, -0.0471819974, -0.0205256119, 0.0134665519, -0.0703712255, -0.0818857625, -0.0675025135, -0.0482023694, -0.0584891066, 0.0150002167, -0.0485804863, -0.0749126226, -0.0309787653, -0.0775112063, -0.0159150138, -0.0855724663, -0.0670214593, -0.0296917818, 0.0628197417, 0.0738733187, -0.0156427771, -0.0130715221, -0.0019911453, -0.0513083786, 0.0557956472, -0.0595459081, -0.0666236803, 0.0239163041, -0.0240983628, -0.0413863249, -0.0546942055, 0.0740713403, 0.0695574656, 0.0592203513, 0.0469297543, -0.0645845532, -0.0579775088, -0.0172894523, 0.0568012074, -0.0103903711, -0.0598104745, -0.0827402472, -0.0459368229, -0.0386223271, -0.0251806416, 0.0252480656, 0.0531551614, 0.0582803562, -0.0332332924, 0.0373292938, -0.0618530214, -0.0500434525, -0.0757330507, 0.0851018801, -0.0550698303, -0.0565042794, -0.0852137581, 0.0199348181, 0.0382456407, -0.0771267787, -0.0409278832, 0.0565443262, -0.0476291738, -0.0148044601, 0.0146024525, -0.0387983955, -0.0804759115, -0.0004277751, 0.0515434667, 0.0669293776, 0.0487808213, -0.0468420908, -0.0327563100, -0.0646453723, -0.0826502293, 0.0293473601, -0.0039674044, 0.0657573268, 0.0695184097, -0.0537279919, -0.0763343349, -0.0635995269, 0.0182152316, -0.0502619632, 0.0312523916, -0.0157827809, 0.0587584153, 0.0853347406, -0.0580689386, -0.0438040793, -0.0848724395, 0.0116545185, -0.0811291188, -0.0042941272, 0.0332118049, 0.0248350129, 0.0056958646, 0.0520602092, -0.0362159200, -0.0538327098, 0.0759583935, -0.0733332708, -0.0615372807, 0.0337695256, 0.0690400675, -0.0582653433, 0.0436138287, 0.0476235524, 0.0133503005, 0.0487364605, 0.0437905863, -0.0357539840, -0.0558471009, -0.0532366149, 0.0233969241, -0.0164680704, 0.0664471164, 0.0087678358, 0.0085594878, 0.0061952770, 0.0724687204, -0.0387431346, 0.0184694380, -0.0758885890, -0.0152463019, -0.0522419624, 0.0505055413, -0.0017781556, -0.0619576313, -0.0395640098, 0.0586697087, 0.0511141345, 0.0400069132, -0.0513514541, -0.0239417590, -0.0316319987, -0.0595321879, -0.0163782537, -0.0654947087, -0.0134013146, -0.0409611687, 0.0200442299, 0.0559722111, 0.0843089148, 0.0557959601, -0.0738247260, 0.0428712890, 0.0241398439, -0.0674486607, -0.0711953565, -0.0299406089, -0.0326638594, 0.0123506859, 0.0713427141, 0.0202107280, 0.0003845543, -0.0324366204, 0.0214713439, -0.0134644061, -0.0255514793, 0.0521702394, 0.0483065769, -0.0487332642, -0.0218760595, -0.0159365609, 0.0625522360, 0.0038271174, -0.0240203068, 0.0789130554, -0.0026155114, 0.0283917338, -0.0570925400, 0.0220282227, 0.0569088086, -0.0038717911, -0.0650121197, -0.0489761010, -0.0287170187, 0.0721789226, -0.0335822962, -0.0640036315, -0.0840682015, 0.0304530412, -0.0607131124, 0.0598076805, 0.0239200518, 0.0489468649, -0.0607801266, -0.0634496510, 0.0329642445, -0.0490743779, -0.0478101261, -0.0291731097, 0.0302235559, -0.0381857641, -0.0294016153, 0.0083383620, -0.0528473184, 0.0574944541, -0.0279161371, -0.0504528508, -0.0192666352, -0.0046495721, 0.0363030359, 0.0534888133, -0.0542844050, 0.0417807773, -0.0494669676, 0.0240874067, -0.0612423494, 0.0118333027, 0.0385104194, -0.0177890509, 0.0288978666, 0.0649085566, -0.0790282115, -0.0692134053, 0.0012227520, -0.0694671422, 0.0126998872, -0.0205132440, 0.0598966554, 0.0436659381, -0.0292104408, 0.0059870705, 0.0260226578, -0.0036895871, 0.0674982443, 0.0440689996, -0.0784659535, 0.0779669955, 0.0059851930, 0.0675964579, -0.0304757766, 0.0403006300, -0.0078287870, 0.0376078039, 0.0649347827, -0.0171701461, 0.0029217899, 0.0363426358, -0.0716096386, -0.0502090305, -0.0556791909, 0.0571801588, -0.0543302409, 0.0607639179, 0.0576503798, -0.0306475870, 0.0371065512, -0.0607059523, -0.0715291277, -0.0154236928, 0.0388358682, 0.0151849464, -0.0178987980, -0.0164294094, 0.0141073316, -0.0781991556, 0.0832268223, 0.0657209083, 0.0699006692, 0.0669592246, 0.0827214941, 0.0478900596, -0.0554461479, -0.0357643068, 0.0206439048, -0.0819731578, 0.0662629679, 0.0017596558, 0.0026160404, 0.0549195781, 0.0604585633, 0.0323101506, -0.0027018264, -0.0657209456, -0.0096525326, -0.0208705440, -0.0563807935, 0.0825454518, 0.0829624757, -0.0605168268, -0.0252545439, 0.0394353792, 0.0840421990, -0.0548367873, -0.0079361200, -0.0012409240, -0.0440869257, 0.0033326745, 0.0136177316, 0.0788601562, -0.0519387163, 0.0139868930, 0.0593492165, 0.0708463117, 0.0105504245, 0.0215604603, 0.0507366732, 0.0070410967, 0.0273092091, -0.0192793533, 0.0648870841, 0.0071324781, -0.0103705972, 0.0347134769, -0.0553137064, -0.0767537728, -0.0244897678, -0.0318784751, 0.0843873397, 0.0482630506, 0.0214836076, -0.0543455333, -0.0247428045, -0.0603055954, -0.0022381693, -0.0092770606, 0.0122335777, 0.0540038273, 0.0171180293, -0.0811655521, 0.0082143843, 0.0451981798, 0.0031202808, 0.0850617066, 0.0547436550, -0.0122028291, -0.0770560205, -0.0063989013, 0.0751683041, 0.0036360472, 0.0801145360, -0.0788720772, -0.0471049249, 0.0215628892, 0.0326271206, 0.0570897982, -0.0165980309, 0.0808196291, -0.0084000602, 0.0003346950, -0.0173849687, 0.0441278145, -0.0516871475, -0.0740521699, -0.0526978076, 0.0417667106, 0.0149103180, -0.0727545917, -0.0266896486, -0.0105275512, 0.0354727954, -0.0395072773, -0.0505426414, 0.0662612244, 0.0562932715, -0.0649931058, -0.0284111537, 0.0251727477, 0.0826692060, -0.0102336854, -0.0765540898, -0.0326208845, -0.0443238951, 0.0271377414, 0.0008414239, -0.0475927442, 0.0429489538, -0.0788489580, -0.0623303913, -0.0694610924, 0.0079307854, -0.0378987864, 0.0204589218, 0.0120621324, -0.0158808306, 0.0733195469, -0.0279028080, 0.0425052121, 0.0452130213, 0.0449001566, -0.0516997613, -0.0540842153, 0.0471428111, 0.0829023346, -0.0662920773, -0.0676271468, -0.0614985377, -0.0588289090, 0.0120725408, -0.0416809879, -0.0609976724, 0.0656184629, 0.0339611098, 0.0337943658, -0.0107428506, 0.0270493850, -0.0791513696, -0.0622443184, -0.0058529973, 0.0670130178, 0.0086619556, 0.0164766312, 0.0500429049, 0.0645386949, 0.0166846961, -0.0379577689, 0.0106419101, 0.0549432859, -0.0250913389, -0.0167165026, -0.0567355640, 0.0216141269, -0.0284049585, 0.0347625017, -0.0717529058, 0.0734196380, -0.0028298870, -0.0632000268, 0.0117161945, -0.0584653467, 0.0751127377, 0.0671354011, 0.0733787790, 0.0852775052, 0.0793183967, 0.0272447094, 0.0466544703, -0.0703393519, -0.0420284607, 0.0465163961, 0.0731718764, 0.0721738413, 0.0110556409, 0.0051527619, 0.0724582151, 0.0203096569, -0.0071353838, 0.0111387670, -0.0292464644, -0.0530442558, -0.0570075139, -0.0071328655, -0.0721209869, 0.0685958043, 0.0645472780, 0.0562431291, -0.0239642709, -0.0650443435, -0.0563795045, -0.0569150448, -0.0636812821, -0.0542387106, 0.0372695327, -0.0693398565, 0.0545031503, -0.0118457898, -0.0700696334, 0.0232187510, -0.0736341029, -0.0154689550, 0.0687669143, -0.0466025062, -0.0104538500, 0.0080988333, 0.0451463833, -0.0792902857, 0.0752832964, 0.0585886464, -0.0680177659, 0.0388376266, -0.0841115639, 0.0663516000, -0.0134849921, -0.0075579435, 0.0634163544, 0.0658659115, -0.0602143332, -0.0132328942, 0.0032854676, 0.0391317606, -0.0654851645, -0.0063355863, -0.0581604242, -0.0793582797, 0.0164526328, -0.0067931488, 0.0068384707, -0.0642910749, -0.0392446518, 0.0737734661, -0.0841997638, 0.0552063957, -0.0851325914, -0.0081717595, 0.0757449344, -0.0024796575, -0.0060325563, 0.0545097962, 0.0544489399, -0.0779285356, 0.0620471612, -0.0556763485, -0.0247312561, -0.0684267581, 0.0272571221, 0.0147352740, -0.0441817455, 0.0018906593, 0.0797022805, -0.0507095270, -0.0299596004, 0.0543731675, 0.0144817457, 0.0658995882, 0.0522700921, 0.0290862843, -0.0512459017, 0.0353216082, 0.0235596821, -0.0335569046, -0.0644657686, -0.0441583395, -0.0227356553, 0.0652381554, -0.0135263652, -0.0156703517, -0.0353864767, 0.0626954660, 0.0207910016, -0.0073193610, 0.0412703082, -0.0184786990, -0.0184652880, 0.0701550320, 0.0809437707, -0.0565666333, -0.0719461441, -0.0120217353, -0.0193207338, 0.0166152492, -0.0733119622, -0.0241740905, 0.0405101255, -0.0160506144, 0.0835694000, 0.0592514500, -0.0681992546, -0.0039693713, 0.0133764073, 0.0514798984, -0.0357522033, 0.0500731543, 0.0542906150, -0.0301181041, -0.0649360716, 0.0115560740, -0.0771582425, -0.0037387162, -0.0262400582, -0.0668670833, -0.0697925761, -0.0597067848, 0.0757672414, 0.0407120958, 0.0668796673, 0.0143366978, 0.0088770837, 0.0213641152, 0.0167044476, -0.0499456897, 0.0129895881, 0.0782019570, 0.0610832050, -0.0149399638, -0.0238887072, -0.0474429876, 0.0384433568, -0.0362740643, 0.0550979152, 0.0052277073, 0.0079250783, 0.0355904698, -0.0401164331, -0.0457410291, 0.0222416595, -0.0671949089, -0.0471041277, -0.0799831375, -0.0095094666, -0.0201605186, -0.0668244362, 0.0805648342, 0.0565750971, 0.0386657342, -0.0610318966, -0.0831080228, 0.0778580233, 0.0266926959, -0.0219557509, -0.0549002439, 0.0753605589, -0.0629110485, 0.0319208354, -0.0605170727, 0.0662116930, 0.0581891313, 0.0534624234, 0.0601349548, 0.0294776037, -0.0441805013, -0.0283199102, -0.0646133348, -0.0156693086, 0.0073289052, -0.0194492638, -0.0348053500, 0.0471343622, -0.0297842696, 0.0616650209, 0.0849343911, -0.0332463756, 0.0095216334, 0.0646542832, -0.0432510637, 0.0584380403, 0.0115590394, -0.0027631819, -0.0619701818, 0.0611056164, -0.0748574659, 0.0655653998, 0.0189609379, -0.0429363251, 0.0507927611, 0.0353910178, -0.0481931902, 0.0769202337, 0.0366241336, -0.0676976964, -0.0329832174, 0.0068734065, 0.0588169768, -0.0389937609, -0.0132911205, 0.0643590316, -0.0539747365, 0.0095936134, 0.0523336157, -0.0702261180, 0.0759275630, -0.0681280494, -0.0853965059, -0.0302932709, -0.0669990182, -0.0108087584, 0.0185783431, -0.0242573582, 0.0082425401, 0.0246693119, 0.0438596532, 0.0541371629, 0.0549231395, 0.0222507343, -0.0519029163, -0.0311573669, -0.0429139994, 0.0566243306, 0.0820722803, 0.0173553303, 0.0502193794, 0.0662828311, -0.0089762434, 0.0840678290, 0.0548816249, 0.0808276162, -0.0059186444, 0.0560032651, 0.0722092018, 0.0414542183, 0.0374762490, -0.0057356507, -0.0178485662, -0.0695578158, 0.0750479922, 0.0309596881, -0.0617106855, -0.0507737026, 0.0459007546, 0.0615582988, 0.0298253000, -0.0428590886, 0.0462935194, -0.0419599712, 0.0181167945, -0.0793679506, 0.0479023531, -0.0376310088, -0.0065995008, -0.0844887793, 0.0576899424, -0.0836091861, -0.0773439333, -0.0762464255, -0.0748252273, -0.0490232036, 0.0473000184, 0.0081072822, 0.0408050939, 0.0363792479, -0.0057156906, 0.0505851284, 0.0409525409, 0.0701044872, -0.0248595439, -0.0314853527, -0.0239131190, 0.0081479847, -0.0242189839, 0.0120250881, 0.0093609840, 0.0571340993, -0.0090859830, 0.0053309351, 0.0335180163, 0.0643235967, 0.0404732302, 0.0127413496, -0.0574627854, 0.0044188723, 0.0272985399, 0.0763666555, 0.0751113817, 0.0491729602, -0.0377396494, 0.0504716560, -0.0519561134, -0.0016560853, -0.0607974008, -0.0415957160, 0.0739660785, 0.0851307139, 0.0686729327, -0.0338461883, -0.0190600306, 0.0770396367, -0.0728319585, 0.0598892644, -0.0633405223, -0.0472217612, 0.0286554247, -0.0107777268, 0.0290619731, 0.0097541884, 0.0434560105, -0.0559357852, 0.0796142891, -0.0476022102, 0.0536124036, -0.0496010818, 0.0266095698, -0.0034695268, 0.0438198820, -0.0790276155, -0.0348221138, -0.0111774877, 0.0319961309, -0.0095008165, 0.0557149425, -0.0641274154, 0.0418854132, -0.0461437590, 0.0631161258, -0.0385175124, 0.0142173395, 0.0832300857, -0.0254175253, -0.0088102743, -0.0012325794, -0.0229652822, -0.0417196900, 0.0096963495, 0.0377409756, 0.0836393461, -0.0706158429, 0.0834904239, 0.0834599510, -0.0442024358, 0.0101004913, 0.0239539444, 0.0304081291, 0.0095910579, 0.0206531882, 0.0277837589, -0.0095261261, -0.0263032317, -0.0723219141, 0.0560502335, -0.0370383300, 0.0776407644, -0.0669498071, 0.0256463811, -0.0158688650, -0.0646705627, -0.0399493016, -0.0405707434, -0.0542961173, -0.0389462672, -0.0444880426, -0.0397835411, -0.0059809759, -0.0115918741, -0.0054270998, 0.0200309008, -0.0050799176, 0.0040484294, 0.0445284173, 0.0821812376, 0.0749920979, 0.0414237604, -0.0750941485, 0.0001070276, 0.0831562206, 0.0270721018, 0.0389081612, 0.0271063000, -0.0619557910, -0.0130934417, -0.0771164894, 0.0071086586, 0.0156936422, 0.0077019557, 0.0482224002, 0.0089067072, 0.0208146498, 0.0581157878, -0.0619756207, -0.0200461522, -0.0208922401, 0.0629719570, -0.0627038851, 0.0253750458, -0.0793706700, 0.0575178191, 0.0271801054, -0.0198694989, -0.0386039093, 0.0222570375, 0.0287215561, -0.0676422939, -0.0190228373, -0.0408184454, -0.0452413931, -0.0821623132, 0.0600482449, -0.0485483669, -0.0218692496, -0.0380342714, 0.0632518604, -0.0627860129, 0.0704921558, 0.0455938354, -0.0675009191, -0.0747878551, 0.0757756308, -0.0456282571, -0.0204717591, -0.0630226955, -0.0575964898, -0.0276659839, 0.0627755448, -0.0650683418, -0.0167889223, -0.0622382499, -0.0046201050, -0.0302090794, 0.0283884630, 0.0817496851, -0.0138420463, -0.0837395042, -0.0533924215, 0.0431600735, -0.0390837975, -0.0630693287, 0.0299401134, 0.0733055249, 0.0370543823, -0.0268886723, 0.0834504142, -0.0109970719, 0.0191776827, -0.0811666176, -0.0710303113, -0.0048955530, -0.0013996288, -0.0014290512, 0.0042716190, -0.0084174201, -0.0769284219, 0.0752630606, -0.0039193407, 0.0630402192, -0.0314147174, -0.0297305845, -0.0478692912, -0.0556894317, 0.0517747179, 0.0087925717, -0.0530126691, -0.0786713362, 0.0016576573, 0.0053621903, -0.0458512641, 0.0671895966, 0.0781091675, 0.0103219822, -0.0529511757, 0.0707155839, 0.0800272748, -0.0809595361, -0.0221418738, 0.0070088506, 0.0468123481, -0.0424980819, 0.0464474186, -0.0683396831, 0.0566380695, 0.0002925992, 0.0667346343, 0.0658234730, -0.0806587189, -0.0088555589, 0.0056043118, 0.0836590603, 0.0549303964, -0.0341182835, 0.0251834169, -0.0704167560, 0.0277922899, -0.0520350263, -0.0529327132, -0.0118777901, -0.0683068484, -0.0259823799, 0.0528866723, 0.0737339184, 0.0176782608, 0.0181009918, 0.0161788464, -0.0030836016, 0.0364685282, -0.0636076033, 0.0064935163, -0.0291204676, 0.0042049065, 0.0052142143, 0.0502653345, -0.0808310658, -0.0784419104, -0.0090524182, 0.0212107375, 0.0428126976, 0.0130967125, 0.0082539842, -0.0831619948, 0.0399295166, -0.0636584684, -0.0770772174, 0.0364018828, 0.0678820685, -0.0523795523, -0.0658652782, -0.0419161804, -0.0216047838, 0.0342737436, -0.0439586602, 0.0406234041, 0.0410332903, 0.0247127116, 0.0724095032, 0.0543637201, -0.0321968533, 0.0134723783, 0.0459046438, 0.0848570988, 0.0746318474, -0.0567484647, -0.0359730422, -0.0718707293, 0.0360212699, 0.0757090077, -0.0734917969, -0.0387801379, 0.0003238171, -0.0300950631, -0.0640607923, 0.0301705003, 0.0651243851, 0.0173991993, -0.0640144870, 0.0364127383, -0.0789056048, 0.0179412961, -0.0158404335, 0.0606287345, -0.0032756552, 0.0458790883, 0.0450866148, 0.0035853237, -0.0108983070, 0.0778818205, -0.0608912408, -0.0707743689, 0.0592838749, -0.0451887064, -0.0428896099, -0.0669298097, 0.0527051017, 0.0312726498, -0.0104442164, -0.0457736552, 0.0298001543, -0.0162008628, -0.0157546252, -0.0105547979, -0.0373518430, -0.0857362449, 0.0843788162, -0.0453801677, 0.0490703359, -0.0043491423, -0.0054144040, 0.0173975453, 0.0549406186, -0.0847969353, -0.0024512038, 0.0735635385, 0.0586775616, 0.0526256189, -0.0387004465, 0.0001168400, -0.0402181856, 0.0194633529, 0.0288780630, 0.0771047994, 0.0770565346, 0.0056265369, -0.0330916755, 0.0020027161, -0.0743624717, -0.0288077295, 0.0695028529, 0.0414680168, -0.0088343397, 0.0189666972, -0.0454063974, -0.0402908213, 0.0064711496, 0.0574305281, 0.0465399846, 0.0237444565, 0.0635180995, -0.0101262480, -0.0736181587, -0.0070082769, 0.0396473780, 0.0410661474, -0.0650844127, -0.0603461973, -0.0006241649, 0.0675494000, 0.0326264277, -0.0721268132, -0.0408167280, 0.0666388050, -0.0564913601, -0.0153666958, -0.0251820721, -0.0234758370, -0.0166518837, -0.0024297982, -0.0614138991, 0.0469897762, 0.0705789998, 0.0465489402, -0.0591289699, 0.0097533092, 0.0578492060, 0.0701235011, -0.0111021772, -0.0490573682, 0.0386250466, 0.0790982470, -0.0643134564, 0.0495521799, -0.0413616076, 0.0105340481, -0.0251689851, 0.0505720600, 0.0813856497, 0.0794047192, -0.0268709883, 0.0816775337, 0.0437461063, -0.0487606600, 0.0394409373, -0.0477982685, -0.0716450438, -0.0321379714, -0.0052667782, -0.0201795921, -0.0151618272, 0.0673746392, -0.0609700121, 0.0142307356, -0.0627957433, -0.0771411285, -0.0510263927, -0.0335542858, 0.0162414461, 0.0728382245, -0.0844921172, 0.0616737083, -0.0163217261, -0.0625221133, 0.0252944306, -0.0555673167, 0.0613709167, 0.0277188346, 0.0119266883, -0.0579612330, -0.0603236072, -0.0534063242, -0.0382619984, 0.0074829161, 0.0748926327, 0.0363863036, -0.0024658591, 0.0408343747, 0.0001168177, -0.0725111440, 0.0434984639, 0.0209400579, -0.0710050613, -0.0846351832, -0.0593226366, -0.0422393009, 0.0064881369, 0.0546686277, -0.0246762000, -0.0804579183, -0.0613907538, 0.0365454853, -0.0327813923, -0.0694449246, 0.0633612946, 0.0100378245, -0.0090746805, 0.0836353526, 0.0035138279, -0.0305277854, 0.0413444117, -0.0646242723, -0.0127840564, 0.0787178054, 0.0252434015, 0.0845336542, -0.0015083551, -0.0240546726, 0.0833585486, -0.0111452937, -0.0270015672, 0.0005651638, 0.0265641436, -0.0757909268, 0.0272068456, 0.0585591719, 0.0106793046, -0.0022078156, -0.0515705347, -0.0393511653, 0.0008879304, 0.0391389951, -0.0342012048, 0.0284113213, 0.0774457082, 0.0300254300, 0.0053088963, -0.0028643608, 0.0800255761, -0.0525552928, 0.0042475909, -0.0315819904, -0.0312724262, -0.0724097043, 0.0209588483, 0.0542890504, 0.0303793028, -0.0306734107, -0.0289364681, 0.0462009236, -0.0036564469, -0.0463026501, -0.0677597672, 0.0472001359, 0.0575273708, 0.0307496637, 0.0322107151, 0.0697244331, 0.0462795123, 0.0326146334, -0.0179838613, 0.0441222116, -0.0810983330, -0.0419259518, -0.0251175277, -0.0087881759, -0.0829657465, -0.0398273319, 0.0375815108, -0.0781125948, -0.0535809398, -0.0702455565, 0.0577839091, 0.0497869030, -0.0293010101, -0.0260330215, 0.0382769406, 0.0458611175, 0.0457543507, 0.0661066994, 0.0687235072, 0.0785790458, 0.0729265139, 0.0410682783, 0.0525562093, -0.0584249496, 0.0116643310, -0.0843181312, 0.0430721119, -0.0089528710, -0.0326463170, -0.0114080608, -0.0666494593, -0.0490690805, 0.0568180606, -0.0713461712, 0.0783166513, 0.0365894809, 0.0773226693, 0.0786487237, -0.0747053400, 0.0716825202, 0.0355023593, 0.0500408337, 0.0542336032, -0.0454551168, -0.0340244435, 0.0124291852, 0.0006749481, 0.0029557422, -0.0800127834, -0.0790846348, -0.0331863947, -0.0591795668, -0.0519151017, -0.0138232410, -0.0376979634, 0.0359028801, 0.0818343386, 0.0628615394, -0.0490887910, -0.0212196112, -0.0201487467, 0.0315113366, 0.0789731815, -0.0811115578, 0.0152307600, 0.0467218980, 0.0559479222, 0.0582601354, -0.0428389087, 0.0337729380, 0.0449527130, -0.0286979675, 0.0654394403, -0.0373180471, 0.0163861513, -0.0056154132, 0.0218077078, -0.0426701233, 0.0856871828, 0.0819594786, -0.0791792125, -0.0218474120, 0.0292225257, -0.0560391322, -0.0330799185, 0.0657552108, 0.0070357546, -0.0090523139, 0.0574743375, 0.0689618811, 0.0803057477, 0.0853865519, -0.0640220940, -0.0129519030, -0.0597039014, -0.0385490172, -0.0787780359, -0.0380101688, -0.0840359405, 0.0397320166, -0.0774835497, -0.0449609570, 0.0703732297, 0.0527217761, -0.0755298585, -0.0575900301, 0.0085068792, -0.0114139915, -0.0390996188, -0.0243427120, 0.0078287050, 0.0103098378, -0.0517743416, 0.0368578881, -0.0835660547, -0.0157975778, 0.0010332093, -0.0778499693, 0.0506758168, -0.0177408457, 0.0124237537, 0.0086083710, -0.0330287069, -0.0792751387, 0.0564736798, -0.0712202787, 0.0375340655, 0.0747969374, 0.0472254083, 0.0645911172, -0.0576461926, 0.0428083017, -0.0201362297, -0.0492984876, -0.0582806990, -0.0448654220, 0.0522629246, 0.0623212680, 0.0725942776, -0.0599501133, 0.0307456180, 0.0797761604, 0.0430620238, 0.0539318249, -0.0578221940, 0.0475323275, -0.0603337064, 0.0370010212, -0.0302239023, -0.0222443193, 0.0833297148, -0.0632802546, -0.0516393296, -0.0012797639, -0.0005966052, 0.0780291781, 0.0164399594, -0.0330967866, -0.0614509434, -0.0127366930, -0.0179390088, 0.0136328042, 0.0038546547, 0.0057760626, -0.0035613403, 0.0100341290, -0.0015885159, 0.0581380352, -0.0251873471, 0.0545131341, -0.0170636103, 0.0331918076, 0.0675222501, 0.0340156555, -0.0027554929, 0.0777932182, -0.0830623284, -0.0076247752, -0.0667217895, -0.0662461743, -0.0344373360, 0.0853813216, 0.0445662662, 0.0422895327, 0.0623666123, 0.0059476718, -0.0491047986, 0.0272837132, 0.0242248699, 0.0093077272, 0.0603166893, 0.0845724866, 0.0323750451, -0.0660917163, -0.0137637481, -0.0603540465, 0.0453742370, -0.0605128594, -0.0240425728, 0.0115541369, 0.0474005863, -0.0003146753, 0.0359562784, -0.0061967894, 0.0156407952, -0.0854750350, -0.0431559384, 0.0252982378, 0.0046265870, -0.0463435203, -0.0596529543, 0.0635359660, -0.0092615187, 0.0188497007, -0.0434436910, -0.0425398722, 0.0787861124, 0.0050868914, -0.0174121037, -0.0351843052, -0.0818926096, 0.0518303439, -0.0843233243, -0.0214036703, 0.0641106293, -0.0134635270, 0.0501349047, -0.0358282775, 0.0014690608, -0.0308987275, 0.0045835301, 0.0196347535, 0.0227742121, -0.0449491814, -0.0328379013, -0.0682600960, -0.0697890148, 0.0411507711, 0.0205264315, -0.0794458687, 0.0131323710, 0.0209115371, 0.0066996366, 0.0083694533, 0.0343879238, -0.0302582681, 0.0640504882, 0.0764182582, -0.0202007517, -0.0315294303, -0.0480561331, -0.0621823519, -0.0241736174, 0.0045237169, 0.0666414425, 0.0257811248, -0.0827759653, 0.0028787479, -0.0666944385, 0.0430777743, -0.0836993307, -0.0592609979, -0.0043590963, -0.0049551055, -0.0233818963, -0.0437288061, 0.0187731534, -0.0108764917, 0.0424822196, -0.0356980078, -0.0483100489, -0.0050240010, -0.0645720959, 0.0547271445, -0.0384581611, -0.0455659851, 0.0153507069, -0.0178427771, -0.0083127618, -0.0132121816, -0.0285575539, -0.0391451269, 0.0446687266, 0.0262552276, 0.0729768649, 0.0129981115, 0.0065572411, 0.0654023364, 0.0397768095, 0.0025254935, -0.0684334412, 0.0161188617, 0.0795576945, -0.0040469989, -0.0676442981, -0.0541898087, 0.0667026266, -0.0615458637, 0.0470091179, 0.0448710099, -0.0568528920, 0.0099101737, 0.0428286418, 0.0279320031, -0.0511020347, 0.0664977804, -0.0789624006, 0.0423854813, 0.0678714886, 0.0751041397, -0.0684207082, -0.0684579164, -0.0843507200, -0.0270130746, -0.0205528215, 0.0272564664, -0.0185944289, -0.0150607675, 0.0180215836, 0.0576664135, -0.0004123226, -0.0108430833, -0.0004348904, 0.0057789683, -0.0853584781, 0.0748793259, -0.0654761642, 0.0248710960, -0.0817982629, -0.0764479637, 0.0144071057, 0.0764119849, 0.0846498385, 0.0740288422, -0.0588049069, 0.0366494432, 0.0591389313, 0.0012777224, -0.0065559074, 0.0320744514, -0.0297400504, 0.0139721110, 0.0274706557, 0.0667601600, -0.0339598171, 0.0703125969, -0.0608723089, -0.0573540032, -0.0217476264, -0.0044593737, 0.0151969269, 0.0360183865, -0.0498672873, -0.0828894302, 0.0084905475, 0.0372017175, 0.0673537478, -0.0046702549, 0.0164769590, 0.0299437121, -0.0668039545, -0.0289425626, 0.0321467668, -0.0689818412, -0.0693472177, 0.0279812291, -0.0061906353, 0.0694035217, -0.0116999820, -0.0035373792, 0.0380913317, 0.0564302281, 0.0718796179, -0.0650490820, 0.0188234299, 0.0344513208, -0.0767743587, -0.0262728110, 0.0306273252, 0.0041422844, 0.0834938809, -0.0184447989, 0.0625667498, 0.0058289170, -0.0160632953, -0.0485911146, 0.0176060349, 0.0032460690, -0.0024194494, -0.0302730314, 0.0638145432, 0.0559066758, -0.0482309908, 0.0480998829, -0.0138097033, 0.0250693187, -0.0396661684, -0.0266985223, 0.0422061607, 0.0770576671, 0.0726061687, -0.0672308505, -0.0189426541, -0.0604714602, 0.0617059395, 0.0024838075, 0.0415097699, -0.0491403714, -0.0234419182, 0.0473961756, 0.0559736267, -0.0838148966, 0.0270721167, 0.0566368178, -0.0640792549, 0.0105116442, 0.0453891233, -0.0737624913, 0.0184986517, -0.0560024343, -0.0520502776, -0.0088763908, -0.0698235258, -0.0820034817, -0.0029243454, 0.0793842003, 0.0453490689, -0.0019500330, -0.0806988329, 0.0203500390, 0.0665592626, -0.0318098627, -0.0212822929, 0.0815629140, -0.0152476728, -0.0487800613, 0.0336596370, 0.0459266827, -0.0817608088, 0.0037601665, 0.0036799833, -0.0603971034, -0.0668824390, 0.0104504973, -0.0134080350, 0.0041595176, -0.0428918786, 0.0326540694, 0.0499343798, -0.0195704550, -0.0244984776, -0.0066045448, -0.0426244065, 0.0120447725, 0.0418304726, 0.0119948089, 0.0448480919, 0.0768428668, 0.0618920699, 0.0765364692, -0.0507211983, -0.0249003693, 0.0606311038, 0.0291915908, 0.0231221691, -0.0632646084, -0.0021139905, -0.0309958756, 0.0286139622, 0.0579954013, -0.0382480547, -0.0328230374, 0.0576955900, 0.0395535454, -0.0466212332, -0.0053068697, -0.0684249997, -0.0713583529, -0.0318617932, -0.0388541259, -0.0174218342, -0.0458462760, -0.0703231022, 0.0568778142, 0.0776570216, -0.0541138984, 0.0126559734, -0.0803894922, 0.0279374644, -0.0760806873, 0.0146163553, -0.0701116472, -0.0798778757, 0.0333131477, -0.0186331496, 0.0082463175, -0.0144333541, -0.0425844379, 0.0452372804, 0.0645499155, -0.0084353089, 0.0423242822, 0.0249763206, -0.0626404881, 0.0737024769, 0.0529857799, 0.0434351191, 0.0556282178, -0.0789652467, 0.0837010220, 0.0432564989, 0.0529755279, -0.0721378103, 0.0581522658, -0.0345869660, -0.0274246372, 0.0303783193, -0.0290079638, 0.0553662851, 0.0403806195, 0.0752145723, 0.0030752793, -0.0402869172, -0.0159486383, 0.0689271763, 0.0410701558, 0.0270842835, -0.0394113734, 0.0697187707, -0.0669569224, 0.0596535727, 0.0610460415, 0.0640779361, 0.0023915023, -0.0034926310, -0.0257026404, -0.0275928751, -0.0580514371, -0.0601773262, 0.0848719105, -0.0609210879, 0.0799102411, -0.0317433774, 0.0370416641, -0.0179057494, 0.0677509084, -0.0393490382, 0.0287729576, -0.0265036263, -0.0690333545, 0.0460851416, -0.0632326752, -0.0500327423, 0.0385546386, -0.0336269066, 0.0311474279, 0.0773612037, 0.0072756112, 0.0229487270, 0.0734706298, -0.0180627406, -0.0029369146, -0.0774084777, -0.0800143182, -0.0686116144, 0.0725864545, 0.0282134786, -0.0200107694, 0.0726137534, -0.0319355763, 0.0085495710, 0.0800426081, -0.0261012651, 0.0306476057, -0.0341010280, 0.0299079567, -0.0474681780, -0.0418087840, -0.0720008761, 0.0031702667, 0.0814804360, -0.0370524973, 0.0052858144, -0.0185322836, -0.0099341720, -0.0435692184, 0.0518196896, 0.0392124131, 0.0664298609, -0.0546336547, 0.0490728840, 0.0385880619, -0.0495911241, 0.0416785702, -0.0606190264, -0.0047694743, -0.0518356338, 0.0682509914, 0.0741788074, 0.0421818569, -0.0604425296, -0.0732310861, -0.0691594183, 0.0507629886, 0.0736612752, 0.0205448717, 0.0407189205, 0.0388351753, 0.0759137794, 0.0634434745, -0.0141170844, 0.0303494483, 0.0218887329, 0.0710820928, -0.0505785793, -0.0023575053, 0.0483826473, 0.0546620861, 0.0087466910, -0.0336877257, 0.0447164401, -0.0210954323, 0.0822332278, -0.0819443166, 0.0025985390, -0.0608913824, 0.0228572339, 0.0652931258, -0.0326628573, 0.0572712049, -0.0575321317, 0.0805880502, 0.0760989413, -0.0710812137, -0.0577244908, 0.0196849257, 0.0390651897, -0.0846254528, 0.0803415850, 0.0073922873, 0.0806148127, -0.0560072586, 0.0437540486, -0.0434064604, 0.0818213448, 0.0657836273, -0.0567401648, 0.0736388341, -0.0203400627, -0.0449687056, 0.0474356636, -0.0627934113, 0.0451593623, 0.0644456670, -0.0482764170, 0.0169138759, -0.0390323997, -0.0356919542, 0.0585799441, -0.0108794123, 0.0467213467, 0.0411169752, -0.0664012283, -0.0648389161, -0.0162695572, -0.0068919510, 0.0278883353, -0.0388515480, 0.0540568456, 0.0374830961, 0.0163633749, 0.0825770870, 0.0266999900, 0.0163514540, -0.0541700982, 0.0218524411, 0.0315143615, 0.0752882287, -0.0169282854, 0.0759104118, -0.0006688759, -0.0053066686, -0.0134331658, -0.0359462611, -0.0104069486, 0.0444679633, 0.0160852522, 0.0449910089, 0.0002995059, -0.0646694154, -0.0726710558, 0.0272384137, 0.0024202690, -0.0544616543, 0.0708912686, 0.0503467098, -0.0243999362, -0.0499142669, 0.0018377900, -0.0366594158, 0.0285877287, -0.0765648261, 0.0110771954, -0.0062581003, 0.0585803911, -0.0560764000, 0.0820741579, 0.0760697946, -0.0298220515, 0.0115564689, 0.0367607623, -0.0152959824, 0.0611525998, 0.0417085961, -0.0448581427, -0.0436559021, 0.0454176143, -0.0196377784, 0.0106288716, -0.0023765787, -0.0101905838, -0.0129877478, 0.0055874661, 0.0611451194, 0.0313441232, 0.0190766454, 0.0829370692, 0.0344267413, -0.0349291414, -0.0521052144, -0.0393475257, 0.0147193521, 0.0383601710, 0.0482813194, -0.0801657066, -0.0108656362, -0.0718991235, -0.0500893705, 0.0678802654, -0.0595715456, -0.0569810793, -0.0053144172, -0.0325209759, -0.0732101947, 0.0472170785, 0.0533059165, 0.0218756497, -0.0108397752, -0.0398295186, 0.0664121881, 0.0529168025, -0.0654845461, -0.0066327378, 0.0804967955, -0.0344478413, -0.0110624954, -0.0582558364, -0.0503470711, 0.0712064728, 0.0626846477, 0.0410730019, -0.0655008629, -0.0724494457, -0.0501344316, -0.0770448744, -0.0375694707, 0.0751711205, -0.0692343414, 0.0213390291, -0.0284705460, 0.0549844578, -0.0456858277, -0.0363324136, 0.0573772267, 0.0715934709, -0.0442769751, -0.0242086612, 0.0041795522, -0.0735421851, -0.0227637812, 0.0599984601, 0.0212755501, -0.0657902882, -0.0803944767, 0.0109774843, 0.0056773201, 0.0793685243, -0.0121278167, -0.0754277185, 0.0195836425, 0.0734540746, 0.0518331602, -0.0134672225, 0.0741491094, -0.0582333878, 0.0540772006, -0.0113512054, -0.0313011296, -0.0085538253, 0.0180744752, 0.0100931898, 0.0438238308, 0.0573498681, 0.0166631043, -0.0651549846, -0.0068993345, 0.0738109276, -0.0155604258, 0.0540171340, -0.0562654063, -0.0129265934, 0.0532352105, -0.0360581540, 0.0255652741, 0.0517835245, 0.0377826467, -0.0588642955, -0.0139293224, 0.0449758247, 0.0847619101, 0.0429446474, 0.0572655424, 0.0234758556, -0.0595688075, -0.0680309385, -0.0001283661, -0.0024563298, -0.0730116591, 0.0767542049, 0.0295563340, -0.0694838017, -0.0544863120, -0.0584290177, -0.0693214983, 0.0333436280, 0.0151890144, -0.0411130078, -0.0570043847, -0.0167116001, 0.0705849305, 0.0125238225, 0.0480438098, 0.0272390023, 0.0827938542, -0.0822826624, -0.0484214090, 0.0178756490, -0.0760938898, -0.0353799574, 0.0546717569, 0.0835429505, 0.0165245980, -0.0131685510, -0.0341073871, -0.0691523850, 0.0505415723, 0.0121977180, 0.0670505986, 0.0027272776, 0.0513752922, 0.0446714535, -0.0133035257, -0.0318762474, 0.0103182644, -0.0667930767, 0.0783357248, -0.0285187103, -0.0139064491, -0.0325618237, 0.0001478940, 0.0410904363, 0.0838511810, 0.0800928995, -0.0308378004, 0.0806103721, 0.0656028762, 0.0675003603, 0.0237572342, -0.0190086886, 0.0050358027, 0.0165279061, 0.0829974934, -0.0596201830, 0.0447397754, 0.0307815224, 0.0444885269, 0.0703271851, 0.0816343352, 0.0375759751, -0.0774651095, -0.0392894037, -0.0442392156, -0.0159000456, 0.0765376762, 0.0337442756, 0.0315301642, 0.0089536086, -0.0673618391, 0.0631676838, 0.0766735449, 0.0014930815, -0.0463659242, 0.0725914910, 0.0788492784, -0.0594871938, 0.0099903569, -0.0235376991, 0.0020730644, -0.0082507804, 0.0205609575, 0.0301366448, -0.0757306218, 0.0778996870, -0.0173467398, 0.0551912412, -0.0290749595, 0.0085175931, -0.0443169028, -0.0625110120, 0.0787126943, 0.0469276533, 0.0794322118, 0.0393554196, 0.0379340723, 0.0218103081, 0.0025231019, 0.0490260497, -0.0210887864, -0.0719263181, 0.0004560724, -0.0775500089, -0.0209005773, 0.0252322629, -0.0133546591, 0.0797740743, 0.0538324043, -0.0349431448, 0.0408750847, -0.0372629501, 0.0784990117, -0.0318084136, -0.0647739694, -0.0464541651, 0.0158135667, -0.0079637170, -0.0321140513, -0.0259797648, -0.0557107143, 0.0336546302, 0.0277608037, 0.0777973011, 0.0549548492, 0.0797251537, -0.0530503094, -0.0286475308, 0.0638704821, 0.0295412689, 0.0079896674, -0.0614386760, -0.0223899186, -0.0114636049, 0.0333929211, 0.0518660173, 0.0567673370, 0.0460733250, -0.0196601897, 0.0221740529, 0.0186634064, 0.0689636394, 0.0612192675, 0.0123728067, -0.0198922083, 0.0770968422, -0.0804180279, -0.0827274472, -0.0710324347, 0.0681735948, -0.0519275106, -0.0165581852, -0.0120172799, 0.0764243677, 0.0060587302, 0.0616625324, 0.0705711320, 0.0555805638, 0.0823046193, 0.0009566694, 0.0226861760, 0.0312101766, 0.0638448372, 0.0031622946, -0.0356386974, 0.0531135872, -0.0316682458, -0.0468667485, -0.0835322142, 0.0751994625, -0.0768690780, -0.0504514165, -0.0399741195, 0.0533295944, -0.0310505442, 0.0749069676, 0.0141453594, 0.0769748315, -0.0150509179, 0.0633766875, -0.0340376310, -0.0416787602, -0.0406655446, 0.0801740065, 0.0847866610, 0.0417282358, 0.0287589282, -0.0710243583, 0.0693366006, -0.0524770319, -0.0420516618, 0.0584286526, 0.0134389326, -0.0030450225, 0.0513031855, 0.0356201380, 0.0046753660, 0.0778898820, 0.0852077380, 0.0269244313, -0.0523654260, 0.0837189779, 0.0378991961, 0.0067336336, 0.0476650074, 0.0288619921, -0.0213698968, 0.0855006650, 0.0461077169, -0.0206465423, 0.0195154846, -0.0136337802, 0.0552496091, 0.0265414044, 0.0400362536, -0.0725922063, 0.0559694096, 0.0451413020, -0.0563416854, 0.0788636133, -0.0260868296, -0.0307222717, -0.0241254531, -0.0030424669, 0.0270077586, 0.0332776979, 0.0628935322, -0.0116500407, -0.0037251860, 0.0226846039, -0.0820079744, -0.0461139902, 0.0833393112, 0.0685615614, 0.0252712518, 0.0368678272, -0.0153979361, 0.0165969655, 0.0081735626, -0.0070337355, -0.0678035989, 0.0128703713, -0.0190721527, -0.0606746972, -0.0304839313, -0.0091330856, -0.0620332956, 0.0023163334, 0.0741717294, -0.0068468302, -0.0779873356, 0.0585891381, -0.0189771876, -0.0645485520, 0.0765357092, 0.0722035542, -0.0614253059, -0.0135635138, -0.0507695489, 0.0058555752, 0.0053761750, 0.0153406113, 0.0187803507, 0.0442645624, 0.0343731195, -0.0762876421, 0.0295912176, -0.0478970148, -0.0527395569, 0.0797833130, 0.0383399501, 0.0369018018, 0.0183772743, -0.0625819787, 0.0473313704, 0.0416279212, 0.0035701543, -0.0223525912, 0.0015813634, 0.0639292672, -0.0117203295, 0.0544141456, -0.0361960083, 0.0019908622, 0.0493406430, 0.0106973797, 0.0400053635, 0.0185832456, -0.0318821333, -0.0642777830, 0.0192078575, 0.0130044669, -0.0403884426, -0.0462746024, -0.0805924609, 0.0499484912, -0.0160853937, -0.0450158715, 0.0491103455, 0.0729514733, -0.0640385076, -0.0708462894, 0.0782315806, 0.0107034072, -0.0499614328, 0.0618041828, -0.0546432212, -0.0450414866, -0.0524423569, 0.0225272477, -0.0252287053, -0.0182943940, 0.0604123101, -0.0629436746, -0.0824479386, 0.0372970104, -0.0510475710, 0.0677517429, -0.0300862715, -0.0476791821, 0.0052288547, 0.0014784411, 0.0777302310, 0.0446290895, -0.0460485108, -0.0593694337, 0.0038501620, -0.0599482916, 0.0160868019, -0.0350205451, -0.0365385115, 0.0777410492, 0.0277223662, 0.0290108249, -0.0030393228, 0.0843599215, 0.0450482890, 0.0275117084, 0.0750463083, 0.0385609567, -0.0042223856, 0.0572134629, -0.0000317320, 0.0704125836, -0.0525704399, 0.0785540715, -0.0531885326, 0.0079836771, 0.0214211121, 0.0819319263, -0.0517767370, -0.0772981793, -0.0793138817, -0.0766758993, -0.0470564105, 0.0740159079, 0.0189157352, -0.0497794561, 0.0425144359, -0.0284505300, -0.0008716211, 0.0722078905, 0.0829266533, -0.0673109740, -0.0416194946, -0.0460280851, -0.0488799512, 0.0372807384, 0.0419039950, -0.0061568767, 0.0810486302, -0.0242632478, -0.0655938387, 0.0669170544, -0.0647907555, 0.0289923623, 0.0638790056, 0.0716125742, -0.0120527297, -0.0770709813, -0.0658870712, -0.0648698732, 0.0769349709, -0.0834161937, 0.0374780446, -0.0684347898, -0.0318888389, -0.0244292952, 0.0317557678, -0.0686442405, 0.0101893023, -0.0545018278, -0.0378852934, -0.0034995601, -0.0234727487, 0.0525719598, 0.0635341033, 0.0191302299, -0.0096566007, 0.0260179341, 0.0657240078, 0.0566396341, 0.0753740892, -0.0024007261, -0.0344332047, -0.0676674172, -0.0836397111, 0.0179735571, 0.0393802598, -0.0250971876, 0.0558266714, 0.0473335758, 0.0388352573, 0.0469896421, -0.0685520172, 0.0037133023, -0.0729779080, -0.0268765278, -0.0660677180, 0.0536602810, -0.0702002347, -0.0716569275, -0.0399862453, -0.0394960120, -0.0640861392, -0.0789645463, -0.0426121429, -0.0835939795, 0.0513174012, 0.0492131487, 0.0047537088, 0.0376791134, 0.0201858729, -0.0776801407, 0.0508216694, -0.0124447644, 0.0602030084, 0.0598776117, 0.0281248763, -0.0620649233, -0.0565220229, 0.0435846671, 0.0627338961, 0.0683288500, -0.0242804587, 0.0111664683, 0.0025117397, 0.0002741143, 0.0298769251, -0.0021640807, -0.0724458471, -0.0582772009, -0.0652467608, 0.0713631138, 0.0762745813, -0.0584058389, -0.0777474642, 0.0566974953, -0.0561180450, 0.0258043930, 0.0739499852, -0.0443965122, 0.0427286550, 0.0147187784, -0.0793091133, 0.0695104226, -0.0652836412, -0.0055073872, -0.0796676651, 0.0568092689, 0.0222185180, 0.0766178742, -0.0709385723, 0.0354638770, -0.0536654741, 0.0619216934, -0.0804796889, 0.0449212715, -0.0153155625, -0.0497964472, 0.0409695283, 0.0348627344, -0.0327287093, 0.0661000237, -0.0392177664, -0.0417287052, -0.0643608123, 0.0617195442, -0.0647006556, 0.0162848085, 0.0116047785, -0.0304773897, -0.0438541286, 0.0434873775, -0.0432788283, -0.0315282233, 0.0509631708, 0.0109038651, 0.0811346844, -0.0081124902, -0.0797001272, 0.0170919672, 0.0148073807, 0.0104463622, 0.0748919770, -0.0530872717, -0.0391874872, -0.0572875366, 0.0031696931, 0.0739929453, -0.0385100693, -0.0072224736, 0.0673400685, 0.0054299235, 0.0832216218, -0.0048651919, -0.0343745500, 0.0192510560, 0.0105025843, -0.0562416092, -0.0759318918, -0.0262597874, 0.0677940026, -0.0709861070, 0.0586204603, 0.0569810942, 0.0208725110, 0.0823536292, 0.0365766585, 0.0320510045, -0.0268802717, 0.0690794215, -0.0316435508, 0.0779202357, -0.0831062645, 0.0131131485, -0.0790848657, 0.0661862716, -0.0062737986, -0.0276513845, -0.0017085671, 0.0681833550, 0.0478117689, 0.0522185788, -0.0337535180, -0.0767574906, -0.0428296067, 0.0771880671, -0.0160809159, -0.0007623062, 0.0527935252, -0.0034871325, -0.0676622465, 0.0017776042, -0.0729849190, 0.0117635056, 0.0040108114, -0.0819447041, 0.0451807603, 0.0196530297, 0.0120943934, 0.0065831020, -0.0851231217, 0.0164668411, 0.0121692419, 0.0252903402, 0.0735999420, -0.0441658013, 0.0592238531, -0.0528702363, 0.0425498411, -0.0319897123, -0.0123805106, 0.0568923280, -0.0504328124, -0.0254484788, -0.0435260385, -0.0345493704, 0.0798130855, 0.0241714343, 0.0009034723, 0.0443922207, 0.0257881582, 0.0607588813, 0.0502564833, -0.0054837987, -0.0690503642, 0.0207574293, -0.0524659902, -0.0503802933, -0.0626277104, -0.0115259439, -0.0584438220, 0.0801446661, -0.0060654506, 0.0358066037, -0.0744188577, 0.0393093750, 0.0693853721, -0.0748906061, -0.0475699492, -0.0136886537, -0.0718651861, 0.0835551992, -0.0548025444, 0.0666805282, 0.0486773923, 0.0619982556, 0.0220071822, 0.0688882098, 0.0465517715, 0.0594327524, 0.0847345963, 0.0807556883, -0.0670338273, -0.0255354680, 0.0668537542, 0.0837715343, 0.0624349192, -0.0090923831, -0.0115864351, 0.0504308119, 0.0413255319, -0.0088649839, 0.0250946283, 0.0573925599, 0.0289094001, -0.0497844853, -0.0091984272, 0.0479784384, 0.0433922186, 0.0481764898, -0.0210144147, -0.0067565516, 0.0071347281, 0.0677489862, 0.0173672289, 0.0395279899, -0.0157134533, 0.0739236400, 0.0023559332, 0.0521663353, -0.0078133568, 0.0780857578, 0.0007705837, -0.0582977682, -0.0615006238, -0.0446547233, 0.0206782520, -0.0415521488, -0.0195156857, 0.0467581525, -0.0312485658, 0.0216315463, -0.0075956807, 0.0168604776, 0.0718070492, 0.0760445818, 0.0297672376, -0.0227112249, 0.0136618912, 0.0473611280, 0.0520923510, -0.0673700124, -0.0125037283, -0.0257523023, 0.0450780466, -0.0570650622, 0.0482728854, -0.0127598122, -0.0526217371, 0.0136783496, -0.0428601094, -0.0404945686, 0.0438921675, -0.0303365290, -0.0155753940, -0.0463261008, -0.0198651850, 0.0512736663, 0.0605510697, 0.0431716666, 0.0095058903, -0.0604900047, 0.0325230211, 0.0108433515, 0.0252029449, 0.0388501808, -0.0851337537, -0.0567798242, 0.0229209214, -0.0128641203, 0.0578417853, -0.0238197297, 0.0795167014, 0.0365290642, 0.0232460424, -0.0527141243, -0.0381903015, -0.0226105526, 0.0030776709, -0.0797555745, -0.0745875835, 0.0382868201, -0.0196174160, -0.0112317055, 0.0490445122, -0.0616873205, 0.0160268396, 0.0657487735, -0.0119112134, 0.0285271108, 0.0590474382, -0.0016751215, 0.0274616629, 0.0509515032, 0.0528469458, 0.0827069208, 0.0277384594, -0.0128878579, -0.0215860531, -0.0134051964, -0.0427884310, 0.0434805080, 0.0731378421, -0.0486290827, 0.0512389913, -0.0118445009, 0.0349469706, -0.0853166729, -0.0843299702, 0.0764909014, 0.0364333838, 0.0230407417, 0.0449088886, -0.0111150742, 0.0000792220, -0.0750439167, -0.0253492631, -0.0555447489, 0.0361019671, -0.0371360965, -0.0509861782, -0.0677585378, -0.0010710508, -0.0289792977, -0.0466531478, -0.0512316525, -0.0246584751, 0.0671248510, 0.0702076927, 0.0169093385, -0.0723913237, -0.0119902343, -0.0717243478, -0.0322905257, -0.0447468236, -0.0653724298, 0.0070538074, 0.0586303100, -0.0162999779, -0.0543862768, -0.0427078418, -0.0350617208, -0.0804264098, -0.0768337101, -0.0429862104, 0.0500560477, -0.0685027689, 0.0689717457, -0.0551242530, 0.0678210780, 0.0282211453, -0.0046768785, 0.0849427208, 0.0573975518, 0.0689799562, -0.0673007667, 0.0000077039, -0.0226590261, 0.0406021848, -0.0448051132, -0.0683786944, -0.0648717135, 0.0475567058, -0.0611045137, 0.0310648158, -0.0291646048, -0.0482636616, -0.0552089512, 0.0663184300, 0.0323250145, 0.0488046780, -0.0370947756, -0.0036100447, 0.0561271086, -0.0643012524, -0.0401373692, 0.0233956352, -0.0244279057, -0.0544230342, 0.0599482581, 0.0212355778, 0.0838008150, 0.0113433972, 0.0802240297, -0.0449798070, 0.0854133442, 0.0489126965, 0.0788889304, -0.0302691236, -0.0738978982, -0.0818165988, 0.0718733892, 0.0434453115, 0.0147038922, 0.0067436099, 0.0382907242, -0.0330053791, 0.0711626634, -0.0717979893, 0.0265269727, -0.0409158655, -0.0023024678, -0.0706038177, -0.0251254402, 0.0579582974, -0.0832731053, -0.0165177286, 0.0017285571, 0.0246623605, 0.0819277540, -0.0089074448, -0.0774262026, 0.0526867434, -0.0655692220, -0.0508195162, -0.0410939343, -0.0410055332, 0.0650963560, -0.0193960294, 0.0579677150, -0.0506089628, 0.0034342632, -0.0258258805, 0.0297570601, -0.0765958577, 0.0806930438, -0.0346061029, -0.0643760562, 0.0494538769, 0.0405620709, 0.0009814873, -0.0551537946, -0.0673456863, 0.0646254346, 0.0601361468, -0.0580142885, -0.0854770318, -0.0831987932, -0.0786852986, -0.0776823908, -0.0019779578, 0.0697658285, 0.0786236450, -0.0569020621, 0.0058351085, -0.0600413941, -0.0088780299, -0.0742237568, 0.0229336545, -0.0341105759, 0.0194929540, -0.0546223074, -0.0744560435, -0.0043433309, -0.0056520328, -0.0452423915, -0.0118445680, 0.0768254921, -0.0439492948, -0.0208389014, -0.0471411720, -0.0179618895, -0.0774689689, -0.0185627192, 0.0004261211, -0.0693166927, -0.0177265555, 0.0139748976, -0.0851233527, -0.0307231098, -0.0296300575, -0.0414582491, -0.0708515048, 0.0789869800, -0.0829612538, -0.0750486404, -0.0012190491, 0.0477756932, 0.0136838481, -0.0483207814, 0.0482599810, -0.0383635871, 0.0444907025, 0.0552545562, 0.0369755477, -0.0601339266, 0.0503562018, -0.0762758479, -0.0237540826, -0.0836451277, -0.0281760655, -0.0179878697, 0.0239768848, 0.0395128950, 0.0704339966, -0.0683851093, -0.0554552823, 0.0428967848, -0.0340573378, 0.0248751417, 0.0164953843, 0.0436257496, -0.0580924451, -0.0462221615, 0.0326471329, -0.0600519255, 0.0408724621, -0.0636568964, 0.0441418663, -0.0454645418, -0.0682867542, -0.0206125602, -0.0165170133, -0.0220720768, 0.0547989830, -0.0054934844, -0.0789421797, -0.0791215822, 0.0829632357, 0.0075051785, -0.0523901843, 0.0592510179, 0.0724150762, -0.0361914709, 0.0592626259, -0.0506734848, 0.0330469608, -0.0787334666, -0.0462996885, -0.0499120168, -0.0074514896, -0.0682315752, 0.0480752513, 0.0117073208, -0.0204154998, 0.0122594014, 0.0281506106, 0.0535327569, -0.0302523822, -0.0828285888, -0.0550250150, -0.0044922680, 0.0123557523, -0.0753759965, -0.0651980639, -0.0215428770, -0.0782197863, 0.0434653237, 0.0578290895, 0.0009199902, -0.0473893248, -0.0196431577, -0.0543635637, -0.0413598903, 0.0000730082, -0.0335249305, 0.0685286298, 0.0011782423, 0.0495033339, -0.0587779805, -0.0520132333, 0.0559686944, -0.0369559191, 0.0438022241, 0.0300563648, 0.0315105617, -0.0695799962, -0.0334765986, 0.0478354171, 0.0736507401, 0.0556683615, 0.0252725780, -0.0390941389, 0.0559395328, -0.0339238979, 0.0270609185, -0.0261926912, -0.0143230185, 0.0146370456, 0.0077633262, 0.0284018517, -0.0282177329, 0.0816710368, -0.0606581569, -0.0018748790, 0.0389842540, 0.0844910517, -0.0503943376, 0.0347161740, -0.0471830815, -0.0001295581, 0.0317859873, -0.0702899620, -0.0008388907, -0.0769048110, -0.0769690499, -0.0622070283, -0.0335196145, -0.0826932043, 0.0438407436, -0.0608833060, 0.0739696994, 0.0197283253, -0.0737055391, 0.0452176556, -0.0530318283, 0.0315715224, 0.0020889267, 0.0624761358, -0.0800207406, -0.0365532078, 0.0155596510, -0.0076142028, -0.0172862858, -0.0371693969, 0.0514197573, -0.0557706356, 0.0664796755, -0.0604314506, 0.0803494379, 0.0826290175, -0.0095339566, 0.0478535518, -0.0349183455, -0.0413167328, 0.0315128714, -0.0729750618, -0.0058027282, -0.0099493265, -0.0712158829, -0.0204087347, 0.0007648617, 0.0231298581, -0.0685202256, 0.0799087808, 0.0206801891, -0.0162116364, -0.0017085820, -0.0109700263, 0.0486083850, -0.0043124631, -0.0540181771, -0.0256640837, -0.0401511490, -0.0723468140, -0.0172258914, -0.0055883899, 0.0059393942, -0.0210497379, -0.0382252410, -0.0200678632, -0.0064324290, 0.0723414198, 0.0747367665, -0.0851231068, -0.0059293807, -0.0627791211, 0.0699461028, -0.0531283244, 0.0143977255, 0.0149395168, 0.0685696229, -0.0826853588, 0.0047850907, 0.0717466101, -0.0313846432, -0.0780774727, 0.0301696211, 0.0831648484, 0.0541659966, -0.0042089969, -0.0038470477, 0.0021158755, -0.0422287099, -0.0155293271, -0.0484942533, 0.0546253100, -0.0132486522, -0.0714217126, -0.0465590209, 0.0226677358, -0.0095728412, 0.0230890512, 0.0013435334, 0.0523051098, -0.0588985607, 0.0531746671, -0.0265945196, 0.0395224318, -0.0387555212, 0.0260047838, -0.0042034760, 0.0367192999, 0.0794634447, -0.0704347044, 0.0780036971, 0.0185217708, 0.0551718250, 0.0804932490, -0.0436049141, 0.0326665342, 0.0703179315, -0.0851162151, -0.0791824237, -0.0125037506, 0.0415868685, 0.0325005725, 0.0373776853, -0.0204254761, 0.0781635419, 0.0461063609, 0.0281600580, 0.0272078291, -0.0150459483, -0.0610848665, -0.0616472475, -0.0364713930, -0.0327985249, -0.0050546899, 0.0430664793, 0.0504010692, 0.0803703144, 0.0071621612, 0.0052130148, -0.0544033274, -0.0757143050, 0.0343493000, 0.0698210374, -0.0197971240, -0.0239567682, -0.0045854971, -0.0320185162, 0.0103980750, 0.0245797411, 0.0326744467, 0.0526379421, 0.0117491707, -0.0289473869, 0.0064302981, -0.0708278492, -0.0339159854, -0.0717061907, 0.0192192271, -0.0240970962, -0.0680243298, -0.0136265680, -0.0028958619, -0.0656484887, 0.0566930547, -0.0638241917, -0.0125910044, 0.0329592377, 0.0573288277, 0.0848249272, 0.0810606256, 0.0233978629, 0.0076448321, 0.0688862875, 0.0671403036, 0.0191178843, -0.0732493252, 0.0584397689, -0.0634641871, 0.0115149245, 0.0510374382, -0.0328395367, -0.0383815169, 0.0411042795, -0.0674935579, -0.0420033522, -0.0680500939, -0.0836397931, -0.0174395368, -0.0258215852, -0.0390075371, 0.0019544661, 0.0498749688, 0.0779439881, 0.0403346792, -0.0482284762, 0.0137700811, 0.0561155155, -0.0224779546, 0.0569781289, -0.0353121236, -0.0633482933, -0.0837103277, 0.0393562093, 0.0262654126, 0.0004956052, 0.0249024555, -0.0100580454, -0.0786781684, 0.0447236225, -0.0754066408, -0.0361723341, -0.0013547167, -0.0794712752, 0.0494862124, -0.0558846146, -0.0428307503, -0.0644107312, -0.0402069613, -0.0088141188, -0.0252201185, -0.0147430897, -0.0465124510, 0.0543799177, -0.0119615495, 0.0716441646, 0.0628185943, 0.0817015395, -0.0029812753, -0.0479872562, 0.0487473086, -0.0563850068, -0.0324799418, 0.0660935864, 0.0661010221, 0.0287519991, 0.0821717754, 0.0700704530, -0.0044333935, 0.0489506051, -0.0131971166, 0.0340774730, 0.0276153460, -0.0678961873, 0.0040384308, -0.0821988061, 0.0542832986, 0.0236061290, 0.0513420776, 0.0204420984, 0.0583014265, 0.0260426477, 0.0697569624, -0.0531697832, -0.0531493202, 0.0343653932, 0.0778901204, 0.0559312031, 0.0658050254, 0.0307222307, -0.0642972887, -0.0403980725, -0.0074532926, -0.0360059366, -0.0080060586, 0.0615917817, 0.0426426604, -0.0560025573, 0.0487499610, -0.0793303773, 0.0651198253, -0.0411314480, -0.0074525103, 0.0722919628, -0.0493870303, 0.0132517442, -0.0169204995, -0.0617704652, 0.0820778981, -0.0747616217, -0.0503066741, 0.0511519238, 0.0392613485, -0.0645601600, 0.0132593885, 0.0079319477, 0.0152981877, -0.0427816845, 0.0178577229, -0.0480304323, -0.0709113628, 0.0847158954, 0.0069232136, 0.0497662053, 0.0105634108, 0.0712652728, 0.0271264985, -0.0344080776, -0.0827425197, 0.0831887200, 0.0828714743, 0.0072101057, -0.0779009163, -0.0574336946, -0.0119073093, -0.0217354223, 0.0512335971, 0.0155989006, -0.0461536124, -0.0515057482, -0.0835695863, 0.0806198940, 0.0760994777, 0.0726927146, 0.0000226125, 0.0643497631, 0.0065088272, -0.0786144584, 0.0433298126, 0.0197091326, -0.0473801643, 0.0135070309, -0.0715338886, -0.0443105251, -0.0744165629, -0.0326733850, 0.0106890798, -0.0829003900, 0.0309029371, 0.0144524276, 0.0182591677, 0.0048005730, 0.0270395130, -0.0821575671, 0.0302842557, -0.0029349327, -0.0263536051, 0.0671574101, -0.0436278917, -0.0817788616, -0.0011913478, 0.0175864100, 0.0826843753, -0.0134619251, -0.0088073313, -0.0119330287, -0.0163416788, -0.0743334442, -0.0013400391, 0.0308664665, -0.0009568706, 0.0757047758, -0.0292768851, 0.0535450801, 0.0217716470, 0.0459187701, 0.0369823128, -0.0573372170, 0.0006758422, -0.0338331684, -0.0147599131, 0.0352921486, 0.0655180886, -0.0463005677, -0.0324711129, -0.0668810084, 0.0346283838, 0.0324287936, 0.0098815486, -0.0360098444, 0.0445197299, -0.0304431878, 0.0016229451, 0.0140730664, 0.0485466495, 0.0636426434, -0.0478283018, 0.0632753894, -0.0083517283, 0.0733170137, -0.0658809394, -0.0750981569, -0.0856054872, 0.0064923689, -0.0838992521, 0.0676700547, 0.0276854858, -0.0407873504, 0.0736996457, -0.0022619665, -0.0661499649, 0.0440452769, -0.0837255567, -0.0631617159, -0.0702087954, 0.0320489556, 0.0614444539, 0.0140222237, 0.0758879408, -0.0396913998, 0.0567556545, -0.0036277026, 0.0849833414, -0.0272378996, -0.0584843233, -0.0754159838, -0.0011867285, 0.0839341953, 0.0335329846, -0.0291779153, 0.0767467245, -0.0589682981, -0.0078991130, -0.0354730189, -0.0281172283, -0.0244141035, -0.0555480793, 0.0036375821, -0.0757721588, 0.0418958440, 0.0377192050, -0.0585566312, 0.0570741221, 0.0393384919, -0.0017355680, 0.0222229511, -0.0302107371, -0.0779175758, -0.0704294741, 0.0312856361, -0.0614510439, 0.0466135219, 0.0724504814, 0.0455270931, 0.0404284671, 0.0851043537, -0.0686640739, 0.0818126723, -0.0071813390, -0.0532550998, 0.0481067523, 0.0809151456, 0.0588766262, 0.0069902688, -0.0530315414, -0.0819931328, 0.0123300552, 0.0690911934, 0.0240824595, 0.0584842637, -0.0402062871, -0.0216986388, 0.0421070531, 0.0058182627, -0.0659802556, 0.0612043813, -0.0011067241, 0.0226844177, 0.0507202968, 0.0432826355, 0.0084735975, 0.0285535902, 0.0095109567, 0.0518369600, -0.0121438280, -0.0712279603, 0.0850974843, -0.0017902181, 0.0704555735, 0.0229650959, 0.0378559977, -0.0797165483, -0.0809032544, -0.0202682167, 0.0611706749, 0.0395991877, 0.0473427698, 0.0548365638, 0.0572834834, 0.0056608394, 0.0841974989, -0.0557131469, 0.0768586323, -0.0268649161, 0.0454842225, -0.0420435257, 0.0085253268, -0.0467698015, -0.0001799911, -0.0544913821, -0.0158572942, 0.0734379664, 0.0084421337, -0.0505219698, -0.0627004132, -0.0201701075, 0.0136529580, 0.0486439094, -0.0562853590, 0.0210307688, -0.0287665762, 0.0737326667, 0.0059469417, -0.0088506937, -0.0752932578, -0.0638794079, 0.0419722125, -0.0116570070, 0.0039812848, 0.0105614215, 0.0321975872, -0.0778792500, 0.0318775922, 0.0560173765, 0.0680335984, 0.0715669021, 0.0104745999, -0.0526189953, 0.0220219269, -0.0262312293, -0.0248752236, -0.0669625029, 0.0222302899, -0.0226562098, -0.0222747624, 0.0479302779, 0.0337789282, -0.0167675540, 0.0593873486, 0.0312764719, -0.0115146786, -0.0037196651, -0.0846068263, 0.0296916142, 0.0047811046, -0.0262925401, -0.0177360997, -0.0348311923, 0.0634282306, -0.0753401965, -0.0312760845, -0.0513055362, 0.0573238209, 0.0390371382, -0.0036761165, 0.0150967687, -0.0579412617, -0.0573364794, 0.0332459062, -0.0228706896, -0.0002868101, 0.0362070873, -0.0204115137, 0.0768008158, 0.0510368720, 0.0501844361, -0.0773306042, -0.0230788067, -0.0169543922, -0.0034507215, -0.0769041404, -0.0498365797, 0.0724632367, -0.0452393070, 0.0100876093, 0.0665374026, -0.0660499111, -0.0413735472, 0.0431424007, 0.0192200243, 0.0275764167, 0.0090450570, 0.0124315023, -0.0290867761, 0.0215676576, 0.0699879751, -0.0685092285, 0.0855329260, -0.0112297684, -0.0517052822, 0.0680389032, 0.0663146451, -0.0659222007, -0.0411837660, 0.0559667423, -0.0408513434, -0.0197862908, 0.0260277689, 0.0334213972, -0.0122030526, 0.0757997558, 0.0124138519, -0.0533780716, 0.0064195916, -0.0750892609, -0.0298377723, 0.0609221682, -0.0028899759, -0.0075521767, -0.0383996703, -0.0582715385, 0.0537276641, -0.0465070531, -0.0219285190, 0.0291764811, 0.0210491046, -0.0217268318, 0.0553625301, -0.0392111018, 0.0280240029, 0.0848430023, 0.0239574015, 0.0366312489, 0.0144477487, -0.0412149429, -0.0165389702, 0.0317298844, 0.0212936178, -0.0181605443, -0.0332575589, -0.0536414124, 0.0810570493, -0.0674712360, -0.0282754861, -0.0290893093, 0.0640167966, -0.0090407655, -0.0275820196, -0.0468812026, 0.0454586074, 0.0782385394, -0.0408236198, 0.0081782788, -0.0001345873, 0.0715188161, -0.0616285428, 0.0780462399, 0.0508909896, 0.0390252471, -0.0054938123, -0.0207623988, 0.0427930877, 0.0020215884, 0.0246074870, -0.0028232485, -0.0249952301, 0.0665041879, -0.0505386144, 0.0076139197, 0.0600742027, 0.0785034671, 0.0179917738, 0.0044665709, -0.0624728873, -0.0477057584, 0.0512998328, 0.0045796111, 0.0221204236, 0.0200243220, -0.0538182557, 0.0733950511, -0.0358780399, -0.0117153600, 0.0661938861, 0.0756643191, -0.0657515898, -0.0552359819, 0.0466432795, 0.0243012905, -0.0547124036, 0.0010865927, 0.0057284534, 0.0352781042, 0.0256818309, 0.0018800721, 0.0678748265, -0.0116549432, -0.0390141010, -0.0600026920, 0.0385783911, 0.0636291280, -0.0671662092, -0.0615520179, 0.0044677407, 0.0833820179, -0.0540741943, -0.0750391334, -0.0637540221, 0.0055036694, 0.0049588680, -0.0304345191, 0.0600207523, 0.0289415792, -0.0039813891, -0.0198746249, 0.0619633421, -0.0755125582, -0.0841162503, -0.0220894963, -0.0443078689, 0.0687874481, 0.0244463459, 0.0327080563, -0.0594486371, 0.0318569466, 0.0208288580, 0.0855746940, 0.0228917450, -0.0176275223, 0.0093484297, -0.0730825812, -0.0316058286, -0.0833665580, -0.0357629582, -0.0223395675, -0.0148956180, -0.0537469462, -0.0351693183, -0.0647650957, -0.0260137618, -0.0855392069, 0.0163949355, 0.0361980349, -0.0587378703, 0.0630980507, 0.0815115497, -0.0776164383, 0.0617888048, -0.0470215939, 0.0019097328, 0.0767065659, -0.0393407196, -0.0309219100, -0.0116786212, -0.0639004037, 0.0371846706, -0.0648888797, -0.0115850270, 0.0372348577, 0.0222819149, -0.0138273686, -0.0133870617, -0.0215800256, -0.0616135374, 0.0478373244, 0.0047112256, -0.0743441358, 0.0796146467, -0.0500636324, -0.0519259572, 0.0845421180, -0.0657722950, 0.0018205792, 0.0619769171, 0.0148828402, -0.0267178603, 0.0428369120, -0.0717500895, 0.0137946755, 0.0253465027, -0.0149664581, -0.0396388769, 0.0701538697, 0.0767976269, 0.0068642944, -0.0161774307, 0.0110281855, 0.0401435420, 0.0172471553, 0.0407135412, 0.0536755994, 0.0797475204, -0.0116824433, 0.0663981959, -0.0475425310, 0.0511575863, 0.0755771473, 0.0044814125, 0.0854139850, 0.0486182645, -0.0525726080, -0.0405809246, -0.0619111620, 0.0423437729, -0.0264261626, -0.0264256299, -0.0253272653, -0.0102615505, -0.0687496737, -0.0225992277, -0.0075554475, -0.0163933262, 0.0002666712, 0.0626845732, 0.0699320063, -0.0426246114, -0.0438238308, -0.0132272467, 0.0611023828, -0.0122379139, 0.0831480250, -0.0703353509, 0.0376723707, 0.0177004635, 0.0457431749, 0.0029667467, -0.0107833073, -0.0586134493, 0.0087787285, -0.0353782177, -0.0049934164, -0.0849338546, -0.0805421844, 0.0587720498, 0.0667846426, 0.0553453788, 0.0069669858, -0.0494904779, 0.0852443650, 0.0473479405, 0.0209943801, 0.0010912120, -0.0111228451, 0.0555282906, 0.0785569176, -0.0445054397, 0.0310921520, -0.0531072468, -0.0434077904, 0.0014909357, -0.0829523355, -0.0365029164, 0.0652207807, 0.0091294721, 0.0719818249, -0.0016250685, 0.0304089412, -0.0535405613, 0.0301898420, -0.0563061535, 0.0697456077, -0.0357358493, 0.0671912059, -0.0575880855, 0.0143732503, -0.0531050153, 0.0597636178, 0.0441832766, -0.0816690549, -0.0634322166, -0.0526837222, -0.0781482086, -0.0205726102, 0.0679591820, 0.0314402729, 0.0099943206, 0.0334791765, -0.0037559345, -0.0390717536, 0.0288267657, 0.0212428346, 0.0579159483, 0.0586974248, -0.0216688737, 0.0671631768, -0.0802006647, 0.0600382015, -0.0820029676, 0.0159542635, 0.0357937291, 0.0093574002, -0.0508521050, -0.0671942383, 0.0433901921, 0.0063946024, -0.0507560559, -0.0597910546, 0.0285824537, -0.0034877881, -0.0356517620, -0.0732186586, 0.0388126001, 0.0748104379, 0.0177622885, -0.0613705963, -0.0729936063, -0.0340417176, -0.0752094761, -0.0431444496, 0.0093356520, 0.0453277305, 0.0180729777, 0.0109063610, -0.0322402753, 0.0666638538, -0.0154199749, -0.0405117422, 0.0634968802, -0.0289655216, 0.0578759983, -0.0582558773, 0.0791999623, 0.0454628840, -0.0080039352, -0.0543117560, 0.0029884353, -0.0600366518, -0.0465203412, 0.0564189032, 0.0535856411, -0.0624967441, -0.0372580439, -0.0674957857, -0.0594173744, 0.0055628344, -0.0537798405, 0.0649368837, -0.0207173601, 0.0061028674, -0.0703251064, -0.0481859744, 0.0085497722, 0.0029228702, 0.0216455683, -0.0390860252, 0.0828351304, 0.0666095540, 0.0772997811, 0.0688665286, -0.0168746188, -0.0381620489, 0.0488450155, -0.0726777464, -0.0681303144, 0.0811315104, -0.0119650215, -0.0480773747, 0.0389239639, 0.0669866726, 0.0822851583, 0.0237878785, -0.0517446995, 0.0332651660, 0.0139963180, -0.0128214285, 0.0049072057, 0.0668528005, 0.0481282249, 0.0172888041, -0.0296637937, 0.0429742113, -0.0127860606, -0.0130333379, 0.0280273929, -0.0852745771, 0.0798839405, 0.0461845472, -0.0161159337, 0.0281029567, -0.0425572507, -0.0475509353, -0.0226411372, -0.0131830871, 0.0115562826, -0.0639225245, 0.0657273605, -0.0663194060, 0.0728895292, 0.0123914108, 0.0689395443, 0.0272196457, -0.0356573015, -0.0718681142, -0.0078073815, -0.0139754862, -0.0357705243, -0.0641792044, -0.0712040663, -0.0419111289, 0.0056869686, -0.0760825053, 0.0544370338, -0.0807958841, 0.0605491623, 0.0013924390, -0.0688105375, 0.0620135441, 0.0787386969, -0.0242609568, 0.0686705932, 0.0816622600, 0.0612252429, 0.0039694533, 0.0032581314, -0.0137124732, -0.0218526497, -0.0852034315, -0.0191237330, 0.0329969376, -0.0807338506, 0.0403821841, -0.0054468513, 0.0775697157, 0.0471772328, 0.0231456831, -0.0804640725, -0.0457789525, -0.0680512190, 0.0418463573, 0.0313650370, 0.0501107797, 0.0030576810, 0.0129903182, -0.0484282784, 0.0369519740, -0.0687608570, 0.0518048182, -0.0346023403, 0.0196085870, -0.0601586401, 0.0107672811, -0.0080951750, -0.0754755735, -0.0305881575, 0.0307478085, 0.0535576567, 0.0364002064, 0.0699955449, 0.0443000123, -0.0553456247, 0.0536473617, 0.0166614056, -0.0348365679, -0.0277580023, 0.0757968202, -0.0507015549, 0.0090519264, 0.0498763248, 0.0753292218, -0.0544334203, -0.0823070183, 0.0156236365, -0.0707430243, 0.0405748710, -0.0593437552, -0.0144289806, -0.0154937580, -0.0562489294, 0.0389275029, 0.0205365941, 0.0498791710, 0.0584568605, -0.0091561526, 0.0648972467, -0.0052007437, 0.0259575620, 0.0703391358, 0.0369536504, 0.0098804459, 0.0359737352, 0.0356783569, -0.0507549532, 0.0609166995, -0.0519417599, 0.0839231983, 0.0450375602, -0.0446129963, -0.0741595849, -0.0321689881, -0.0599587411, 0.0341478214, 0.0367858857, 0.0231319219, 0.0484680161, 0.0180117711, 0.0527637824, -0.0240017660, 0.0158863664, -0.0061430633, -0.0341146626, -0.0375326499, -0.0516138151, 0.0234534293, -0.0526669584, -0.0233347118, -0.0462994613, 0.0544627383, 0.0088514686, -0.0810369551, 0.0049304292, -0.0030641407, 0.0853173807, -0.0655324459, -0.0484650172, 0.0502998605, -0.0667522922, 0.0190544650, -0.0215566158, -0.0770158842, 0.0770055875, 0.0046945289, -0.0713315308, 0.0779310688, -0.0095421597, -0.0851186067, 0.0584935024, -0.0524248779, -0.0349617302, 0.0836437270, 0.0166502073, -0.0450970344, -0.0368902944, -0.0043748394, 0.0162194893, -0.0010304302, -0.0131965801, 0.0755691156, -0.0565316118, 0.0063015670, -0.0090320930, -0.0687970221, -0.0280468389, 0.0634578839, -0.0122229084, 0.0294169113, 0.0248731375, 0.0606575832, -0.0515253134, 0.0131138861, -0.0015319660, 0.0724258646, -0.0247290060, -0.0236024261, 0.0156294256, -0.0144064128, -0.0270725489, -0.0500205755, 0.0488478616, 0.0163842067, -0.0075821280, -0.0330917761, 0.0708119646, 0.0006149858, 0.0264390409, 0.0500884727, 0.0803474709, -0.0529875234, 0.0701568350, -0.0561810136, 0.0401177630, 0.0160822272, -0.0659855306, -0.0527174547, 0.0677233115, 0.0119557604, 0.0774391368, -0.0245119706, 0.0042966232, -0.0480589718, 0.0362139344, 0.0359062925, -0.0387164950, 0.0515004322, 0.0550163612, -0.0486434549, -0.0673843920, 0.0594617650, 0.0185599625, 0.0195993036, -0.0845449865, 0.0363591909, 0.0292454436, 0.0305131450, -0.0324477442, -0.0095648915, 0.0076854974, -0.0012533963, -0.0305761583, 0.0831636712, -0.0024439469, 0.0737575665, -0.0682309419, 0.0559719279, 0.0560976639, -0.0487003922, -0.0661699176, -0.0386091210, -0.0517588668, 0.0786103979, 0.0469674394, 0.0143259019, -0.0390057005, 0.0332611352, -0.0099663958, -0.0162018612, 0.0688360855, 0.0283989906, 0.0414228812, 0.0299784318, 0.0381547287, 0.0185112655, 0.0066815838, 0.0556691960, 0.0084670186, -0.0434642769, 0.0342299044, 0.0128454939, 0.0599199012, 0.0011987910, -0.0006477535, -0.0477521047, -0.0760046318, 0.0109859481, -0.0004943013, 0.0212698877, -0.0334459543, -0.0091262013, -0.0013014972, 0.0143073350, -0.0086813346, -0.0725157857, 0.0329521820, -0.0386345536, -0.0828831717, 0.0247785449, 0.0483297631, 0.0138499215, 0.0277478993, 0.0364418924, 0.0237522870, 0.0397353396, 0.0845720544, 0.0168372914, 0.0270676836, -0.0220821127, -0.0758865699, 0.0641842112, 0.0122857094, 0.0720450208, -0.0705936998, -0.0649722517, -0.0807317868, 0.0852231011, -0.0121882558, -0.0691155642, 0.0172978193, 0.0050107762, 0.0448723659, 0.0422916189, -0.0296071619, -0.0594816506, 0.0307134390, 0.0123643577, 0.0715590194, -0.0369395018, -0.0464537330, -0.0092354566, -0.0364667512, 0.0811664537, -0.0082813650, -0.0844238326, 0.0506547019, 0.0488428697, 0.0750008002, -0.0575818345, 0.0792106166, 0.0714168474, 0.0258131251, 0.0333819389, -0.0107271075, 0.0014879331, -0.0183079466, 0.0751224831, -0.0419147275, 0.0546806082, -0.0770204216, 0.0216163322, -0.0736201033, -0.0759340227, 0.0530851111, -0.0004899651, 0.0554629788, 0.0408117995, 0.0743782297, 0.0722065046, -0.0510166995, -0.0156737491, 0.0312780663, -0.0040631443, -0.0448742546, -0.0039372295, -0.0203028545, -0.0844658613, 0.0811272338, 0.0687990859, -0.0326686017, -0.0415207073, 0.0623779371, 0.0189284906, 0.0512864068, 0.0052316189, 0.0551990792, 0.0077690333, -0.0264020376, -0.0187436342, 0.0797051564, 0.0670047924, 0.0026138574, 0.0532405153, 0.0188670307, -0.0390909500, 0.0165734813, -0.0142574757, 0.0288260505, 0.0774266049, 0.0418710187, 0.0701504722, -0.0739229620, -0.0319817364, -0.0594369844, -0.0019260719, -0.0706762522, -0.0259719342, 0.0037849844, -0.0763090700, -0.0149961486, -0.0574719645, 0.0474422798, -0.0176906511, -0.0491533950, 0.0839261189, 0.0104149804, -0.0736376047, 0.0627299920, -0.0681696087, -0.0618718676, -0.0516362004, -0.0255212002, -0.0113639608, 0.0447356477, 0.0099167153, 0.0805435404, 0.0257078111, -0.0837419555, -0.0168130472, 0.0713036284, -0.0253400244, 0.0176596195, 0.0589236692, 0.0519312099, 0.0585995838, -0.0508010760, 0.0223700702, 0.0775062069, -0.0125098601, -0.0078950673, 0.0188719779, 0.0264532343, 0.0030617863, 0.0419738516, 0.0279387310, -0.0306926481, 0.0270561129, 0.0492643043, 0.0078231022, -0.0453023165, -0.0174033493, 0.0620842651, 0.0851488784, -0.0059851483, -0.0147435367, -0.0654140562, 0.0171164125, 0.0307994112, 0.0734694824, -0.0446386971, -0.0037367344, 0.0556465164, 0.0168900341, -0.0659766346, 0.0132793039, -0.0614069849, -0.0747221708, -0.0560263544, -0.0078479871, -0.0586820170, -0.0126094446, -0.0783770829, 0.0786901936, 0.0304946899, -0.0608195625, 0.0275685489, -0.0805383474, 0.0817613974, 0.0578827336, -0.0783900619, 0.0781607255, 0.0727106407, -0.0648295134, -0.0267726108, -0.0302990563, 0.0410553589, -0.0658841729, -0.0372363143, 0.0301524922, -0.0759587586, -0.0213892758, 0.0295281485, -0.0593276657, -0.0510953106, 0.0391505063, -0.0339481235, -0.0824790969, 0.0768182054, -0.0486075953, -0.0584103949, -0.0584921092, 0.0561560467, -0.0366542228, -0.0109264329, -0.0702272803, -0.0628871098, 0.0206647143, 0.0255386606, -0.0254505426, -0.0084075034, 0.0849009529, -0.0363899209, 0.0243465528, 0.0052040145, -0.0094992891, -0.0466495082, -0.0204284638, -0.0426622517, -0.0480112769, -0.0275339745, -0.0559687614, -0.0831786543, 0.0229642391, -0.0492064059, -0.0025132298, 0.0393920764, -0.0125208199, 0.0686308667, -0.0388690718, -0.0074927881, 0.0216454044, -0.0750003755, 0.0633867905, 0.0348772705, 0.0341529995, 0.0137605816, -0.0651436821, 0.0164763480, 0.0627832487, -0.0434600674, 0.0042516217, 0.0242883712, -0.0434678160, -0.0819114372, -0.0077147707, -0.0434202626, -0.0456344299, -0.0759073421, 0.0549712852, 0.0002493188, 0.0212931260, 0.0316742808, -0.0678153485, 0.0293848068, 0.0093650669, -0.0151266605, -0.0146623105, 0.0621052757, 0.0359802991, -0.0699272007, 0.0143167824, -0.0369817391, 0.0806736574, -0.0681310743, -0.0513176993, 0.0746046975, 0.0853114501, 0.0425141975, 0.0444411263, 0.0161536783, 0.0521281883, -0.0048773363, -0.0714330226, -0.0601828918, -0.0210671797, 0.0376736149, -0.0059880689, -0.0764650553, 0.0345457271, 0.0318046883, -0.0722896531, 0.0688018426, -0.0485968813, 0.0576983616, 0.0739143267, 0.0312550068, 0.0139324516, 0.0649501011, 0.0056129023, 0.0627344921, -0.0297890529, 0.0760518536, -0.0846737400, 0.0515766069, -0.0338953175, 0.0464025661, 0.0714870915, 0.0538419560, 0.0697118416, 0.0305330157, -0.0448541157, -0.0827931613, 0.0121999905, 0.0096668229, 0.0549134538, -0.0734665841, 0.0411398038, -0.0306761488, 0.0442319438, 0.0790515170, 0.0563190952, -0.0742544681, -0.0193949044, 0.0415543392, 0.0681572184, -0.0408024192, 0.0510565415, 0.0500185713, 0.0192030147, 0.0286669508, -0.0461838283, -0.0117945820, 0.0145159513, -0.0547356680, -0.0739148855, 0.0688586161, -0.0276511200, 0.0375462249, 0.0154693872, 0.0619312003, -0.0591061339, -0.0687551349, 0.0291815773, 0.0264621004, 0.0725678429, 0.0343443304, -0.0089870989, -0.0014969707, 0.0364932865, -0.0813557655, -0.0534726866, 0.0239570960, -0.0210265145, -0.0265139490, -0.0638709441, 0.0158151835, 0.0416407213, -0.0838962048, -0.0369333886, 0.0162895247, -0.0042438135, 0.0555810407, -0.0697788149, 0.0645239279, -0.0128550828, 0.0809048340, -0.0326748192, 0.0562445149, -0.0358589850, -0.0270403065, -0.0338873453, 0.0613121912, -0.0745572820, -0.0612307787, -0.0599128827, 0.0329077393, -0.0114249662, 0.0709322914, 0.0653318688, -0.0100937635, 0.0142339244, 0.0283283964, 0.0554695502, 0.0254038721, 0.0694058463, -0.0001394078, 0.0079154521, 0.0487450138, 0.0214714631, 0.0558767840, -0.0445550792, -0.0707398355, -0.0704492182, 0.0836143419, -0.0443936735, -0.0308415443, -0.0187832713, -0.0328114256, -0.0714483708, -0.0291126780, 0.0157613084, -0.0281361602, 0.0652020946, 0.0456324294, -0.0670438260, 0.0258376971, 0.0114836618, 0.0313265845, 0.0030288696, -0.0112200975, -0.0238867253, -0.0150625706, -0.0220387280, 0.0146046206, -0.0329215378, 0.0236439481, 0.0311482251, -0.0598129332, 0.0524863973, -0.0221976638, -0.0651277155, 0.0663526878, 0.0410440639, -0.0249843150, 0.0009482652, -0.0672717616, 0.0443706140, -0.0562227406, -0.0653932020, -0.0259209238, -0.0336030275, 0.0154623762, -0.0411316119, 0.0606810078, 0.0247114226, 0.0206561908, 0.0812105909, 0.0819667056, 0.0052449629, 0.0790031925, -0.0142478868, 0.0451681241, -0.0668343604, -0.0022760332, 0.0501227304, -0.0350283161, -0.0813430101, 0.0186476707, -0.0505921543, 0.0114307553, -0.0466856547, -0.0196142122, 0.0474440530, -0.0390589759, 0.0411523357, -0.0283803865, 0.0613082275, -0.0753419921, 0.0729570314, -0.0121264085, -0.0784324259, -0.0559914149, 0.0304336399, 0.0504781827, -0.0547979400, -0.0798311979, -0.0769805759, -0.0743780509, 0.0129889697, 0.0389703512, -0.0289594680, 0.0219165981, -0.0854526833, 0.0606700554, -0.0483971015, -0.0140423998, 0.0212827846, -0.0263682641, -0.0218715370, -0.0634383634, 0.0359713435, -0.0643878356, 0.0242025256, 0.0611875728, 0.0352691710, 0.0582273975, -0.0414462090, -0.0547224432, -0.0347637869, -0.0149214864, 0.0764787719, 0.0590494648, 0.0095961541, 0.0629816428, 0.0532698110, -0.0495702326, -0.0248252377, -0.0079762712, 0.0380056724, 0.0600266382, 0.0713117644, 0.0393917635, -0.0573586822, 0.0729135647, -0.0027946457, -0.0367179886, 0.0299465731, -0.0628654584, 0.0842157230, -0.0783983842, -0.0818411112, -0.0582317933, -0.0675072819, 0.0444187000, 0.0223582759, 0.0225847140, -0.0253040008, 0.0694767758, 0.0099655986, 0.0833548680, -0.0522964485, 0.0231497288, 0.0573203340, 0.0191214010, -0.0662437007, -0.0187843964, -0.0004498139, -0.0587889627, -0.0042608455, 0.0408565924, -0.0299000852, -0.0520181209, 0.0440014079, -0.0005900785, -0.0696067363, -0.0808901265, 0.0224296227, -0.0129305646, 0.0312689096, 0.0252901763, -0.0531185307, -0.0008155033, 0.0730134025, -0.0099756792, 0.0525134876, 0.0450904444, -0.0663752183, -0.0613549352, 0.0851693675, 0.0856914297, 0.0604927763, 0.0397324935, 0.0162515044, 0.0178565755, -0.0174619257, -0.0313876085, 0.0729065016, 0.0705710724, 0.0807033703, 0.0328754187, -0.0678041279, -0.0013941303, 0.0156623647, 0.0136484653, -0.0135292113, 0.0412325636, -0.0744429380, -0.0855472237, -0.0692039207, -0.0498864427, 0.0380485579, 0.0002723783, -0.0702795982, 0.0187317133, -0.0739989281, -0.0566226095, 0.0734824464, 0.0119046122, 0.0798190609, 0.0142891854, 0.0468630120, -0.0810095221, 0.0392021909, 0.0650454238, -0.0174982697, -0.0287730768, -0.0226580873, 0.0108417347, 0.0652533248, 0.0816192552, 0.0271546692, -0.0812952891, 0.0197205991, -0.0651571900, 0.0739717856, -0.0718015879, 0.0290388539, 0.0183721408, 0.0132940188, -0.0337840617, 0.0296908841, 0.0358450413, -0.0072722957, -0.0147982463, 0.0367999077, 0.0494840518, 0.0031705499, -0.0363239907, 0.0626911744, 0.0618615076, 0.0334508792, 0.0214004219, 0.0209196135, 0.0552275106, 0.0756146535, 0.0736190602, 0.0390938148, 0.0470567420, 0.0295488760, -0.0061970949, 0.0513106957, -0.0775437951, -0.0763234645, -0.0038553476, -0.0130786598, 0.0007746145, -0.0616422594, 0.0521845743, -0.0161773339, -0.0700789168, -0.0293815397, -0.0791401267, 0.0183326602, -0.0109508857, -0.0101871118, -0.0098007172, -0.0064144954, 0.0089539140, 0.0128106549, -0.0086733773, 0.0838251635, -0.0143068880, 0.0070185438, 0.0533423498, -0.0768136531, 0.0720123872, 0.0622986183, 0.0255917758, 0.0154118612, -0.0367440358, -0.0054913387, 0.0561649725, -0.0741405711, 0.0028992146, 0.0566653833, 0.0050799400, 0.0540592447, 0.0497373268, 0.0621112064, -0.0013265014, -0.0226592571, 0.0672446564, 0.0444923565, 0.0805721357, 0.0819393322, -0.0089547932, 0.0447691754, 0.0547343120, 0.0057592988, -0.0132757872, -0.0607308969, -0.0357237682, 0.0752782151, -0.0226510167, 0.0024640784, 0.0461234376, -0.0690612420, -0.0475402623, -0.0524634570, -0.0539541282, -0.0517849550, 0.0534453169, 0.0705910847, -0.0249954760, -0.0380029082, 0.0649914369, 0.0142965838, -0.0731843561, 0.0683056489, 0.0700023547, -0.0567286126, -0.0409493111, 0.0638312027, -0.0779100731, -0.0589717105, 0.0493024364, -0.0204543248, 0.0814589635, -0.0141151026, -0.0360052027, 0.0129358172, 0.0810985640, 0.0561156943, -0.0669368207, -0.0271335952, 0.0561160669, -0.0167713612, 0.0533804074, -0.0364140458, 0.0127992928, -0.0800932348, 0.0832044408, 0.0271450207, 0.0830577239, 0.0427986160, 0.0037938952, 0.0006125718, 0.0528159216, -0.0847005844, -0.0032599941, 0.0515753403, 0.0633194819, -0.0022177249, -0.0642285347, -0.0174319893, 0.0328879654, 0.0816238448, -0.0350707583, -0.0663387924, 0.0069619343, 0.0324792713, -0.0602454916, 0.0031815693, -0.0470593534, 0.0653164163, 0.0612549707, -0.0493936948, -0.0234997571, 0.0197257325, 0.0850535259, -0.0389001854, 0.0502218679, 0.0199587345, 0.0164945647, 0.0470601097, 0.0469443575, -0.0524341799, -0.0263937376, -0.0056822076, -0.0417261720, -0.0190659985, 0.0446688309, -0.0108882263, -0.0194506347, 0.0792592987, -0.0393792354, -0.0015844703, 0.0367201567, -0.0459268056, 0.0014702082, -0.0736428946, 0.0100335330, 0.0121222809, 0.0225721821, -0.0353299491, 0.0447070673, 0.0546208099, 0.0401256904, -0.0308995433, 0.0025303438, 0.0192958117, 0.0472229049, 0.0709886625, -0.0748958811, 0.0130316168, -0.0202002600, 0.0612480119, -0.0383572094, 0.0359812230, -0.0154456720, -0.0649454892, 0.0485960171, -0.0548490956, 0.0650519207, -0.0377086140, 0.0753230974, 0.0379281864, 0.0687631890, -0.0554042757, 0.0165837184, 0.0427026525, -0.0489078164, 0.0233135894, -0.0739689842, 0.0570423082, -0.0151089579, 0.0660022125, 0.0234079584, 0.0693868622, 0.0217108428, -0.0528720953, -0.0311077684, 0.0770714954, -0.0139684975, -0.0308254138, 0.0730759129, 0.0429663435, -0.0573229268, -0.0727673918, 0.0586252883, -0.0135616958, 0.0398947969, -0.0354242176, -0.0614482462, 0.0583763793, 0.0755010173, 0.0651905164, -0.0706601441, 0.0267737582, -0.0157373697, -0.0230449960, -0.0751781762, -0.0760953054, 0.0290928036, 0.0795944557, 0.0698690340, -0.0404448099, 0.0680704191, 0.0658219829, 0.0813215151, 0.0414396301, -0.0677196309, 0.0527913347, -0.0836511999, -0.0769994110, -0.0606435984, -0.0331656225, 0.0111617669, -0.0601896979, 0.0658334270, -0.0078450218, 0.0040467530, 0.0716877058, 0.0549319759, 0.0481252596, -0.0540642403, -0.0701823235, -0.0516039617, -0.0048930421, 0.0106415078, 0.0151954740, 0.0790871307, 0.0670426562, 0.0690564439, 0.0770788565, -0.0072458610, -0.0403884836, -0.0107645169, -0.0549373701, 0.0240754262, 0.0260666683, -0.0501354523, 0.0545534119, 0.0852359012, 0.0362829790, -0.0173979923, 0.0337044075, 0.0704101995, -0.0227933079, 0.0347438529, -0.0610095300, -0.0354694016, 0.0448901579, 0.0063219294, 0.0442624167, -0.0274467394, 0.0625072941, -0.0836644918, -0.0528016649, 0.0642677322, -0.0643178523, 0.0137649924, -0.0146510452, 0.0302849934, -0.0231839940, 0.0592624918, -0.0765769705, 0.0222527832, -0.0408731140, 0.0740506127, -0.0441354625, 0.0548874661, -0.0218805298, 0.0522671565, -0.0569437444, -0.0650877208, -0.0146465525, -0.0351391844, -0.0748549923, -0.0251637921, 0.0453509912, -0.0261670314, 0.0428070799, -0.0632796735, 0.0262405872, -0.0818520710, -0.0541979633, -0.0350298882, 0.0713246092, 0.0056056231, 0.0306353644, -0.0577758253, -0.0400121063, -0.0809425488, -0.0663543046, -0.0340838954, -0.0173746273, 0.0469982997, 0.0228241980, 0.0541058853, -0.0106593296, -0.0148670226, 0.0218073800, 0.0299903303, 0.0230070278, 0.0365836099, -0.0351386331, -0.0488436855, 0.0003418699, -0.0719889179, 0.0606448278, 0.0595390126, 0.0010415092, -0.0332128480, 0.0436932370, 0.0232229009, 0.0307835191, 0.0510426089, 0.0517836586, 0.0778386071, -0.0107033104, 0.0558691844, -0.0491357520, 0.0284118876, 0.0298282653, 0.0659749582, 0.0109931231, -0.0323925838, 0.0603795275, 0.0472293422, -0.0389310569, -0.0047775880, -0.0148046613, -0.0505635738, -0.0119639784, 0.0678046420, -0.0743365288, -0.0214358717, 0.0600125715, -0.0522661917, -0.0015635118, -0.0436011106, 0.0013649166, -0.0502107888, 0.0408692136, 0.0012130141, 0.0300611481, 0.0010114610, -0.0751644596, -0.0300702043, -0.0055410564, 0.0172679871, -0.0785026923, 0.0445327684, -0.0399657786, -0.0203730762, -0.0153989792, -0.0262934789, 0.0528654382, -0.0202295184, -0.0622196868, 0.0704776570, -0.0676934198, -0.0177385509, 0.0140839219, 0.0256655738, 0.0422773734, -0.0610249452, -0.0389241464, -0.0586580783, 0.0809380934, 0.0661601499, 0.0485351160, 0.0514471158, -0.0321989581, -0.0664913058, -0.0552405789, -0.0338226184, -0.0104024112, -0.0681528226, -0.0144648850, -0.0072127804, -0.0661189109, 0.0422877893, -0.0267168991, 0.0183177963, 0.0298457667, 0.0278372467, 0.0786179528, -0.0454118140, 0.0293194726, -0.0341129452, 0.0298637152, 0.0151375607, -0.0114041567, 0.0417900756, 0.0257807150, 0.0120502561, -0.0440072156, 0.0122373402, -0.0798060298, -0.0577136576, -0.0340420455, 0.0161830336, -0.0081985816, -0.0484899171, 0.0639088824, -0.0156623796, -0.0788270235, -0.0714742988, -0.0195949078, 0.0410556272, 0.0609986112, -0.0735495090, 0.0608496293, 0.0468593016, 0.0080781430, 0.0750605986, -0.0306316018, 0.0630487427, 0.0787840411, -0.0442881584, 0.0511228219, -0.0257592127, 0.0837183073, -0.0513337106, -0.0304941759, 0.0363304317, 0.0812760964, 0.0100956410, 0.0678615198, 0.0682815984, -0.0313888341, -0.0460689515, 0.0085627958, 0.0379238129, 0.0372809619, -0.0579538755, -0.0243100636, 0.0770776644, 0.0512030646, 0.0601635501, -0.0800902247, -0.0072717890, 0.0705825016, -0.0707141012, -0.0106078982, -0.0327188969, 0.0636088476, 0.0368558243, 0.0223557800, -0.0107510462, 0.0373165384, -0.0213508829, -0.0804124922, -0.0671570301, -0.0826352090, -0.0445116945, 0.0036722496, -0.0694299936, -0.0044533685, 0.0143636838, 0.0050062165, 0.0197879672, -0.0335091650, -0.0821112618, -0.0027458817, -0.0457982495, -0.0488998443, -0.0031020418, 0.0183966160, 0.0747010335, 0.0689926073, -0.0534538776, -0.0229678974, -0.0048840195, 0.0411826149, 0.0240598693, -0.0433765911, 0.0520949438, 0.0839713141, 0.0165337771, 0.0421353206, -0.0249968469, 0.0299553499, -0.0183563158, 0.0322052538, 0.0542808101, -0.0340759419, 0.0311062783, 0.0488305315, 0.0200031772, 0.0713902041, -0.0765525997, -0.0395434834, 0.0466616675, -0.0439629927, 0.0846794918, -0.0570171624, 0.0068648458, -0.0849726573, 0.0663608089, 0.0740206614, -0.0810477138, -0.0278394297, -0.0520551838, 0.0236071944, -0.0662053078, -0.0847136080, -0.0659579709, 0.0226569623, 0.0663165376, -0.0750114098, -0.0110055730, 0.0715492591, 0.0292211547, 0.0759195015, -0.0329685807, 0.0707930699, 0.0739054605, -0.0589057803, -0.0265785344, -0.0843760297, -0.0676217675, 0.0481278971, 0.0602146164, -0.0098646209, 0.0239516348, -0.0527109951, 0.0472773090, 0.0278339088, -0.0317250192, 0.0610880330, -0.0218452066, 0.0492169783, -0.0255096480, -0.0078234747, -0.0430464596, 0.0019790381, 0.0815002248, 0.0023790151, 0.0475185141, -0.0339014903, -0.0144615695, -0.0098051280, -0.0563314632, 0.0779278651, 0.0492127463, 0.0406297669, -0.0770044550, 0.0222763345, -0.0356046371, 0.0842445716, 0.0442327186, 0.0746704265, -0.0388626494, 0.0007404089, 0.0580950901, 0.0553468242, -0.0764278322, 0.0009861887, 0.0054583400, -0.0226312280, -0.0654243380, -0.0685172230, -0.0359424800, -0.0849104673, 0.0458241329, -0.0111738145, 0.0518287793, 0.0311509669, -0.0696867779, 0.0552003905, -0.0303315409, 0.0700734779, 0.0751492307, -0.0845563486, 0.0630579665, -0.0582732968, 0.0694209412, 0.0234433115, -0.0819779038, -0.0762949437, 0.0507545844, 0.0415460542, 0.0142752603, 0.0107313767, -0.0045119822, 0.0188374072, 0.0593659356, 0.0221550614, 0.0185706541, -0.0685161576, -0.0315702148, -0.0772091448, -0.0413312279, 0.0586109385, 0.0319140479, -0.0484605990, -0.0416347645, 0.0028359592, -0.0141941011, 0.0012393892, -0.0287557431, -0.0077226385, -0.0636532158, -0.0659385920, 0.0241263136, 0.0093357116, 0.0639771894, -0.0109933913, -0.0697563663, 0.0163740441, 0.0428628251, 0.0125053823, 0.0358058512, 0.0811760202, -0.0172180012, 0.0032313913, 0.0272513703, 0.0355449617, -0.0559532642, 0.0343027487, -0.0585059933, 0.0156259313, -0.0473848879, 0.0510391071, 0.0652742013, 0.0786184892, 0.0678971931, 0.0038394853, 0.0270852819, -0.0721901879, 0.0730255619, 0.0515696928, 0.0314191356, 0.0542149171, -0.0750398934, 0.0745619014, -0.0656290501, -0.0077298582, 0.0233870447, 0.0114401355, -0.0813262835, 0.0598315969, -0.0685300007, 0.0244416222, -0.0419660620, -0.0439105146, -0.0142911673, 0.0856596157, -0.0168028250, -0.0575008914, -0.0631087869, -0.0086662471, -0.0574139431, 0.0362894386, -0.0644385964, -0.0187585354, -0.0200637132, -0.0811717287, 0.0604869351, -0.0119862854, 0.0214606673, -0.0511808284, -0.0602678359, 0.0525034890, -0.0375146605, 0.0330345780, 0.0066874251, -0.0196132511, 0.0012944490, -0.0655390322, -0.0151202381, -0.0213836133, -0.0362476893, 0.0707804337, 0.0363249108, 0.0467745587, 0.0748586133, -0.0350022912, -0.0021938458, 0.0669827834, 0.0630706623, 0.0672481135, 0.0466675982, 0.0561364666, -0.0664165393, 0.0689504966, 0.0288450792, 0.0809490457, 0.0831943080, -0.0063407570, 0.0357322544, -0.0582391135, -0.0022555515, -0.0461063050, 0.0490262583, 0.0119036734, 0.0190875828, -0.0065771341, 0.0520102456, -0.0445959680, -0.0471117124, 0.0815729275, -0.0723245740, -0.0783483163, 0.0214622840, 0.0295462385, -0.0415485315, -0.0370079502, -0.0585513562, 0.0315813199, -0.0331019573, 0.0642630085, 0.0042932853, 0.0265956894, -0.0281342566, -0.0018479973, -0.0748095438, -0.0765506774, 0.0329816267, -0.0787512138, -0.0072198957, 0.0521137044, 0.0262774527, -0.0552873984, -0.0807137564, -0.0035395101, 0.0557343289, 0.0394786820, 0.0188018978, 0.0220633224, 0.0814866349, 0.0513216928, 0.0384412110, -0.0123043954, -0.0835331753, 0.0109808818, -0.0144350305, -0.0551242121, 0.0560202971, 0.0734873638, 0.0288270935, -0.0206642821, 0.0775022879, 0.0527791604, -0.0764327794, -0.0755042583, 0.0856833979, 0.0531761423, -0.0041536540, -0.0837856829, -0.0829637274, 0.0555306152, -0.0110540465, 0.0402737930, -0.0323158577, -0.0711604580, 0.0268795565, 0.0787542239, -0.0179939643, 0.0422569290, -0.0235706978, -0.0454996638, -0.0357092731, -0.0548007637, 0.0274437368, -0.0277558565, -0.0615892261, 0.0130314156, -0.0369929224, -0.0104157403, 0.0808482990, -0.0445233695, 0.0296645090, -0.0692070499, 0.0851779506, -0.0541788489, 0.0374414474, -0.0000933260, 0.0176037252, 0.0171096250, -0.0204243958, -0.0403720886, 0.0101119801, 0.0093868002, 0.0253335014, 0.0614728853, -0.0657875538, 0.0027799234, 0.0319405869, 0.0406745598, -0.0168749094, 0.0768917874, -0.0085718334, -0.0130870640, -0.0106849298, 0.0406475142, 0.0046263039, 0.0843681619, 0.0667200461, -0.0098944753, 0.0800406858, -0.0348859616, 0.0080216154, -0.0706907883, 0.0510411933, 0.0467578694, -0.0096467733, 0.0759638622, -0.0791827887, 0.0491551980, -0.0517070815, 0.0844122395, 0.0507354960, -0.0360162221, 0.0594958887, 0.0726377741, 0.0388018712, 0.0225009918, 0.0604182854, -0.0295001157, 0.0420012847, 0.0148438588, 0.0530169830, -0.0434509069, 0.0661858246, -0.0187567398, 0.0541849360, 0.0857049450, -0.0502269007, -0.0538415015, -0.0312192105, -0.0118768886, -0.0253531262, 0.0728759244, 0.0278106853, -0.0778265446, -0.0349990204, 0.0248486847, -0.0104494095, -0.0317499824, -0.0325166397, -0.0832305253, 0.0066509545, 0.0078419745, -0.0386831313, -0.0177147537, 0.0141010359, 0.0106116757, -0.0756146982, -0.0311132260, -0.0113526955, 0.0425675735, 0.0409388915, -0.0579026826, 0.0373632908, -0.0570248887, -0.0271725804, 0.0094321296, -0.0653948560, 0.0013141334, 0.0319972560, 0.0412874594, -0.0543102026, 0.0118764788, -0.0689973980, 0.0745408013, 0.0165934935, -0.0141352788, -0.0064674467, -0.0443147756, -0.0341521986, -0.0325526856, -0.0247126929, -0.0141803622, -0.0202895626, 0.0089599639, -0.0049673915, -0.0515355356, 0.0788374618, 0.0278223604, -0.0644856989, 0.0336956382, -0.0309728161, -0.0197557211, 0.0566741154, -0.0472526737, 0.0435118154, 0.0688134953, -0.0628640056, 0.0154921040, 0.0080061033, -0.0434312820, 0.0850356892, -0.0434614569, -0.0187479258, 0.0402008519, -0.0413432308, -0.0305093862, -0.0568947643, 0.0504890904, -0.0640226454, -0.0178018659, -0.0129824877, -0.0607795343, 0.0658163950, 0.0298911706, -0.0335199423, -0.0187376663, 0.0857400522, -0.0064060986, 0.0388939530, -0.0801247805, 0.0570311323, -0.0754669532, -0.0820353106, 0.0456785932, -0.0851333439, -0.0005531386, -0.0236564204, -0.0806836188, -0.0207239389, 0.0257047266, -0.0191553161, -0.0715799928, -0.0200320259, 0.0083677769, -0.0506210625, -0.0021024868, 0.0753210261, 0.0129219964, -0.0373848602, 0.0167116001, -0.0749717727, -0.0429904610, 0.0294138193, -0.0002860352, -0.0775688216, -0.0572931617, -0.0651164874, -0.0546059683, 0.0027540624, -0.0231810957, 0.0818733796, -0.0194435194, 0.0669793412, 0.0724800155, -0.0744300187, 0.0853375420, -0.0423894636, 0.0087830201, 0.0529343411, 0.0757367685, -0.0523729697, 0.0385480747, -0.0125927851, -0.0721273422, 0.0678125545, 0.0530507341, 0.0464859530, -0.0356588140, -0.0182529911, 0.0193347558, -0.0472548604, -0.0709263086, 0.0035571903, -0.0461002141, -0.0141787231, -0.0055454969, 0.0335954800, -0.0657240897, 0.0033718869, -0.0422110856, -0.0670803040, 0.0807580575, -0.0403513573, -0.0161959380, -0.0371745080, -0.0091606900, 0.0047128052, 0.0212217793, -0.0695427433, 0.0429616496, 0.0149557665, -0.0381765850, -0.0493108556, 0.0527544543, -0.0293626301, 0.0302414224, 0.0657117590, -0.0177749246, -0.0147586837, -0.0357082896, 0.0588297918, -0.0694740936, 0.0000409111, -0.0753670186, -0.0744205713, -0.0210205689, 0.0768199638, -0.0330295265, 0.0408494994, 0.0031241402, -0.0257973410, -0.0162657946, 0.0352272615, -0.0750102252, 0.0514174923, -0.0154689550, 0.0437151864, -0.0810998231, -0.0336209573, -0.0470130481, 0.0145591274, 0.0100434273, 0.0505516902, -0.0690231547, -0.0411698632, 0.0241607800, 0.0289264321, 0.0268448219, -0.0469261594, -0.0618463531, -0.0722221062, 0.0440570340, -0.0756264329, 0.0303691775, 0.0136767179, 0.0226889998, 0.0750611052, -0.0013393834, 0.0071232170, 0.0170566961, -0.0396737531, 0.0823819265, -0.0142575577, 0.0401620045, -0.0687261820, 0.0086161941, 0.0163091719, 0.0687517598, 0.0159446746, -0.0503142588, -0.0147145018, 0.0814025477, 0.0265587866, -0.0284178182, 0.0168432221, 0.0240596384, 0.0616226122, 0.0056519881, 0.0391723216, -0.0598218665, -0.0306379199, 0.0599028096, -0.0762447715, -0.0830136091, -0.0326461345, -0.0473209359, -0.0392876454, 0.0780302808, 0.0661194697, 0.0631981716, -0.0250856541, -0.0540359020, -0.0145731717, -0.0633987635, -0.0278438069, 0.0823557302, 0.0123950914, 0.0017976016, -0.0268613808, -0.0833924785, -0.0685488731, 0.0127963647, 0.0095388666, -0.0751987249, -0.0255723111, 0.0017663613, -0.0462232456, -0.0485103615, -0.0162220448, 0.0486985371, 0.0298998207, -0.0151960105, -0.0000002012, -0.0350689590, -0.0696902275, 0.0306820348, -0.0847849995, 0.0723481700, -0.0725202858, -0.0189310834, -0.0710009113, -0.0372051150, 0.0161063895, -0.0119168162, 0.0297794044, 0.0012073368, -0.0429880284, 0.0719862953, 0.0692234263, -0.0465163551, 0.0128643662, 0.0788929686, -0.0677460432, -0.0696528554, 0.0297981948, 0.0085975900, -0.0438861437, 0.0312519372, 0.0540985391, 0.0736654028, -0.0336062759, 0.0559671745, 0.0659253374, 0.0112097114, -0.0077799037, 0.0649584010, -0.0450243130, 0.0751493946, -0.0720012635, -0.0030194893, 0.0243320391, -0.0775832757, 0.0027451888, 0.0605213568, 0.0799873993, 0.0657935366, -0.0117008835, 0.0262546390, -0.0796834901, -0.0168630481, -0.0035994947, -0.0415866598, -0.0665725246, -0.0496912412, -0.0569815710, -0.0409044363, 0.0740465298, -0.0414943956, 0.0593852773, 0.0717454329, 0.0745628104, 0.0032251775, 0.0351829752, -0.0136032775, 0.0068654194, 0.0694109425, -0.0090059042, 0.0430982485, 0.0675140247, 0.0393478051, 0.0238545015, 0.0211881101, 0.0562839732, -0.0288537517, -0.0843504965, 0.0216468945, 0.0673329458, -0.0554930866, 0.0663019642, 0.0742373690, -0.0252150483, -0.0633560345, 0.0409288928, 0.0376163721, 0.0673562959, 0.0027271956, 0.0004234985, 0.0213571191, 0.0430739745, -0.0187648162, 0.0464782640, 0.0790309682, -0.0744730756, -0.0211463422, 0.0260751322, -0.0055377483, 0.0838335231, 0.0300934240, 0.0612273887, 0.0678673163, -0.0316072628, 0.0393674001, -0.0712743551, -0.0062791556, -0.0010695010, 0.0178794935, 0.0811411068, 0.0283280462, -0.0294833928, 0.0495431498, -0.0418426618, -0.0306876190, -0.0016938075, -0.0646585226, 0.0812347308, 0.0506302789, 0.0220349059, 0.0086428970, 0.0856974795, -0.0481373556, 0.0100515634, -0.0134689584, 0.0730803385, 0.0452779010, -0.0033831894, -0.0485253669, -0.0131673664, 0.0129402950, -0.0600606352, -0.0127962008, 0.0427274033, -0.0852204785, -0.0155905634, -0.0664141253, 0.0486724302, -0.0219463408, -0.0603977963, 0.0778025463, 0.0146664605, -0.0360225402, -0.0402582772, -0.0017544627, 0.0338622555, 0.0104396790, -0.0561986975, 0.0673036799, 0.0629848912, -0.0378436483, -0.0202283710, 0.0315740779, 0.0255234465, -0.0561692379, -0.0038668588, -0.0129853114, 0.0128330439, 0.0432545170, -0.0132553205, -0.0239395723, 0.0192967504, -0.0258704089, 0.0162024125, 0.0219250396, -0.0198800489, -0.0138628781, -0.0448847003, -0.0207441226, -0.0479963943, 0.0423640981, 0.0107054338, 0.0394262001, -0.0157054812, -0.0596474335, -0.0362041444, 0.0557708666, 0.0289385095, -0.0092342272, -0.0548469275, 0.0429449901, -0.0090030432, 0.0046712831, -0.0251850747, 0.0243840888, 0.0297684222, 0.0514789298, 0.0132165402, 0.0160700828, -0.0361154154, 0.0749607757, 0.0206005201, -0.0791283250, -0.0819103792, -0.0467468239, -0.0423267409, 0.0190252513, 0.0181254372, 0.0665370300, 0.0431999341, -0.0571562424, -0.0777284279, 0.0215321854, -0.0728776306, -0.0570356250, 0.0217387527, 0.0700438395, -0.0258366354, -0.0243100412, 0.0079296008, -0.0203557238, -0.0367974155, -0.0707351342, -0.0371510386, -0.0733002275, -0.0128997117, 0.0078383386, 0.0333864614, -0.0465747416, -0.0612849556, -0.0652976036, -0.0178700909, 0.0579192564, 0.0632761195, 0.0574156418, 0.0415538326, -0.0526623167, 0.0670631453, 0.0459558740, 0.0061943159, -0.0752124637, -0.0584982447, -0.0345652550, -0.0329295509, -0.0190012529, 0.0757425949, 0.0311484486, 0.0567459241, 0.0819456205, -0.0629484430, -0.0025119409, -0.0393144675, -0.0708647519, 0.0007985905, -0.0727791041, 0.0598166957, 0.0729819313, -0.0647582039, 0.0440921262, -0.0056204274, 0.0645427033, -0.0248369128, -0.0388181433, 0.0788486972, -0.0321422853, -0.0082848370, 0.0014905483, 0.0633083805, -0.0404500850, -0.0032794401, 0.0770128146, 0.0127176791, 0.0747445300, -0.0305584706, -0.0472435355, -0.0738441497, -0.0219848827, 0.0718365535, 0.0780841634, -0.0042334050, 0.0763880387, -0.0206680894, -0.0258144923, 0.0160859227, 0.0684387162, -0.0849823058, 0.0624962822, 0.0057153851, -0.0296088159, -0.0573722199, 0.0547700748, -0.0515394807, -0.0237496272, -0.0524329729, -0.0832066238, 0.0179632977, 0.0670013651, 0.0686761513, -0.0060487539, 0.0706452057, 0.0042153522, -0.0708024204, 0.0778283253, -0.0069418773, -0.0064656511, -0.0372543447, -0.0520768985, -0.0472343564, -0.0196789131, -0.0274569616, -0.0822273865, -0.0328444429, 0.0561175421, -0.0585395619, -0.0025579631, 0.0461932197, -0.0125797167, 0.0818807110, 0.0832230970, 0.0584776923, -0.0697677583, 0.0732725039, -0.0760487914, -0.0405912697, -0.0324457400, 0.0469551906, 0.0445171520, 0.0762119964, -0.0844204575, -0.0779344067, -0.0848099589, 0.0759246424, -0.0027749538, -0.0218871385, -0.0735318214, 0.0621435568, -0.0042602271, 0.0527829155, 0.0692569539, 0.0819764063, -0.0655602515, 0.0537460670, -0.0290937461, -0.0807942227, 0.0796036795, -0.0770877898, 0.0314396173, 0.0290281996, 0.0189380348, -0.0824372470, -0.0327601731, 0.0552208498, 0.0433664992, -0.0612657182, -0.0384182148, -0.0143669769, 0.0159919858, 0.0605293587, -0.0372357592, -0.0315040387, -0.0608923063, 0.0391490310, 0.0152286813, -0.0268479288, -0.0840989128, -0.0778022557, -0.0757387727, 0.0107276961, -0.0641781986, -0.0675449967, 0.0658039525, -0.0443018153, 0.0537215099, 0.0526012108, 0.0637979135, -0.0843573064, 0.0335832164, -0.0260542817, 0.0802821591, 0.0652385876, -0.0385746919, -0.0348094180, -0.0581518784, 0.0760345832, -0.0300143510, 0.0749793276, 0.0736511722, -0.0379061252, -0.0364627242, 0.0592828169, -0.0216770694, 0.0203669891, -0.0555322170, -0.0152691603, 0.0253853500, 0.0149945319, 0.0505539998, 0.0791825727, 0.0308280513, -0.0017965138, 0.0068357289, -0.0665919706, 0.0808671340, -0.0297356956, 0.0486078188, -0.0392286442, -0.0345517620, -0.0442421585, 0.0434449390, -0.0558193140, -0.0172048956, -0.0650850236, -0.0747879744, 0.0744457021, 0.0656893924, 0.0164669007, -0.0640474632, 0.0849329308, -0.0643210858, -0.0366395041, 0.0459862724, 0.0049158111, -0.0063181221, 0.0131887719, 0.0344046429, 0.0442626998, 0.0634687021, -0.0311340801, -0.0514687821, 0.0067950040, -0.0553191900, -0.0303097293, 0.0467233136, 0.0057338253, 0.0582085922, -0.0263392143, -0.0156032741, 0.0059799328, -0.0242562965, -0.0515183620, -0.0517014377, -0.0329644717, 0.0188756809, 0.0228505880, -0.0029615685, -0.0163497403, 0.0516089723, 0.0594542399, -0.0593218394, 0.0585633591, 0.0218667537, 0.0557340458, -0.0480110310, -0.0610981584, 0.0619519725, 0.0376060903, 0.0549754575, -0.0398980081, 0.0302149504, -0.0301780477, 0.0063487515, -0.0477363653, -0.0315857343, 0.0390500203, -0.0040531456, 0.0318941548, 0.0690690055, 0.0622309670, -0.0385398753, 0.0312243402, -0.0546199754, 0.0206380934, -0.0067380294, -0.0523157455, -0.0642012060, 0.0334213004, 0.0709538832, 0.0243427753, 0.0555283800, -0.0361354724, -0.0712862909, -0.0026126727, 0.0689950809, -0.0658850893, -0.0430073068, 0.0770665631, 